-2.973700196843631627e-01 7.004140790500090752e-02 1.875268266880064649e-01 -3.013764308276597470e-01 1.750776655590403630e-01 4.620434515152638255e-02 -4.198200476433437967e-01 3.786195827607934383e-01 2.447150160877213931e-01 -1.346243760826304481e-01 -9.533742480139539843e-02 -3.042075205825746087e-01 4.302868437798528234e-01 -2.795897235340740750e-01 -5.938149130700376421e-02 3.236824634326384009e-01 4.051169188849971237e-01 -3.645277115945817492e-01 -9.884997937619732777e-02 -1.233790500598737072e-01 5.911114946842377371e-03 3.010738088434490312e-01 -3.185972124405234140e-02 -2.173739103340743828e-01 -4.298806100124917817e-01 5.744213912141193923e-02 -6.960174846295441586e-02 4.778312668134251373e-01 -1.916906387079148066e-01 3.348583761478324261e-01 1.784495976153188668e-02 3.841621170099229765e-02 9.732612103503457401e-02 -3.356740095742808405e-01 8.410667062699639374e-02 -5.131926060331248873e-02 1.433536804587856039e-01 -4.033478214015814300e-01 6.189603788367781245e-02 -3.562526080504375692e-01 -3.667468185618467658e-01 -4.832367000474202534e-02 3.386531076061657375e-01 4.821007989144987516e-02 -3.108255970413746905e-01 2.831878006230427181e-01 7.847336051581255134e-02 2.487830541417391794e-01 -3.344119371642814142e-01 -3.962921914526175149e-01
-8.374199546058957999e-02 1.645037851577826338e-01 -4.160473642708969466e-01 4.394609817281145414e-01 1.282651741298330705e-01 4.573922909100255341e-01 2.503480341350000637e-01 -3.605043422099885042e-02 -2.599152000672940721e-01 -4.815724589003458345e-01 -4.142836456802558853e-01 -1.905657926909989364e-01 3.775833973094802065e-01 2.744100500239521345e-01 3.565312596192476979e-01 9.876531096526541820e-02 9.100940196152895734e-02 -3.296259577688328557e-01 3.895681060735274315e-01 -4.426325447829726478e-03 -3.939917947969842071e-01 -2.971320695995909311e-01 3.339740141440367127e-01 1.535378527052849718e-01 -1.279804004105423720e-01 -4.367184384613738146e-01 1.322735453972512243e-01 1.008728805823514429e-01 4.418136835198210877e-01 3.492484572009620925e-01 3.277847744165699462e-01 -2.584974627596309249e-01 5.996765930943737111e-02 -4.925299806869809505e-01 -7.771719737255877725e-02 -3.958162077539096879e-01 4.913321980923616161e-01 4.228250616348268043e-01 -1.625177428489207321e-01 -5.024167275650670561e-02 3.304557623434795088e-01 2.151423635849386562e-01 1.309338507211351699e-01 1.312147069727139792e-01 2.704520902563564144e-01 4.513931273403937183e-03 -3.394652847248820215e-01 -4.140187218316122575e-01 2.569384250462135588e-01 1.355270834858756102e-01
-2.759080139358354167e-01 2.141361085279853693e-01 2.024417656332112569e-01 -5.808178986919976250e-02 3.320080223995426350e-01 -2.480464236804751366e-01 -2.407631101754231784e-01 -1.057960068306288415e-01 -3.651373055996998129e-01 -4.371574716102271108e-01 1.591516218317862164e-01 -2.027316754014475420e-01 3.734171939817788610e-01 3.906970585902942439e-01 2.160713191370259301e-01 -2.560674662332077522e-01 4.160215011505493665e-01 -2.731506379469962331e-01 -1.349754672744652995e-01 -2.879035143096908556e-02 8.159108674369974779e-02 -7.514072916750624831e-02 -4.245837569117439925e-01 -2.066311409725989368e-01 -1.169792192130345576e-01 -8.013735961328216639e-02 2.678979285102601748e-01 -1.958393956689867821e-01 -1.521300752565963865e-01 1.493906498096004842e-01 2.522187570041204419e-01 1.146532878498608410e-01 2.213561024303857261e-01 2.035584251919192456e-01 3.149343837603334473e-01 9.712386157402885800e-02 1.304100583755474219e-02 2.674247281787053288e-01 -1.411854462118589115e-02 2.545388879679665317e-01 2.890558489531602770e-01 -2.705048962553796565e-01 -2.896678768981315599e-01 3.777052582346362986e-01 3.757032106483093603e-01 4.005457143884242344e-01 -3.920957635286365095e-01 1.602160030672140634e-01 1.341731017312119967e-01 4.730402728155453929e-01
-3.586325165953077598e-02 2.226280458679979757e-01 7.048537953531964009e-03 -1.823509582968564080e-01 -4.612515023328457309e-01 -4.279052077857636860e-01 3.294418521213680062e-01 8.862063917968114601e-02 -8.909281268598379100e-02 3.680433987199207002e-01 -3.348793906313243252e-01 4.044170045941497538e-01 2.997143259545003713e-01 -2.920430369159128792e-01 -1.832860656933895938e-01 1.614296435838385446e-01 -4.560755755910061993e-01 -2.405441370946781454e-01 1.571147993439674789e-02 1.452955883319437258e-01 3.264013917478482130e-01 5.827504792524962340e-02 -4.236206096436466728e-01 -3.998801153692329580e-01 -6.987386470151102369e-02 4.397818714459959533e-01 3.380002911524843667e-01 -1.166132839915090535e-02 -4.790870846020283680e-01 3.290579418292928771e-01 -6.810697882863792074e-02 -1.083995078050499217e-01 -4.603816023012707315e-01 -1.320611053030651960e-01 -4.894981498793055108e-01 3.034005066907472514e-01 -2.217640051479825847e-01 -2.930474864628008769e-01 -4.410730654907595305e-01 -3.776801602680420755e-01 4.322728070854467974e-01 2.744017473324977807e-03 5.316748394398485011e-02 -4.336592224220731095e-01 2.873756532962021271e-01 -1.892871105143460464e-01 -6.245234066494120828e-02 -2.069662274117648748e-01 -5.947251864512534403e-02 -1.011999762065449726e-01
-2.839131071376911342e-01 2.607417363193912374e-01 1.485448337055945700e-01 -4.947763841717616184e-01 4.876199552233647649e-01 2.952497258777611044e-01 3.704753641485118987e-01 -1.817603841708889112e-01 2.458480083765868240e-01 -2.101166665104670095e-01 -8.003053986907515682e-02 4.344835623382513612e-01 -1.523036195020577299e-02 9.930488126805658844e-02 -6.538279701476401584e-02 2.073003923158902584e-01 3.189421584132889897e-02 -2.806610846362100897e-02 -4.847155021664765195e-01 2.045906553391747540e-01 3.296182896153333486e-01 -4.358487837354937389e-01 -3.558927348535321222e-01 -4.568709697455720642e-01 2.656886816481093261e-01 -2.964212648634789726e-02 -3.053006111516047838e-01 -2.383201539282815418e-01 -1.840775853678822127e-01 3.132173345557254240e-02 -2.602220264828984941e-01 -4.135533195717113752e-01 2.368580391236452254e-01 -2.593867025643855628e-01 8.027967472228558776e-03 6.933453822100033026e-02 3.158927805520219678e-01 1.103505661615130640e-01 6.992795905323878625e-02 -1.499586944595023841e-01 -7.964195101624416129e-02 -1.180740880159081296e-02 4.632994119736478789e-01 -4.623177614279475600e-01 -3.439316737157118720e-01 8.220485834609658760e-02 -6.722529867894511124e-02 2.081116022399676080e-02 -1.753874622096093239e-01 -1.986024268464668951e-01
2.076456607566973256e-01 3.973328378765971225e-01 1.664085438101247094e-01 -4.860068169507844038e-01 -1.987948294578110175e-01 7.803208129216310240e-02 2.799510119467990554e-01 -7.644630699510124305e-02 2.592484846385845199e-01 1.546292862594031980e-01 4.031902032802910929e-01 -2.491996033335150962e-01 -2.177765440220168491e-01 3.180213459431856515e-01 -3.902045620342666776e-01 -4.775118381416749713e-01 2.110728042885131606e-01 -4.923513976433292472e-01 -4.855511773205670734e-01 1.520235134233637320e-01 -6.776771666025183105e-02 -2.725162557984414091e-01 -4.202567496565031702e-01 4.917825178957200283e-01 -6.865290164037696208e-02 4.325516865069641836e-01 -7.137624374674012007e-02 3.425798211118871173e-01 3.708697856267446635e-01 -3.238151743704378305e-01 3.832259760377970670e-01 3.060982214303031856e-01 3.795826158506165893e-02 -1.058364884462774658e-01 -4.298661508275600784e-01 3.302268217465436084e-01 7.289106184950500111e-02 -1.371139748962610927e-01 4.684100628627075880e-01 -4.728925081650495743e-01 -2.547902108778368202e-01 -4.394351528677222785e-01 -3.160643977860022602e-01 1.861321629989205473e-01 -2.024088408803054184e-01 -4.871785512287057918e-01 -4.612400756270403912e-01 4.886017332432276428e-01 -2.641234456619677706e-01 3.339736767627869973e-01
1.557168296362065885e-02 -2.219863152189948119e-01 -5.297031124439377514e-02 -4.637337473640883445e-01 3.327736833046348597e-01 -1.796554676852426535e-01 -4.439799621283972986e-01 -1.212668495763700172e-01 3.843793454167121482e-01 4.245617564942588684e-01 2.932735491083571233e-02 1.454122586541837236e-01 -1.097521667757352937e-01 4.619902517719784996e-01 -9.827913851182168425e-02 -4.527372265294890008e-01 -3.701515183464951786e-01 -4.701700849214641709e-01 1.462374774506518538e-01 -2.079599637945778179e-01 3.004882448006207518e-01 1.831605622695889890e-01 3.525433600577210225e-01 -2.808902031829879631e-01 -2.020049703770616656e-01 -1.508202013761092974e-01 -6.116412748968091950e-02 -9.731328401910799286e-02 -2.477574132479702929e-01 -4.182340974212839235e-02 -2.747701196932418322e-01 2.789726100295255584e-01 -1.350171935132244982e-01 3.688995048894913031e-01 8.325330390446505913e-02 -3.580791978965492950e-01 -2.716408024172033420e-01 -4.124159589230214085e-02 2.545084678461998484e-01 -4.844573814555116487e-01 4.248164198494329691e-01 -4.605897927654745150e-02 -2.815672385159940783e-01 -3.593983477766840018e-01 2.336906051250287053e-01 4.839890240116938580e-01 -1.252302693023727986e-01 -4.106884533952857019e-01 4.181576028903650766e-01 -1.664956402816292202e-01
-1.972109644395304562e-01 -2.489123578290753924e-01 -4.177365820310705025e-01 2.108923808782033338e-01 -2.927741165796182155e-01 -2.373270962690877117e-01 -1.670748659354362176e-01 -1.680529135122745821e-01 -3.274728418271105057e-01 -4.803707785720372492e-01 1.126947393628671690e-01 3.511388721609234875e-01 -3.871417781849336576e-02 3.453860811024138111e-01 2.215189545475858557e-01 -2.172808567071597419e-01 3.524941196257692089e-01 -3.864062064694374632e-01 -7.860747742957621687e-02 -4.020931899471885118e-01 -2.137612082950075820e-02 1.410610190547186560e-01 3.115320691896175664e-01 -4.250958898286701926e-01 3.919052388685425048e-01 4.988443343909176875e-02 -1.011732546955209852e-02 -1.461994412666181575e-01 9.979913667832167323e-02 1.119248756975658593e-01 4.923515179927669405e-01 -3.412379022668160511e-01 7.230301473365664811e-02 -5.118806582208956790e-01 -2.204510221753238353e-01 -2.217345348479774492e-01 -5.197897007291303328e-01 -5.142635427015622707e-01 1.884789828338069850e-01 2.491898138231166682e-01 -1.410326760253954349e-02 1.127769330518193225e-01 3.381215685293310069e-01 -3.891201495530690613e-01 -4.764152163133625884e-01 2.597183879689132779e-01 3.730492936190568654e-01 3.577221142709225560e-02 1.422632488791562566e-01 -1.337021477999185137e-01
8.821893465011576563e-02 3.957813776208884970e-01 2.562895522069762455e-01 -2.270697850274192575e-01 -9.937186079059323607e-02 3.420889165432314805e-01 -3.598638166136909344e-01 3.541354905090619010e-01 1.152906782970632982e-01 4.523091866342270340e-01 -3.016813315418920283e-02 2.334919743641626910e-01 -9.473704050010711697e-02 -6.022489295350552663e-02 -3.490255147533400937e-01 2.903244249051545323e-01 4.203727087272246532e-01 -8.410977344687364798e-02 -3.108854637339996119e-01 -2.329407020216038848e-01 -4.060831508020900094e-01 2.230875200982429529e-01 1.001871385713475338e-01 -1.755244812922654996e-01 -1.960767365167480625e-01 -2.263119545768528251e-01 -1.588041330335010493e-02 -3.714506456576455173e-01 4.375861548447970151e-01 3.313299758386794025e-01 1.000815310595123409e-01 -1.151949423645429738e-01 1.561937781715535545e-01 3.020351303882882199e-01 1.012725163220249414e-01 -3.436381241084806026e-01 3.481794239509516942e-01 1.872409424983789705e-03 -2.753381349431065495e-01 2.844508833728186525e-01 -1.905444745155249198e-01 -3.013757626904763898e-01 -1.776551086964612836e-01 1.102882426141057470e-01 -3.760284436343276360e-01 6.611408652934680497e-02 1.567194270600269501e-02 -4.883138201593728578e-02 -4.135231425824931195e-01 4.489397424313782414e-01
-7.326741206478006863e-01 1.228392196229312339e-01 -8.578293287129844236e-02 -4.151727794000331651e-01 3.625956286487932306e-02 -3.384016835218384700e-01 -7.819002089797699728e-02 1.288713846201491320e-01 -1.315157066040511247e-01 3.269147291330102290e-01 -4.695288841557566650e-01 -5.173797682756628991e-01 2.550348997779215421e-01 -1.486732117152042287e-01 -4.814191102037566061e-01 2.479357186098255228e-01 2.066775753534341731e-01 -4.627588977082601751e-01 -3.362636130100253862e-01 -3.567269459940742848e-01 -3.460554259464952986e-01 -2.217675868457259433e-02 3.923228884988027021e-01 -3.737633979586096888e-02 -1.199342234422371561e-01 -1.384203311387140478e-01 -3.291426464032372046e-01 -4.992579757588115341e-01 -3.208331606764352473e-01 -4.631655273217082924e-01 4.012144843866210508e-01 -1.501797265912464263e-01 3.006245847895782086e-01 -2.506821585287777876e-01 -2.501328388662283353e-01 -1.479538934441367026e-01 3.918101278059366727e-02 -4.823320549537322699e-01 -1.974526806778704457e-01 -1.356392290855057969e-01 3.546752565518609401e-01 -2.772346682353027947e-01 -5.667151488883721555e-01 -3.364984342725197419e-01 -1.524343641071568278e-01 5.010207882654066358e-01 2.638581504817283929e-01 -2.845550728852142691e-02 -2.875745292413904863e-01 -4.101784002031259035e-01
-2.119728641297381477e-01 4.969210524874608792e-01 1.911396200096905362e-01 1.807600218900541345e-01 2.578098866884561691e-01 2.965944543046195037e-01 4.562395037896940231e-01 2.520409430773076220e-01 -1.861728059073726183e-01 -2.835027210068663539e-02 4.829889161458844615e-02 4.993176141839519300e-01 3.984715327923956663e-01 -4.482607572218189063e-03 -1.631078879765134326e-01 1.770553336320546123e-01 1.610165918380486172e-01 -3.818368640035070261e-01 -3.132552668805682616e-01 2.444353631855092912e-01 3.341586993031877562e-01 2.865649402312842042e-02 2.998020949701214466e-01 2.993611735752853553e-01 4.029344615116312589e-01 -1.518549837903291344e-01 4.256235169717632605e-01 4.681250293478655955e-01 1.126722653692691090e-01 -4.153848422678456664e-01 4.382724479363842018e-02 2.277679531523236767e-01 -4.879743882597913363e-01 -3.540442164777906076e-01 3.332586027052670818e-01 -2.493004457227612214e-01 5.978543576976558249e-02 5.067816802961411238e-02 -2.730436163677403272e-01 -3.727943989583537565e-02 -1.254379000235383845e-01 1.975871489439865458e-01 -2.106719228162279300e-02 -1.858402721072747177e-01 -2.687040076731257443e-01 -3.422325768955580827e-02 4.356481473455352527e-01 4.127102526502230972e-01 -2.984785156677053353e-01 4.118977405283634763e-01
4.003635411523047694e-01 2.050275845090842042e-01 -3.062995084109846333e-01 4.339967680615122170e-01 2.289361805734746458e-02 3.316347846931312349e-01 -2.652100158430760191e-01 4.569895804016852470e-01 4.738283442829986924e-01 -2.528018184999605289e-01 7.301214428846980464e-02 4.616365472091713551e-01 3.995781503683448754e-01 -2.435980859216332339e-01 -4.697694828913688836e-01 -3.759378325424933553e-01 -3.869228367855384043e-01 -1.624809042042977270e-01 -5.905359492060469062e-02 -4.971460544241411705e-01 3.814024465954236609e-01 -2.503356923876176587e-01 -3.961706808542951874e-01 -1.084697680167520106e-01 -1.175366562839056384e-01 8.167755625572825640e-02 2.920275030087655654e-01 7.712269132075233458e-04 -9.241950001599896769e-02 -2.703338277773800202e-01 3.238774881796642191e-01 -2.454117532176910421e-01 7.453815900216853585e-02 -1.966628250618818186e-02 -4.128004375569594986e-01 9.939167738462895141e-02 -2.099872687111450364e-01 3.032842726031882430e-01 4.525484150542986583e-01 1.100633158230901465e-01 4.165570102553235454e-01 -4.252190153250026139e-01 -3.312064977989229719e-01 -3.628235121309553168e-02 3.380296955356746347e-01 4.234166793373044246e-01 -2.936492948661062474e-02 4.356370084602069204e-01 -3.187815942849409057e-01 1.021296891319576350e-01
8.288957559029397348e-02 -2.692684389973684089e-01 -1.325594237197883496e-01 4.937539538708483056e-01 -3.958261881517934899e-01 -1.603348279643795893e-01 2.484395211800889403e-01 3.229322857330718666e-01 3.711929642355554781e-01 1.626498132473546132e-01 4.977210497849062776e-01 -1.952148017468195995e-01 -1.042658270017696731e-01 9.375010419897289449e-02 -2.895043805365771217e-01 5.767808068596191884e-02 -1.323690992434106706e-01 3.391231261475617931e-01 -8.826076049975983828e-03 -4.754235844481845552e-01 5.604827830424574664e-02 2.376185741835389331e-01 -4.323304157407459325e-02 1.790358880611959691e-01 4.614126145091513864e-01 -2.575802377688910516e-01 4.979232661848368435e-01 -4.946041431015180123e-01 -3.202193738358436459e-01 -6.480035690545948857e-02 -2.183073269769094660e-01 -2.373438432040998469e-01 3.511265761984314615e-01 2.091776217148929584e-01 2.932483913876835491e-01 -4.560618373594483854e-01 -3.382440392447413346e-01 -3.932880875304898272e-01 -1.040312799863480908e-01 1.071892537318995808e-01 -3.450076951191296537e-01 5.144165687312196589e-02 -8.587582662651893628e-02 -2.501226368708865389e-01 4.163811941581946341e-01 9.876896679663971224e-02 -1.887208882991361358e-01 -1.094553188130329424e-01 6.957980927720974762e-02 -6.761767321064460212e-02
-4.471106315587142777e-01 4.458954936864881202e-01 -3.620256030001560155e-01 -6.856898107419645561e-02 -1.490874029070368423e-01 -1.441562497212368621e-01 -2.207750170334154272e-01 3.594214785689875957e-01 2.527588456352430901e-01 2.297707581808820232e-01 1.352054226182100582e-01 -4.654859918056166723e-01 -2.735604848873087747e-01 -3.829093792545185115e-01 4.488475670261597439e-01 4.129780202175600823e-01 1.134080492700633852e-01 1.337193549763507905e-01 -4.312065141529315970e-01 1.001053145513051690e-01 2.125075892978659231e-01 -2.877697019660009348e-01 -2.429905598913036924e-01 -1.618341029405661047e-01 1.258011928679958480e-01 3.802728500243606757e-01 5.813491392472552866e-02 4.249762377291290694e-01 -1.963184731033375541e-01 7.844877503158009802e-02 -8.366755556922792630e-03 5.526974250347515757e-03 3.459852432155114399e-01 -1.368600518068079641e-01 -9.262856674396036105e-02 -8.439220469211286546e-02 -1.736924521578290803e-01 -2.579446233919591158e-02 4.600913334165309676e-01 -9.568417949482288520e-02 -4.498207271576036836e-01 2.054964548141952063e-01 3.097739521905439330e-01 4.301319790467279525e-01 1.168560904547139845e-01 3.568408104946055315e-01 2.621443031222405740e-01 4.093551484550112529e-01 1.522731350385644056e-01 8.338735161764043724e-02
4.683796783289199683e-01 2.786445961293916862e-01 -5.670451033356990189e-01 3.436701634281970619e-01 1.913094466950351902e-01 4.932520651094152164e-01 3.765333766371390389e-01 2.912260855714959851e-01 2.375217734602347308e-01 2.017868611896198594e-01 -5.752186342090233051e-01 4.631269185773878028e-01 3.417031257424821833e-01 -2.993316965157786225e-01 4.782459105257501064e-01 3.563402866076216535e-02 1.049154151577445099e-02 -4.272181759334264806e-01 1.536671764404053953e-01 -4.121677110431547497e-01 -1.509222744021205265e-01 1.009112620918644482e-01 3.889750719771318810e-01 9.893398945650011544e-02 -5.183101117029516036e-01 2.597266744035292008e-01 -2.681718378563719418e-01 -4.731701902840249052e-01 6.433498373825702332e-01 -4.516838650052708015e-01 -2.251081357136635874e-01 9.883988107955127278e-03 1.808086468106023526e-01 4.674329244498612868e-01 2.223348022627806009e-01 -1.539117639247188640e-01 -2.731048106457089619e-01 9.628970112230410272e-02 1.562781834282200855e-01 -3.693336230635926865e-01 3.435545489054450674e-01 -6.240463823350213442e-03 1.101796385955423757e-01 2.337555979947294194e-01 1.547893713412407113e-01 -6.126649292598460583e-01 -1.913298710276693446e-02 -2.698227294232477536e-01 2.393204008811193606e-02 2.230585808159107619e-01
4.547977648308191845e-01 -4.161616981855774666e-01 1.937534106736298611e-01 -2.550584661087739180e-01 1.800347802491464311e-01 -1.163230742267280238e-01 4.708976931192185994e-03 -8.090377902395948229e-02 1.349588285914268826e-01 -1.560573760241665275e-01 -5.019329159169900328e-02 2.398484821039203185e-01 -3.561795507073132194e-01 -7.042549037301383541e-02 4.237853893339004197e-01 -4.569579979065115372e-01 2.026770252006898088e-01 2.261927718206397098e-01 1.690840098278253156e-01 -9.807738562650140934e-02 -4.329473929176796965e-01 -1.442729120347993055e-01 1.410901505029339698e-01 2.232528887217845592e-01 -6.710120449316628148e-03 -1.000330019532472831e-01 2.793152998025447697e-01 2.223479747993656885e-01 3.323390388587527111e-01 -2.597475385746956800e-01 -2.725927291162508759e-01 5.196926807064479459e-02 -1.336060327296531014e-01 1.449089529416324601e-02 2.744073881154550643e-01 3.305438361484064891e-01 -5.040127852777908091e-01 -1.984727870718588361e-01 4.661925670072703531e-01 -2.000188200331638744e-01 2.542988314271633632e-01 -4.463940536426823091e-01 2.286572922005300490e-01 2.227738858232436447e-01 9.587191160621609531e-02 -1.017072081637394820e+00 -6.706039450895438792e-02 2.515676246342241074e-01 1.498016482106974065e-02 2.019076074773663021e-01
-6.565860381906696297e-02 -4.886438297763653349e-01 1.486109298835841530e-01 -1.117244028110926379e-01 3.790494824714897293e-01 -4.528701887033721452e-01 -3.381389067058070408e-01 1.284707793300173817e-01 -4.897309522159133399e-01 4.072561456006522640e-01 2.236500965490304527e-01 2.384055989848019586e-01 3.044453871644727805e-01 2.425664205505795312e-02 -3.594541968821290956e-01 4.680465322099286452e-01 -4.108776448513740132e-02 -4.158521683123106438e-02 2.682929704177725583e-01 -1.120003970015523986e-01 -2.761924536782737194e-01 3.044285404520187255e-01 -1.314996669141236252e-01 1.154386784667674748e-01 -6.783361634282192298e-02 4.492332654188425645e-01 -2.849080745925907099e-01 -1.175154414935654090e-01 2.022252509093417361e-01 -3.675143702547160052e-01 -4.666823465981315699e-01 3.099847414970270387e-01 4.204287142944485023e-02 -3.890108080389046430e-01 -2.698396084782485049e-01 -6.457474196614898521e-02 2.818330904309758189e-01 1.514890308633668470e-01 6.504345239501219123e-02 -3.490852595749299736e-01 -1.067913685599144458e-01 -2.162946193319581489e-02 -1.102324195240146354e-01 -4.295617443830483939e-01 -3.014879042784456287e-01 -4.170414224904618328e-01 -1.756424392918837230e-01 1.649152282976984463e-01 -2.019169849826560892e-01 7.908905037870772592e-02
-1.210605133503662723e-01 -1.996260028615839399e-01 -4.738498030189545185e-01 -2.775917684841866517e-04 -2.056108980518782658e-01 3.194810006982544692e-01 2.807917679586071635e-01 -3.204107365064735591e-01 -4.112492786233370445e-01 3.066226210714084743e-02 4.779324219735110457e-01 -1.160225795213783995e-01 3.902128250480911831e-01 1.475229099786329323e-01 -3.841364238131421693e-01 -2.229561648357959447e-01 -7.535147594521629522e-02 4.671925022832030816e-01 1.913810303397652790e-01 2.244103483984433156e-01 3.810722680698354070e-01 -7.295646514197129395e-02 -2.703398669293539669e-01 2.115059041660776185e-01 6.587498888407261610e-03 4.534928045164661192e-01 3.481167645350609074e-01 4.958577321977596375e-01 -3.552005586622960509e-01 -2.572499174720279669e-01 -5.501004349438465280e-02 4.294521440971043047e-01 1.410567884890515655e-01 2.960023253053798431e-01 2.863804868574115758e-01 -3.101270303362346770e-02 -3.564350326833304328e-01 6.584808262289132408e-03 2.407736022372845008e-01 -7.704435888446770075e-02 -2.555344066407528869e-01 4.636442681176811131e-02 3.114235892201525635e-01 2.267991604881447465e-03 4.998010655393608781e-01 -4.456980826379997040e-01 -4.117302980516914790e-01 -1.106825759323101233e-01 -4.916640531266330827e-01 -4.079313004877482829e-01
3.327568993041921108e-01 -9.746935043257212716e-02 4.558877762452873683e-01 -3.165440426465615520e-02 -2.944064002325152418e-01 -7.305734781664154076e-02 -1.884599379587078571e-01 4.800041291237220481e-02 -4.684620283311123901e-01 7.940628854012503346e-02 4.515221988974907896e-01 2.605532834227664574e-01 1.290293545482379400e-01 1.177802376997109796e-01 3.088406871117316266e-01 7.793141051814549136e-02 6.656656316582727426e-03 3.273372951779802698e-01 -4.378836685235335535e-01 4.636388472055869570e-01 -4.309477815047550037e-02 3.103743262461883257e-01 4.921694698203915586e-01 2.793300430434794701e-01 -1.487593217362720259e-02 -1.901109347867298294e-01 1.073116383052630934e-01 2.609559033753205970e-02 2.868473589594108808e-01 -4.518586182377898330e-01 1.791361116713469093e-01 2.366694431586755520e-01 -4.999833792648220587e-01 -4.138921161570231488e-01 -1.746874355234610543e-01 -1.592853424997121292e-01 -2.569022799206316932e-01 -2.513409148713554031e-01 1.806314820093468387e-01 1.908323926124433079e-01 -4.517685915449611844e-01 4.847267769002238658e-01 -2.638279946634031203e-01 2.108380752550743642e-01 4.391964972580295057e-01 -9.817368169411306092e-04 -2.882910484084444946e-01 4.039682571743500317e-01 8.959409446854577075e-02 3.655716097820809196e-01
-6.189850838964500862e-02 -5.615840625954237469e-02 -2.927633024684380691e-01 -1.846737724569457728e-01 -1.249997625049489303e-01 3.136051850319853673e-01 -3.592976287332865781e-01 1.400586714686705703e-01 -4.885167149954355859e-01 3.434886631550659875e-01 2.610731211775054184e-01 -3.338505068560412847e-01 -1.467029302810674007e-01 3.871072100872586241e-01 -9.147768908912823349e-02 9.651425615781855649e-02 -4.653335357051525123e-01 -4.904198593324053945e-01 1.859798484744395741e-01 4.372820118660470934e-01 -2.823545049664323292e-01 -7.582330730953024123e-02 -3.002105069008588201e-01 -3.145529663941943888e-01 -4.555267409229733500e-01 4.251817775639407659e-01 2.955403774726152177e-02 -6.476840972822861531e-03 3.334695606337100826e-01 1.974431862104902846e-02 -1.228961777900048485e-01 -4.066654183089685737e-01 2.316902727404877016e-01 3.863104997975589372e-01 -8.275591480045017823e-02 -3.324303528438981026e-01 2.439257324969276997e-01 -2.104897914847278506e-01 4.158082644157734542e-01 -7.459481060225231497e-02 -1.090601648845646032e-01 -4.954889892793061801e-01 3.128921436545354373e-01 1.185250867989299378e-01 3.399912896771276616e-01 1.172792751979454956e-01 2.831719780479360349e-01 1.570287226015749105e-01 1.977025038577982230e-01 4.134924929167180796e-01
-7.064326519366202761e-02 -3.412310453016578760e-01 7.835422830931805527e-02 -2.117585586572678924e-01 3.831304841243887704e-02 2.411806686755666729e-01 -1.208212280793667659e-01 5.105356337195280370e-01 -4.965509573156201562e-02 -4.961330787653375762e-01 2.077441035054227725e-01 -5.516546344482912145e-01 2.068650637842544271e-01 3.195138872261569229e-01 5.954510540076354275e-01 3.511125771595159373e-01 -2.831161535958683362e-01 3.059455272508541657e-01 -2.963216139840407215e-01 2.705811969352418522e-01 3.245095064314507116e-01 2.510265345743707965e-01 4.241611403308829797e-01 -2.023368827418713933e-01 -4.031407309507145653e-01 -3.109193620512966660e-01 -3.147358273667305029e-01 -2.206724380771755423e-01 2.994264187030207247e-01 3.387924277161310505e-01 5.481222460292756865e-02 -3.801320554645172267e-01 5.141851374875946457e-01 -3.026944746423149146e-01 1.237440583661882365e-01 -4.346330272040804243e-01 -5.252714596990740725e-01 5.391494570274480980e-01 9.093935574098705246e-03 -3.873757644295718339e-01 -4.501649371250013298e-01 7.108098159836933813e-03 1.834999876500915950e-01 -7.528790615836961075e-02 4.581527552182391161e-01 3.448710278218307113e-01 4.130581385673822714e-01 -2.750551248233910617e-01 -2.654136424779049430e-01 -3.905172814681343585e-01
1.788537807818349201e-01 2.907263049437421309e-01 -5.257896839604491168e-01 -4.561000124381179438e-02 9.789112444009070990e-02 2.245581648093800953e-01 3.447389235912572403e-01 1.301060997552925397e-02 -2.999886494622203692e-01 -5.263773304171512901e-01 -1.006742223512150092e-01 -2.616556617142610230e-01 1.397701561104723600e-01 1.231844771048291598e-01 -7.926798527995523869e-02 -1.469331122041279691e-01 -3.588077087103301865e-01 -3.971871494058322738e-01 4.084442730177542114e-01 -1.583690674537265586e-01 -6.723859856384054035e-02 -4.895943582019660623e-01 -3.993003028337970828e-01 2.465016027654018393e-01 1.591329687258038750e-01 2.184322179039261888e-02 -4.087425161898841086e-01 -3.108950056987671018e-01 2.235476608784380814e-01 3.875166974351518800e-01 -9.365626344261071545e-02 3.546463762502328199e-01 5.198441505369509885e-01 -5.197688526111524654e-01 2.387405277702314699e-01 -3.248397722695015588e-01 -1.208704514391002044e-01 2.835435130814253912e-01 2.934712590502243090e-01 -4.762900132585605739e-01 -2.267569253575596466e-01 -4.861570497162483462e-01 1.860169032019172164e-01 -2.705181309260152323e-01 -8.815020779264053086e-02 -1.707412936461016266e-04 -1.705140906877908868e-01 -9.287806895231941542e-03 -2.443875266441948857e-01 -3.922103257473897875e-01
1.698052628558705812e-01 2.834039048322365417e-01 -4.638425269233432680e-01 -5.025920506211783989e-01 -1.744811286048689736e-01 4.170587797983809630e-01 2.848621443589716695e-01 4.386873520013772620e-01 -3.885433042664061531e-01 -3.499317503059261592e-01 -4.869641669292161246e-01 -1.100831121630980493e-02 -1.697813471671425489e-01 -8.299980713434981783e-02 3.371479194998746598e-01 4.480510443736808734e-01 -2.157689754785813152e-01 2.142522025132171659e-01 -2.158742248915971329e-01 -8.720059017031522863e-02 -2.534887868778236131e-01 -2.453519754671323883e-01 -2.619323243457368777e-01 3.318154344600671157e-01 -1.782007682896717404e-01 9.974518481227062638e-02 3.269780908058408930e-01 -4.598576077372097393e-01 2.216872341562527160e-01 5.286135549705653913e-01 -1.975364188171942759e-01 -4.376420524720027183e-01 2.891914566875254389e-01 2.048361192174149581e-01 1.366215882886634425e-01 3.210579591309012937e-01 -4.548488232254985220e-01 5.007100670602733228e-01 -2.151382477075416688e-01 4.601026732102244110e-01 -4.974192634068267393e-01 -3.549201226242499896e-01 -1.652254781841359377e-01 2.420650772517184413e-01 9.808461627576826880e-02 -6.840544692171403318e-02 -3.514244328630981157e-02 -2.131284165739422143e-01 -2.945313181439763173e-01 -1.425540919087313618e-01
4.961025857597087252e-01 4.736419431859762441e-01 -2.740655623100493044e-01 -3.817838724077343149e-01 2.135097605794692155e-01 -4.208037009475745771e-01 -1.466791929505951719e-01 7.483456446833292898e-03 2.067889028367537740e-01 -3.867208306155169306e-01 -4.289271585344315296e-01 1.028112210130044807e-01 -2.532273310489791540e-01 1.167658250062871689e-01 2.852574069867926942e-01 3.722377762775159193e-01 3.958626094230683345e-01 -3.528452594602295989e-01 3.081112776446102708e-01 2.860691107328282023e-01 -1.850245193974305591e-01 1.362584324795568236e-01 2.514376497688726175e-01 2.345598747745976098e-01 -4.954800903525306000e-01 4.326791565364281889e-01 -3.919510320836404604e-01 4.491329370644582264e-01 -1.825395695930714657e-01 8.228160482206510473e-02 -1.780574255127004846e-01 -2.407016993620351708e-01 -2.199085877155412538e-01 -1.344282393849606516e-01 -4.363264957607588257e-01 -3.040669123855467282e-01 -1.880748912759159508e-01 -4.807553116469119869e-01 -4.992808009637215161e-01 -2.496805431229048855e-01 -3.960890818768666999e-01 2.442312205099896882e-01 2.765393199967345339e-01 1.181886683744551858e-01 3.196736339710008756e-02 2.058827062101978300e-01 -7.919190213643703680e-02 -2.791278655399933584e-01 -3.166054566983412810e-01 -5.908253200835000829e-02
-7.905778890653979429e-01 4.386095511530132551e-01 -3.263977079496974687e-01 2.633213810362931562e-01 -3.909512284042725438e-01 -1.582104387606262930e-01 -4.048569611151089237e-02 5.458987836396822502e-02 -5.401201191380009536e-01 1.573602660985761459e-01 3.117377746952928325e-02 3.669598278138957448e-01 1.390128128077833605e-02 1.434754575162633661e-01 -3.358327358080519520e-01 -2.477193965126225639e-01 4.832918581445435069e-01 -1.525474721967962355e-01 2.598030842352083702e-01 1.640873864379160385e-01 -4.446757608497982073e-01 -4.544538512781951534e-01 1.573131343427691675e-01 4.371340867377037642e-01 3.370324654168300182e-01 -1.748132413568602717e-01 9.850283100719588181e-02 -4.003153706782017762e-01 -9.002468251041828573e-01 -3.179271744160286906e-01 -6.379835963204308902e-01 -3.922871697818789416e-01 -5.689858435653911695e-01 1.709170087953528483e-01 3.766738228623163487e-02 -5.307101682065422654e-01 -2.751771756899979993e-01 -5.023558926665600000e-01 -8.724461546355076758e-01 1.748966085951681182e-01 -1.617400558373291164e-01 -4.753743799975233553e-01 -4.598475056696408325e-01 1.939854595473241017e-01 4.944559290001157570e-01 2.736698497848776834e-01 4.221512005954377661e-05 1.225177238092838850e-01 5.811383774487486331e-01 -5.613214725645250258e-01
-2.737318229202695963e-01 -4.005745330694644446e-01 -7.937246416445230268e-02 2.724423739931789434e-01 -4.983836415960062882e-01 2.869525230309519781e-01 3.959859309512561709e-01 3.295237160191276105e-01 -2.514156649113596931e-01 2.094174314867575659e-01 1.293216007697885472e-01 3.955138943723997963e-02 -2.618253599713484814e-01 -6.698193055365907200e-02 -1.115645063490548483e-01 -4.438874287685176112e-01 3.148018928805017547e-01 4.939795710146311844e-03 -1.253594123095531088e-01 -2.336891234442468879e-01 -4.517236403150248769e-01 -4.874997989488548678e-01 2.754590650035267929e-01 -3.871228479874619377e-01 -5.234936879766419748e-01 3.567387453514141438e-01 -2.399481057680129537e-01 -1.620141286713920881e-01 -1.920267342928476673e-01 1.622918495108164327e-01 -2.630992842266774434e-01 -5.007616856074569717e-02 -3.000963136734455250e-01 -1.051865971315384535e-01 3.187256228538546954e-01 -4.204709077868367118e-01 2.629510687281804149e-01 2.106861912066980702e-01 -5.369780480191296279e-01 -4.082069986896543767e-01 5.666490816256444241e-01 -5.071068432474659105e-01 3.235943677207039904e-01 2.981817870152047578e-01 7.671672621685180493e-01 4.391774220241683180e-01 -6.910064139372015801e-02 1.613994530817373374e-01 -4.076458818358827396e-01 -7.888221236522138802e-02
-3.615592726519697986e-01 2.099749871993255579e-01 -8.466296020885836354e-03 2.483927428514396685e-01 1.397492533245459634e-01 -4.991597722274764282e-01 3.186570204063124967e-01 -4.970753353096220017e-01 3.099692486654909707e-01 8.466232882724702979e-02 5.173364909241212617e-02 -1.004245166437269313e-02 -5.550175759892355121e-01 3.809496043779878049e-01 1.906492888743011871e-01 -3.291899818765259278e-01 -4.019869034868939033e-03 3.123647244748173693e-02 -2.524250964216074311e-01 1.945999984049512355e-01 -6.791271262392187258e-02 -2.659553603439634983e-01 -1.809029902812165913e-01 -3.379190289274413561e-01 3.396599140442331244e-01 -2.255103433622469011e-01 -3.803856501464140671e-01 -3.662995920891817248e-01 3.658204745864703789e-01 1.273765568123259515e-02 4.949930470218026901e-01 -1.475712380825064118e-01 2.303453025130622889e-01 -4.243348017906963809e-01 -5.264825615019151916e-01 -4.273577047298583453e-01 -6.607321735694355463e-04 -1.480131570919863415e-01 -1.216835212005828032e-01 2.568259285725719154e-01 2.593366697527329720e-02 -5.264168430008864252e-01 -2.611181301268414301e-01 2.325259391615353000e-01 -2.618897718890696447e-01 -2.453954430714867518e-01 6.869523922424802809e-02 -4.084062111887528657e-01 1.100424764102525682e-01 -1.703525438959365423e-01
4.400199143081728881e-01 8.580327102339461998e-03 3.034012424133434305e-01 -2.690345592900867527e-02 -4.549243956573587599e-01 4.081506156428020282e-01 2.311195100831399049e-02 2.709520570658603411e-01 1.844240014003133976e-01 1.184021484474278157e-01 -3.769651532994749976e-01 -2.249403704566417181e-02 -3.045722690285716447e-02 4.181156887716042658e-01 4.409381238966169625e-01 4.635707080301698646e-01 2.549051828376475703e-01 2.075711285880210699e-02 3.318378997524050189e-01 1.440488212830931258e-01 1.306950886465346184e-01 4.960734762315927027e-01 -9.160894320845948402e-02 -8.346779012725416558e-02 1.142921221332218323e-01 1.503568268067139724e-01 2.870364582653811558e-01 4.186527112888759894e-01 -8.912695623804796352e-02 -4.743923624334812073e-01 2.255672397954171793e-01 -4.637659302043235510e-01 4.202599314667204711e-01 4.049893723945598434e-01 6.031373837396261303e-04 -1.331850969740083768e-01 2.180863242624956622e-01 3.677408931277814097e-01 7.589061824866325662e-03 -4.968277841826776453e-02 -3.980444763299709199e-01 -3.871171255729523031e-01 -3.195708733071601082e-01 -2.501751971510436379e-01 -3.728269990636694509e-01 2.069760711498833117e-02 -7.650401175722917890e-02 -6.796349402293119790e-02 -4.014278636937045341e-01 1.090992751864730131e-01
-5.999873919691156576e-01 -1.350035304977777184e-01 1.984528135078857114e-01 2.494317709509977776e-01 -3.035562185184862913e-02 -3.862336537355876565e-01 -6.414991545599263434e-02 -1.466444358653109237e-01 -1.847278228023677416e-01 3.922470672885704501e-01 -3.488935140135612789e-01 2.684058835594937409e-01 -3.599099366423073598e-01 -2.958209345291614167e-01 1.443624676698298803e-01 -2.760255840121798032e-01 1.188651798865234116e-01 8.037994728377431675e-02 2.289508340815750442e-01 1.778132453470541718e-01 -3.673090824597121107e-01 -8.294254771018451378e-02 -4.815382079212239819e-01 3.166245844663397868e-01 -2.699654784329446611e-01 -7.883318236659274392e-02 2.710538381303756461e-01 -3.247899093476311894e-01 -2.920033429730596319e-01 9.673098567066447384e-02 2.851490946223778078e-01 -1.863764280851811506e-01 -1.883403881279674952e-01 -1.951379356484206351e-01 2.165467920026938331e-01 3.123938891618781577e-01 1.120937052857764321e-01 -5.689775622450315463e-03 2.046830404381229027e-02 -4.117446999416441988e-01 4.859618896195496696e-01 -2.641332370198380408e-01 2.878011478041428081e-02 1.156096536253173671e-02 6.203148130810450800e-01 4.340789479738904055e-01 -4.477075659298621058e-02 -4.125309378665711901e-02 2.683824976119472683e-01 1.991465986164224836e-02
1.157866998879424937e-02 -2.160530494579335492e-01 2.754322007980506970e-01 4.478441630824394615e-01 -3.813169340179724531e-01 2.875110729020562486e-02 -2.163357335198880516e-01 6.711167051364848313e-02 -2.465882491645784058e-04 3.962154384547086905e-01 2.052726430158592075e-01 1.285201851627236491e-01 -3.862610641269345613e-01 6.611529515104944132e-02 -2.834509147837633303e-01 -5.059775051238628307e-02 -3.553937366974381784e-01 -6.931521307432580992e-02 2.980876876801376030e-01 -7.054651876241765929e-02 3.367039782832056960e-01 -1.544717227531955672e-01 -4.185724053557743352e-01 -2.305305100043606760e-03 8.935954747582575131e-02 1.186095084988455645e-01 4.326724287803814240e-01 1.949071764854222177e-01 2.331713258275681377e-01 3.873245007045833521e-01 1.076074118933191409e-01 3.201806329585650812e-01 -3.076508062286424927e-01 -6.633790680604488565e-02 3.208868194749895375e-01 1.192936875787592166e-01 1.087348539021330690e-01 1.344707643656019858e-01 -4.152906357417959216e-01 -2.569905630270621355e-01 -2.857643336187281613e-01 -2.128877210809140552e-01 2.865534154023997582e-01 -4.430695924882983583e-01 -1.583007807652598298e-01 6.782913261078563072e-02 3.548963410042010325e-01 -2.127883912242321540e-01 3.859105295206755604e-01 -3.681251059621064026e-01
-2.106336361250369382e-01 -3.033298672234445714e-01 -2.384453709650661279e-01 -1.084489118385318918e-01 2.753402206978745603e-01 2.045483511765845419e-01 4.271954337344968655e-01 2.934777101498395879e-01 -2.617236075802460427e-01 2.203041653578599046e-01 -2.980100109264645081e-01 -2.963052992276711262e-01 4.569204546562771752e-01 9.331106820991752482e-02 -2.013417262927222895e-01 5.769898137554441142e-02 3.704719380368614035e-01 1.487624814862242850e-01 6.778035412456884234e-02 -1.256789257149277805e-01 4.479484414621668353e-01 -9.551822258686781808e-03 -1.755617705750815993e-01 -4.754715562585188904e-01 -1.642615309001003165e-01 3.212716745223952453e-01 -1.582767940422991071e-01 3.113553687858788832e-01 -2.061030693702663452e-01 -1.411316492564425040e-01 -1.169473583483782164e-01 4.695047639729243993e-01 -7.424290524329946184e-02 2.474451194775124652e-01 3.917922501726441853e-01 -3.936717945637614458e-01 1.915177505248750744e-01 4.083658118390322000e-01 2.557983287266758499e-01 -1.154827889549102649e-01 -3.646393698058235655e-01 5.991784506202790794e-02 -2.819042706760909178e-01 -3.224608254463720014e-01 -4.871478692958081114e-01 1.021823992976075290e-01 2.126082623417311357e-01 2.852337912224313099e-01 4.166138551875369078e-01 -9.517095402096675816e-02
-2.338351874168398403e-01 -4.556798661409863227e-01 -2.097474811335292566e-01 -4.009398593379569498e-01 2.561833672172446619e-01 1.584474946659040206e-01 -2.547204947782750750e-01 -2.968738684689392615e-01 -3.303948493806087017e-01 -2.270603603488055011e-01 -4.459432806219969514e-01 1.999260718862143626e-01 1.002865695292388670e-01 3.506169150823175151e-01 -2.805339465274636623e-01 4.711910474286287176e-01 1.962814690144210061e-02 3.845912949169246753e-01 -2.161847277154627101e-03 -3.891971658157283853e-01 -4.584275959081682839e-01 4.351348748223597962e-01 -1.584196991764909024e-01 1.079593717817869392e-01 -3.025518120688077683e-01 1.629012000340251953e-01 1.837024132556371869e-01 2.640951147909464947e-02 1.585438048835052793e-01 -3.775682878686635879e-01 4.771296734168872788e-02 -1.898228187009379786e-01 -1.851012908950764313e-01 3.387293647556913756e-01 -4.177381471294498994e-01 1.149065129502802041e-01 -2.276834853316299645e-01 -4.293301079064388848e-01 2.910381379426110193e-01 3.169617193819566081e-01 4.826036307736674136e-01 1.562559633071858300e-01 7.493851162078302153e-02 8.663963671989605153e-02 -2.077086646956612936e-01 3.338048854211967953e-01 -2.972757977956467235e-01 -3.054560120396319078e-01 -2.852547889229948286e-01 -8.439334646959206765e-02
3.620714617642960542e-01 4.817864087954256691e-01 -1.016345878194080399e-01 -4.685945049390369821e-01 -3.916013351633121919e-01 1.366492421706092530e-01 1.279895943774733702e-01 -4.646356234942861096e-01 2.628941385284782051e-01 -1.105498290154427465e-02 5.800699840123568762e-02 -2.564889046071451295e-01 2.340502918622827666e-01 -1.068610825933540287e-01 2.736650765704502497e-01 2.688390338117341294e-02 -4.038635735676073812e-01 -9.749439713111207606e-02 -2.203587599745356895e-01 1.735520642291082938e-01 -2.774486968051311786e-01 -1.797434054553457283e-01 -6.570271092576074334e-02 2.044688065498864171e-01 4.593182525473824551e-01 -4.546751764438317078e-02 -6.393356663538907192e-02 2.225900707355742414e-01 -2.243726101304843734e-02 2.855323276138014288e-01 4.555994612978156999e-01 -2.633011212830199677e-01 2.373036987126179165e-01 8.772444565780834758e-02 -3.089401149210975195e-01 3.154590467145318433e-01 -1.921737990864980095e-02 -2.769750572950591128e-03 -3.059866993309112715e-01 -3.536526293913424546e-01 1.553050582584725170e-02 -1.661984059741572484e-02 4.905655549024956485e-02 3.142721826696093235e-01 -2.902508715730515165e-01 6.197866674030705347e-02 -4.072304668302670905e-01 5.950040256765787294e-02 6.095142705449874132e-02 3.001358299610956681e-02
1.837549666753096611e-01 -3.832982399058861844e-01 -1.067542779565541222e-01 1.997669805714109570e-01 4.918694650717562178e-01 -1.084781923117962288e-01 -4.737366610996363026e-01 -8.141741442765049186e-02 -2.649781810282381134e-02 -3.214776856618173362e-02 -1.806839641524364826e-01 2.896000303043366753e-01 1.283159872889007014e-01 1.681745873697136906e-01 4.573770909081475988e-01 -2.419408270965804908e-01 -1.396219197677102120e-01 -1.571450211399916252e-02 3.263369942664368084e-01 4.994649925392141698e-01 2.885949280987021304e-02 -8.086892973037773658e-02 -3.225598594233003436e-02 6.359249807512079578e-02 -2.739863172973608929e-01 -3.152622039550194710e-01 1.398007404293393208e-01 -4.202973855504721357e-01 -1.938054966937369228e-01 -4.673412287080582761e-01 -4.005142435296371595e-03 -4.371572465127337992e-01 3.091601579106806330e-01 1.719555071488378939e-01 -4.380815876243692175e-01 3.519408003194688384e-01 -4.898092403973186570e-02 4.543598983534662406e-01 -3.307085360353433368e-01 -3.886474529764678554e-01 -2.167192595144743494e-01 3.969741519870698676e-01 -2.401595560716912603e-01 1.161883907761634971e-01 1.821350949875466529e-01 5.617817130539615178e-02 8.260262155259323613e-02 -6.232320944347591318e-02 -2.621343900571172503e-01 4.327825913373700706e-01
-3.805497587360430201e-01 2.796761534057572440e-01 1.234122055182902411e-01 7.023705877490604710e-02 4.857646260687520368e-04 1.823953107402388474e-01 -3.541375557221269066e-01 -1.079825348679475105e-01 1.120807327836742529e-01 3.552209649295630101e-01 -7.631237166677751205e-02 1.313814207953619695e-01 -1.892171250042570252e-01 -2.546920215815262623e-03 1.683702234148899413e-01 4.922516702591629434e-01 3.170232488556412598e-01 5.431917364610150400e-02 -2.126836606571173016e-01 3.110126336957416138e-01 -1.457459216952252667e-01 1.565360556254525859e-01 3.968338016890845532e-01 1.448054598429046047e-01 4.740715148051818373e-01 -4.040920422802151135e-01 -1.516971617893293489e-01 2.764023879663890515e-01 -4.108461532767649915e-01 -4.835070109127269644e-01 -3.371231504785497934e-01 -1.871481243078132461e-01 -2.784528036944052820e-01 4.612605520347212718e-01 -3.560320908191823008e-01 3.078568634023809425e-01 -3.791179780884974537e-01 3.954785186606273317e-01 -1.947107312807806467e-01 -1.589490443544735454e-01 -2.453154525032205102e-01 -1.249674739120882894e-01 4.887587902101931947e-01 9.902978879395263334e-02 -3.231153651893200474e-01 3.477067712619059670e-01 -2.043642031194274900e-01 2.011779653154627256e-01 -4.744185220351475607e-01 -1.495053547437439345e-01
3.665697696022248153e-01 4.256667542636300428e-01 -3.196859340636741820e-01 9.772434721663035562e-02 -4.896241684200183242e-01 6.412986695835869444e-01 -2.575833882827677224e-01 6.672772377851357017e-01 -3.987267210223568448e-01 -4.550479589086490750e-01 -4.191175210983277277e-01 -4.633030313216517926e-01 -8.870583423476507967e-02 1.424569847395579236e-01 9.512594370881054251e-02 3.478522494087132877e-02 -4.905380584766396157e-01 -1.375121216149351178e-01 -3.777327777561533817e-01 1.929227529803519969e-01 -4.059585635197210940e-01 1.916210853596000130e-01 1.413814739717458337e-02 -3.212576634956563759e-01 -1.867070626283355225e-02 -5.105166596873074170e-01 1.306739705630270143e-01 -4.377504210025914139e-02 7.800049208766477449e-01 -6.075297294411913240e-02 -2.272691076206066196e-01 2.365862564250865163e-01 5.735343051493383415e-01 -3.254798582643412402e-02 1.363530698156114607e-01 7.447975574969400991e-03 1.724341699929446969e-01 3.035208164590398345e-03 6.422160739587820522e-02 1.437652526697267286e-01 -5.700763330057598832e-01 -7.984090533886094299e-02 4.746644066066676992e-01 4.026488573285846861e-01 -4.976849723597027986e-02 -1.106961837012297445e-01 3.554679219588039590e-02 -3.861242601330832080e-01 -1.866983092500763552e-01 -2.947394982125698948e-01
-7.325327433961769108e-01 2.428344316010205006e-01 9.099389409597180220e-03 3.325561408446379708e-01 4.644181977899859703e-02 -4.752340109797110190e-01 3.158829489609775165e-01 -5.111600225660949404e-01 -4.455098669311451098e-02 2.162425423706276495e-01 1.805726848371851934e-01 1.619314995450221381e-02 -5.148417105247939940e-01 -4.463992648174840983e-01 3.393421588346744455e-01 -4.266168460336987600e-01 7.754439912938579892e-03 2.792807520495234619e-01 1.026113609898176987e-01 1.835379221042528208e-01 2.657529083276335968e-01 -2.497142502219361626e-01 -1.267648342958285490e-01 2.663851143036520264e-01 -4.040271996915941743e-01 3.161813604120130017e-01 -5.089574383200657914e-01 3.899592161972014193e-01 -2.445800711676582306e-01 -1.161563998899821232e-01 -4.132090700019961926e-01 3.861289335161245950e-01 -4.359121032410628871e-01 -4.659188455285407926e-01 -1.248282421005121462e-01 2.568167112697242183e-01 2.691071956029249534e-01 -4.604160773985118138e-01 -3.487579553977845914e-01 9.786382626412008789e-02 -5.716244935617272038e-02 1.784979712743497149e-01 -1.638533057818950811e-01 2.523375920840317810e-01 -4.238028322104296919e-01 2.615282821475203301e-01 2.800857848887245982e-01 1.437148840376670511e-01 -8.470244942221376305e-02 -2.743353003527845835e-01
6.852800202041949007e-02 -1.813075870384836183e-02 4.696404623921755506e-01 3.626436822749978250e-01 4.547430809967662468e-01 -3.166668085069169192e-01 1.580533479811547515e-01 -2.112815155210283902e-01 -2.468328010079990763e-03 -3.672953310868214971e-01 2.729230859744251614e-01 -4.302473261832289175e-01 -9.266231496294496939e-02 1.727179690488691022e-01 -2.433522472567646588e-01 6.159878590189388214e-02 -2.026167764613191202e-01 -2.588753063609582905e-01 -2.627154538968869968e-01 -1.114164532468194663e-01 4.503626342874330613e-01 -4.207641815999497714e-01 3.471779259318480415e-01 -2.348438682800863542e-01 1.474990938446665845e-01 -4.783171765028567113e-01 -4.048152174959686600e-01 2.365489947240205504e-01 -1.942656841736711548e-01 1.132240584334975181e-01 -3.612791622040069650e-01 4.712475529225758075e-01 4.202089977772894835e-01 -4.232749328085294582e-01 -5.122529455262920389e-02 -3.414016126346013369e-01 3.610284070998063255e-01 -9.197402575289317928e-02 2.318736401177486084e-01 3.404998248477946604e-02 -2.715470635080859396e-01 -2.438352541532852191e-01 1.698689616489006404e-01 3.919623640396640019e-01 4.513243618897903042e-01 -2.776897092042194815e-01 -4.621849405317862147e-01 3.415993732765896240e-01 -3.966953740358103997e-01 -4.755148714287331657e-01
-4.661860912845589011e-01 -3.388955078198134796e-01 -4.101609995902748551e-01 3.764916449416254585e-01 -1.740979574640453276e-01 1.078302492021960962e-01 2.590411408505810531e-01 -1.221127308993293775e-01 -3.121740390023418632e-01 8.408398165822129899e-02 -7.935616671550768664e-02 1.809093932391951931e-01 2.815453533603358149e-01 -3.193417584201287407e-01 -2.061071239081982143e-01 -1.784609279473092225e-01 -1.713064979053202930e-01 6.146195236291477487e-02 4.338383301662743774e-01 -3.035264037648541802e-01 4.963743734814191622e-01 2.006008986909375569e-01 1.682362676999844542e-01 -1.851689760099939075e-01 -4.360619410766681803e-01 -7.303170374169250245e-02 -4.600419087411032337e-01 4.648272767685928120e-01 9.054478036109449290e-02 4.133393371997425292e-01 4.596406522889089907e-01 4.983734174222453212e-02 -1.302421532381392022e-01 -4.081730128871152163e-01 -3.831527916080173513e-01 -2.164074307267166708e-01 -4.931705577726853695e-01 -9.524117874385740201e-02 3.549937055901362104e-01 2.865678963478928143e-01 1.232957433741151965e-01 3.997801083678320655e-02 -5.771994505254186836e-02 3.254941374392557041e-01 -1.972456185120103067e-01 -2.114392709984708740e-01 -4.027639131138209261e-01 -2.064443744725288910e-01 -1.550919309542289903e-01 -3.383627308777558129e-01
2.715063095503622570e-01 -2.543678919674114414e-01 2.892243981879740952e-02 -9.103323938601033671e-02 -4.911881864017741961e-02 -1.412704030415299072e-01 -5.191543998850851604e-01 2.337007595939964016e-02 -6.257117485510482746e-02 2.620795045915638166e-01 -2.435667098821726537e-02 3.261019118796081306e-01 -3.814550280905032453e-01 -4.743085050526121837e-02 -1.436249047798776324e-01 -3.551785761302370115e-01 3.169924385168952918e-01 1.281689962962765383e-01 1.525757303964233036e-01 7.635470618042937245e-03 -4.557073051655834428e-01 -2.366912946332488665e-01 -4.757137649017052494e-01 -1.887258195030196706e-01 1.671067108637074583e-01 -7.745725149660077913e-02 -2.842322210703075447e-01 -3.517827224550612759e-03 8.096075331605062653e-02 4.394730058321706656e-02 1.687130810738569631e-01 -2.605822098406659904e-01 2.173767419287417346e-02 -5.351662926866532777e-01 -3.610652913083866045e-01 -7.872636158682356014e-03 6.194573593410561407e-02 1.724671007407912460e-01 9.065586682543297359e-02 -1.006397636992759220e-01 2.463372615007834165e-01 -6.644232305680729256e-02 -3.637476250933388000e-01 -5.901933722845121855e-01 1.487574198929577374e-01 -1.187085546383018775e+00 -4.203483439380405473e-01 1.915226531897077089e-01 2.448961181478670826e-02 -7.488761015127713694e-02
1.543607396141772337e-01 -2.558520753131639514e-01 2.744504357213443241e-02 7.630410026374405408e-02 -4.566529188550653151e-01 1.403453796646381702e-01 -3.841363354237812278e-01 -2.391462647923551788e-01 -1.372334296006776644e-01 1.558497539069286786e-01 -3.900003768553029770e-01 -4.395314923248310260e-03 2.811169876504368004e-01 -3.095663273063549159e-01 -5.017690159894885316e-01 1.507576318755213252e-01 8.661364758748571480e-02 -4.244717092708481521e-01 8.264296885987111596e-02 1.443343082898438934e-01 -5.156301703765242550e-01 -7.489393975820200777e-02 -8.496476639488820606e-03 2.825686267554877174e-01 -9.390225244050612319e-02 -1.988359871323256145e-01 5.592344420639771413e-02 -1.780039094257231114e-01 1.181205621933912320e-01 -8.771776470828666905e-02 -9.663763931166684251e-02 -3.004466868827055381e-01 2.973849120246656041e-01 2.599890592082904628e-01 -4.015204209219751519e-01 -1.518063024893758217e-01 3.493370945545824502e-01 -3.307501445100067272e-01 -1.635751768617609292e-01 -2.332398937651873339e-01 4.136442190464460766e-02 -2.511547067436987191e-01 -5.176638766955323767e-01 -4.439257491068813177e-01 2.056471919266741055e-01 -3.396214278537726949e-01 -3.804829347492440228e-02 2.730222836602665404e-01 -6.941863098805881602e-04 2.973544903699074649e-01
-4.290828999367894969e-01 -4.436004948995819763e-02 1.078906291768715747e-02 -4.241200385766575875e-01 -2.299938356364251979e-01 -4.343185428065884923e-01 2.307334531354075235e-01 2.747121710932990193e-02 4.361239058328452711e-01 -2.622355042421304350e-01 7.533502096083054267e-02 -1.138778678513048398e-01 4.151139335746371617e-01 -5.000753340378614187e-01 -6.280518209240514016e-02 3.498195296526951936e-01 4.533844370972973936e-02 2.543478083401241041e-01 -7.850092369389327640e-02 4.587412952635257918e-02 1.801143884403387796e-01 -4.239907496170867707e-01 2.191327336523612446e-01 -4.170249921763101164e-01 -4.539487207512840627e-01 1.212027603073699833e-01 -2.999892097323671458e-01 -2.046875529734763499e-01 -1.530475573195821948e-01 3.571115903723035001e-01 1.298861079357659931e-01 1.365868255938164910e-01 1.343096368623289405e-01 1.377901188161707591e-01 -3.130737954564145054e-01 4.521419519552756228e-01 -2.182750257938213256e-01 -4.181174230699630234e-01 -1.078994587057593019e-01 2.401109733424580672e-01 4.411346429796047380e-02 -4.591775784326465049e-01 4.014338341434308122e-01 2.243018642139272822e-01 1.632039066217771395e-01 5.263376074898060697e-01 -3.811686165240139035e-01 3.405640828800422515e-01 1.170403575684953595e-01 3.331750284779731452e-01
-4.464075694894971413e-02 4.185175490513887153e-01 3.070033148311960836e-01 -7.412674082815634558e-02 2.872819493378693245e-01 -2.456993465716691694e-01 1.102252206289910108e-01 2.940901853541455502e-01 2.013821611591062790e-03 9.994504175873224205e-02 -1.014808883925315403e-01 4.616089242163387008e-01 2.200265067144480668e-01 5.456848920868443559e-02 3.631138891532577628e-01 -1.900466948010921253e-01 -4.945658355122542482e-01 -8.675321538182308168e-02 1.685737528017564602e-01 1.226382439666818952e-01 2.942905644381774155e-01 -4.456520783454896995e-01 1.552021751023233975e-01 3.967947891136673622e-02 -2.136787870521863753e-01 -2.368912618946905912e-01 1.529255623754833815e-01 1.455454941661269430e-01 -9.961870359420882393e-02 8.104702318993349530e-02 2.469373018160216648e-01 -3.247934939061491999e-01 1.967819206542728294e-01 4.377360708196506023e-01 -1.978585219618378965e-01 7.484842791436514819e-02 -1.026064082554783569e-01 -2.765382648172143298e-01 -3.415584307722743240e-01 -1.287753340634907873e-01 -2.605214228146185973e-01 -4.772406347738750165e-01 -2.957709173270500203e-01 2.970928020261061342e-02 3.644557018017987593e-01 -2.177418313296329289e-01 -3.592260381021906701e-01 -2.026946821581702141e-01 -4.807246446679696028e-01 -1.959420537529604767e-01
-1.665063595482679792e-02 2.686567842753826985e-01 -5.091796807487120047e-01 -1.146858761165343576e-01 -2.866399186831095625e-01 -4.239445430970900652e-01 1.060393416482141860e-01 4.622211072121791831e-01 -4.451059801484382600e-02 2.921558987011166897e-01 3.237306772416592704e-01 -1.678823553278457059e-01 3.484102615195826536e-01 -3.909091206290173370e-01 8.891780708145335943e-02 -1.598459450419744687e-01 -1.067596431311541305e-01 -3.295691060078358436e-01 1.746033322047191028e-01 1.940576962043791542e-01 1.991993049760432954e-01 -3.904010564231081837e-01 4.506577703395915901e-01 2.582363592549206111e-01 -5.591628647685868009e-02 -1.297773621469591188e-01 1.967645651959312458e-01 -5.750119624860854615e-03 3.819988707487060320e-01 3.349514634934546153e-01 -4.173681513912356755e-01 4.184655661972508378e-02 2.016988282236048813e-01 -3.148251506888003481e-01 -5.250631987279612556e-01 5.318664450636098606e-02 -2.027109834717378545e-01 4.313482010503001396e-01 -1.669542885537326216e-01 -4.205951884376682437e-01 3.648610646269188212e-02 -1.564196001251457954e-02 2.191889664688180528e-01 1.854923160207173627e-01 4.797751617085626585e-01 -4.230568454174511994e-01 3.601209037830149229e-01 -2.141868651749430086e-01 6.108033511551615863e-02 8.447772262090125217e-02
7.182320447256831941e-02 2.597122769846563206e-01 3.705235571422965113e-01 -4.970962945921482135e-01 3.375585606591959831e-01 -3.325255152438131301e-01 -3.404589465553674033e-01 -3.758216470002315179e-01 -2.113448727818279804e-01 1.947407752033487038e-01 4.305148202686767678e-02 -6.444545774551669881e-01 -4.953266705959078614e-02 2.909691911491116834e-01 -1.767614172332686862e-01 4.425623212878742607e-01 -3.322033371399138457e-01 -1.274475131520113880e-01 2.079484998043708566e-01 -1.129657484073667145e-01 5.684418409525420213e-01 -2.091224625184371910e-01 -2.710751809682416802e-01 -2.133405560137666135e-01 -2.658421856915885173e-01 -1.057925237648364575e-01 1.834009109129257353e-01 1.602067805934529743e-01 7.747427588009368760e-02 -2.163862604061344286e-01 4.696762281906670666e-01 -4.260204818303141017e-01 4.257577352018560024e-01 6.168492311750796153e-01 1.623936560311468325e-01 2.110346909356982659e-01 2.849800182523172798e-01 -1.286371854871850295e-01 -3.822248055699369040e-02 -1.098831389976413254e-02 -3.511012224540933646e-01 4.052896258604951063e-01 2.065204210820480168e-01 -2.350662019216911980e-01 -4.039083842993469453e-01 6.279702490655222347e-01 4.249969811696037159e-01 9.866409203312030696e-02 1.192195544537014568e-01 -2.139975190766849611e-01
-1.891368267207743092e-01 -3.899630766484402655e-01 -4.483020860578233457e-01 -3.424959434415997817e-01 -1.503957667169082135e-01 2.884963665519693632e-01 -2.774203727282190113e-01 1.784939562053363959e-01 2.407913801785399599e-03 -4.389706433604642632e-02 -1.526574988456851634e-01 -2.035885105066125578e-01 3.158664022377303815e-01 3.181500263916826055e-01 3.513775415736870578e-01 1.971805959548586507e-01 -3.571469250138174512e-01 -2.633383273722254003e-01 -5.032220255613975013e-01 -4.221525575049882018e-01 -4.965026161157949924e-01 2.898175976264654174e-01 2.633774080216430905e-02 3.735979506764740554e-01 -1.035452809877307201e-01 7.410979764119568491e-02 4.125662047254151643e-01 -2.228432124978708614e-02 1.990664088760439043e-01 3.884133828120840959e-01 -4.825805436346377042e-01 1.244454216307541439e-01 3.710781561305531162e-01 4.292316131087933195e-01 -2.609447470998407237e-01 -1.068358936314062341e-01 -2.268528639948378389e-01 4.586231985052628968e-01 -3.348463718154175428e-01 -1.218561444662349530e-01 -3.827691991905537439e-01 3.004945892789528394e-01 5.698721959424699612e-01 -2.752667754558407731e-01 -1.559686351413713534e-01 3.634504074433763110e-01 2.318016425552027748e-01 -1.459386140220875205e-01 -2.788908181432180888e-01 4.935947015135071503e-01
5.153512013394532243e-01 3.903983245965715887e-01 -5.163439796408545446e-01 -4.074516205222442622e-01 1.188206216634936085e-01 1.645893772823016910e-01 -3.617624490313210983e-01 2.385574331434139883e-01 2.166879774831100558e-01 -2.382802967942210803e-01 -4.669890437539447187e-02 -1.457457923958343227e-01 4.184651062144443823e-01 2.310204559854015793e-01 5.114695627902310360e-01 -1.223450554025815873e-01 2.625267118686682166e-01 7.341646830052679651e-02 -4.860202394266106007e-01 3.314867826911421095e-02 -2.337319656812599789e-01 9.011982244831670541e-02 -3.455425507226524973e-01 2.746289050904031359e-02 -7.537789741306090419e-02 -5.248436326132885910e-01 4.000838032183581805e-01 -4.974857959203712876e-02 2.657806405865300037e-01 -1.549045409634070281e-01 -4.627134563955999091e-01 -5.007416195246608970e-01 3.856948085812352267e-01 3.411735406835485485e-01 7.842767516177502618e-02 1.711750105584136650e-01 9.657220845534652057e-03 1.536962328612382078e-01 -2.465450876669868785e-01 -3.291351252325331322e-01 -2.109968387280438396e-01 -1.884955698861252305e-01 -1.905893716664129600e-01 -4.265730460625709597e-01 7.460988975083822361e-02 1.854957481994381763e-01 3.817315749733936059e-01 -5.195084239027270012e-01 -2.565487312163637901e-01 -1.384507765139783853e-01
-2.868197823326439910e-01 -5.128521522120288445e-02 -3.001624196952764612e-01 1.919973498480421759e-01 4.753003530141520772e-01 -8.310243307875374297e-02 4.723446050004557195e-01 9.627538791985731925e-02 -3.511671613088429567e-01 2.398454144629911244e-01 -2.421972719242044825e-01 2.925024587472074833e-01 -4.989829188781976788e-01 2.580320419693529072e-02 3.118648498038210093e-01 -1.156384214129409400e-02 3.413536291397647471e-01 -1.924795420126598211e-01 2.868321570739569282e-01 9.029698808858299675e-02 4.829453981739772334e-02 -1.182180476807971337e-01 2.835021163778101982e-01 3.112563343240590807e-01 4.440869036807000292e-01 -2.333062337955236210e-01 -4.533506340404924728e-01 -8.039280414937910457e-02 2.933872261563774120e-01 4.293614227225843183e-01 1.100965092028532988e-02 -3.760432716711485379e-01 3.407317986829710432e-01 -4.842796813061138739e-01 2.832409983122048391e-01 -1.318471716055188425e-01 -1.121011321318618054e-01 4.763360415494982125e-01 2.170662097344225605e-01 -5.388563606647147480e-02 2.589178089871345678e-01 -4.332514791560738709e-01 -3.069167022417890189e-01 3.253972553384881783e-01 6.646702682710378673e-03 -3.134875270333605801e-01 -1.318079651544459552e-01 -3.334840639305067800e-01 4.448675192240731935e-01 2.719728408506826289e-01
1.080722302953034120e-01 7.887895250069104636e-02 3.403036540217133088e-01 -6.517231985207022626e-02 -2.738273763725798671e-01 -1.654384082418853819e-01 -5.068175656984453825e-01 -1.872724159926593690e-01 2.099515098885966768e-01 -8.503756866219550070e-02 -1.916798380109596689e-01 4.423143636117071176e-01 3.048641546027873739e-01 -5.482790432423033655e-01 2.063492599873582162e-02 2.543356841717748229e-01 -1.218648523420406693e-01 4.176218611441164796e-01 -3.719087792307245732e-01 -2.563358823885573609e-02 3.309187313970542443e-01 -2.438380587962400703e-01 -2.743994827709706485e-01 -5.155412974987816366e-01 3.949607653774854510e-02 3.312071988875682216e-01 2.853197378386113647e-01 -1.000136474495061517e-01 -1.957817912448382991e-01 -3.198061481561110808e-01 1.752721771409827128e-02 2.114965219029579790e-01 -4.505672553527527158e-01 -4.756281307616931353e-01 1.150238417553855891e-01 2.499516082465361722e-01 -9.149008677670217304e-02 -3.505511167788019078e-01 -2.653669676022624158e-01 -3.002411860388361498e-01 3.719101635957643426e-01 1.112196932505162827e-01 -1.084582272852845919e-01 -3.456375156498319584e-02 5.308669196472064478e-01 -1.577254308461333854e-01 -3.781537805131996999e-01 1.114918251515257946e-01 -1.471044025063537874e-01 6.527505133449756913e-02
-4.725282026265371638e-01 -2.519305115662499595e-01 2.494396589215442106e-01 3.728513968289134950e-01 4.115872665155075882e-01 4.940822478714013838e-02 -1.734640420786035531e-01 2.329620620306635526e-01 4.184843232226705956e-01 -2.830885666935533118e-01 -2.569837942323351387e-01 3.785080765120511503e-01 -4.858461250818377763e-01 2.430477720279804743e-01 1.165949283748144751e-02 -2.795743380767250486e-01 -4.825926769555312079e-01 -4.927822955581643294e-01 3.929181508022211999e-01 3.530264716056363827e-01 -6.839030900737809449e-02 -4.058468784927710127e-01 2.496493453832340226e-01 3.587527369224182694e-01 3.896285792052279207e-01 3.450933090926428526e-01 -3.823276549007887520e-02 -4.006371733483321540e-01 4.350816737583697025e-01 3.973009605138858036e-01 4.062411309701834949e-01 -3.109450147406479514e-01 1.037144066104143669e-01 6.040406574526034286e-03 -1.217311485526139103e-01 1.778623807458551975e-01 -2.532755338724153038e-01 1.618188392715032009e-01 4.213566331367395446e-01 4.242439198869986106e-01 3.191096201723174208e-01 1.076366408214717851e-01 -3.105010487169369560e-01 2.946688222832211101e-01 1.909215825411900158e-01 -1.395265585896438565e-01 6.798968101281885335e-02 2.257801599587540287e-01 2.403558403588901549e-01 3.824436861853686698e-01
-2.503983417633908193e-01 -3.953862121258420181e-01 4.795636398885073648e-01 3.478533620930073234e-01 1.055730264495666759e-01 9.086277756185068277e-02 -4.841571694855877350e-01 3.396742184977359358e-01 -1.761660049199571532e-01 -1.521102809035945747e-01 -9.229962225807963883e-03 -1.640266807761704415e-01 -4.200825133681336254e-01 4.075477390465638283e-01 -2.281639201794408711e-01 1.979081739901286108e-01 4.886899528219423861e-02 -3.958838300956452061e-01 2.853750262753599332e-01 1.356047991197506519e-02 -1.195818238097346997e-01 -1.501235827924518595e-02 6.855215391069247044e-02 -1.115947607939025144e-01 -6.969543534101385607e-02 1.930253118155470515e-01 -1.346973764197879619e-01 2.351589645262629480e-01 -3.032298974453940810e-01 -2.828106357325554931e-02 -3.437628330673657695e-01 3.105485812199152429e-01 -1.850995201392366951e-01 -1.940406906398765008e-01 2.908374131744662083e-02 3.473807319597279619e-01 -2.397355311636155673e-01 2.298279208999045586e-01 -1.493771445161081735e-01 -1.409628778313196662e-01 -4.546811550331649743e-01 -9.800420160979295137e-02 -4.399557098295007185e-01 -1.948479467530704889e-01 4.597783899085394754e-01 4.307170340107301376e-01 2.677378093647130308e-01 -5.242794667173611423e-02 4.147578982657637026e-01 -1.177282614482415557e-01
-1.050342704435457963e-01 -4.402863518536155318e-01 3.936624612144970503e-02 3.079431832318511586e-01 -4.823263490560254496e-01 -3.984306268094448683e-02 -4.871580555985871586e-01 -4.345720610098188219e-01 -4.399022335590442867e-01 -2.186952562724507332e-01 4.801977180588507671e-02 -1.058250599400274716e-01 -1.173171194640651865e-01 -2.259324734267512957e-01 -3.037005878178983820e-01 -5.570370758493826610e-03 -3.227740077912156780e-01 -1.572791203929295445e-01 4.132410239903468174e-02 -7.457581731685415660e-02 1.221291195053930273e-01 3.059754820227501559e-01 2.937792870651400601e-01 -5.158185615171481109e-01 -2.238138462661056760e-01 -1.676247368865698695e-01 2.329744582162251998e-01 -3.926332350712878339e-01 -5.570301642294085004e-02 1.153019218130832690e-01 1.662199085664311793e-01 3.907389221989292505e-01 2.320085326417094529e-01 2.989141532685359315e-01 2.529299784884726510e-01 -3.090991789528450481e-02 -5.746470897085388385e-01 3.118313507817566665e-01 -4.712113940425360914e-01 -4.700222261009172064e-01 3.257487125743649750e-03 4.757672861645435847e-02 -1.496406738747991794e-01 -2.083657123593332938e-01 -1.891639907865956260e-01 2.118481020979914586e-01 3.554141859298024508e-01 -3.601540070850353659e-01 1.789181152775016770e-01 3.667011579481144201e-01
3.089754394330380682e-01 3.100622459619495341e-02 5.362674444722936862e-03 2.714332204795850689e-01 -4.297004980088893200e-01 8.815161880346600309e-02 3.752864890568411438e-01 -3.982592379221546741e-01 -9.222051342096304616e-02 -4.684717499934373253e-01 -1.647995392155736649e-01 -4.637535136577571881e-01 -7.603905006626865415e-02 -3.408700867962631831e-01 4.561494221825184159e-01 4.477907989826374058e-01 3.589060755187990504e-01 -4.362172780594184562e-01 2.510074770025207958e-01 1.564763874848418279e-01 3.613355230016530584e-01 2.719069277263531648e-01 -4.500178446813613009e-01 1.775752021317158480e-01 -4.946527704298486761e-01 -1.079566779592325831e-01 -3.668825352098415982e-01 4.888638055803109506e-01 -2.728055457407239093e-01 2.008842994854153075e-01 -2.824901042463232592e-01 -2.567186353318235970e-01 -1.887274414062175554e-01 2.273433965449751515e-01 2.811386132006185035e-01 3.106898804477623566e-01 2.725128910425154150e-01 9.222904974561252356e-02 1.306572626219805189e-01 1.503102298392644531e-02 -4.376578671156435840e-01 3.698043214725285077e-01 3.116800066804569225e-01 4.625263429974613150e-02 2.561269089310896918e-01 2.150445855189651034e-01 3.763513947712402441e-01 -2.483463355319331933e-01 -2.471969453199329703e-02 3.140508442788393362e-01
1.335161649331075284e-01 -1.301136220188034154e-01 7.861180990665414536e-02 3.630791035742184092e-01 -8.479778219749825596e-02 -2.245628525235281725e-01 -3.739498968361131270e-01 1.676614079129232215e-01 -1.362350732212467552e-01 1.380471183651013067e-01 -4.870552079052982708e-01 2.640620008005797881e-01 1.735957177186601696e-01 -6.369080496654780377e-02 -2.517171742280080796e-02 2.387222317615544931e-01 -9.595537436625777017e-02 -3.376512615460839917e-01 -4.739268605595214345e-01 9.671712507463202380e-02 3.783940354933834627e-01 -1.405557606614533384e-01 -3.445432798824614173e-01 -3.265616958106550283e-01 -4.451654028256746276e-02 -2.239560724869986766e-02 -3.736205062113605035e-01 2.656004975475700913e-01 3.113597689419916187e-02 -4.886946436470551713e-01 4.930799608132623302e-01 6.820418160469465807e-02 -4.965886362589798098e-01 -3.149721807774322757e-01 -9.917511893809216605e-02 -2.301394559241418392e-01 -2.854882075540292607e-01 -2.974184347249119176e-01 1.795657998027174462e-01 -3.119340704627561744e-01 5.374705118267881776e-01 -3.500048656437361461e-02 -3.307731483767106795e-01 -3.146774885908216191e-01 4.467537264505681005e-01 -3.045161083216553766e-01 1.321126069547073068e-01 -8.987619262149976196e-02 -2.790750112979318853e-01 1.611868982085370161e-01
3.738618662590376118e-01 -4.695633918760871994e-01 6.825950632662225459e-02 -2.367595434701477153e-01 7.177532004187803238e-05 3.396112287864976320e-01 -1.335755641736652288e-01 4.027673886253735347e-01 -1.632869716108626967e-01 4.027038132955841343e-01 1.185376973496231612e-01 1.211734223560807511e-01 1.196086858224902905e-01 1.857756298268812278e-01 -3.554971803281438136e-01 1.601096859552686436e-02 9.069335337540840314e-02 -3.468252778985101425e-01 9.966546568385314941e-02 -3.523070666876801926e-01 6.745441838553223324e-02 3.568764565994730908e-01 4.701057755168217556e-01 2.351310473099885723e-01 -3.284163609020530616e-01 -1.097228185385180632e-01 -4.848749677604247132e-01 -3.235210414977015558e-01 3.050536759392064035e-01 -2.141929837616731724e-01 1.754461958339885719e-01 -2.343871771625594125e-01 1.764339504262703029e-01 -2.528297926417208963e-01 -7.825559282263694350e-03 1.954828630303748760e-01 4.860426378271452963e-01 -3.399768909435644249e-01 2.082175449315349924e-01 -4.206369427717272513e-01 -2.856564968066618304e-01 4.625256691194223890e-01 -1.608666561830842667e-01 -5.136962383543253186e-02 -2.152941591708735780e-01 -3.805130505029397092e-02 4.087219846115286437e-01 -4.223353807169276664e-01 -4.003294134473019961e-01 -2.310974353138334214e-01
3.014211698080875301e-01 -2.004704061139336302e-01 -1.885233742151553038e-01 -2.865237578560121401e-01 1.061924507968478038e-01 4.184354313014162496e-01 -3.300879875411752984e-01 -2.753077857157704145e-01 -3.121862144948953643e-01 2.643476000735439646e-01 4.195455396757407085e-01 3.349874871593336856e-01 -4.549958731607299800e-01 -4.618780762021396091e-01 2.234305558865440355e-01 2.957647763757798032e-01 -4.937463469975498231e-01 9.158577799306577560e-02 -2.923188626443365967e-01 2.839286934788237682e-01 2.356775993580957351e-01 -8.330294648511216149e-02 2.688002023828351961e-01 8.618618672168976147e-02 1.768690636929619586e-01 -1.242655283646235675e-01 4.050646599590868036e-02 1.939107345108189717e-01 -4.954358331246234703e-01 -3.826112031543256187e-01 3.985123671864831962e-01 -3.653999918833323868e-01 -3.423023614708590179e-01 1.064746454265241837e-01 -4.691393679949097395e-01 3.598376537095878680e-01 2.388742196198534451e-02 -1.819519201485350068e-01 -2.185890695054073518e-01 1.154720202883585678e-01 -1.270358615545840175e-01 -3.547097685327864625e-01 2.549305297730525277e-01 3.163555918775377007e-01 8.838863033537203151e-02 -4.791976003203934908e-02 -3.651038128938587368e-01 2.504209847292286906e-01 2.337434269914406837e-02 -1.298861652510988618e-01
-2.102517702500859287e-01 -4.172114243559267299e-01 -3.443560176464719597e-02 1.659681881541289761e-01 2.918107294178471159e-02 1.747143889132426187e-01 1.035727099655111560e-01 -3.933377089746065702e-01 4.053511158409314752e-01 3.906350680202667625e-01 4.194196083049208518e-02 3.612316355472017793e-01 -4.937146532402025834e-02 -2.265107674172758545e-01 -4.922534855333902254e-02 -2.248281450411521443e-01 -3.360713646069591887e-01 -1.839069958299196506e-01 2.460016912426393476e-01 -2.688445873855002666e-01 5.930031050863936171e-02 2.584195554084248725e-01 3.274199764251043976e-01 -4.198015506057916624e-01 3.687153072722367253e-01 1.262984905912812039e-01 -2.235553253740596713e-01 2.633230758466932886e-01 -2.364453198800872125e-01 -8.682101933797313487e-02 2.832960377611422609e-01 -5.184667147659440811e-01 -2.002099231988672401e-01 -2.726560639991462143e-01 1.123308716028410120e-02 -3.250417837603405413e-01 4.816826371185100458e-02 1.885957792842569147e-01 -1.656763996382934478e-01 -2.352244093460482410e-01 7.928269900410052362e-02 -3.560632954568283548e-01 -3.152267098568085069e-01 3.107155729338977324e-01 -4.778232754578513597e-01 4.607352136472404880e-02 2.005209798338987714e-01 -9.315071130675613154e-02 -9.020936239069082818e-02 -1.575691010264188563e-01
-5.088848221372801461e-01 -5.009898198308381234e-01 2.929957100509114620e-01 -5.178063205989695827e-01 -5.047667051569917351e-01 -1.145822697681731783e-01 1.273473380264018504e-02 9.344067911154264883e-02 -4.117489654988685244e-01 -4.484336445588278375e-01 1.518766998966278141e-02 -3.758110231693667647e-01 -5.133953667299679946e-01 1.825735293882283228e-01 1.723973296891786744e-01 3.673182191325447543e-01 -4.051831324247213706e-01 4.728775505492115866e-02 -1.189866870875758154e-01 -5.419190566368481399e-01 1.967077190341241233e-01 -4.805070576383064784e-01 -5.022779942585796631e-01 -4.463798003016439253e-01 -2.635457753152151139e-01 4.996398634132001026e-01 4.357700209289283033e-01 -4.346627517680340946e-01 2.212389732187165781e-01 3.995412173834126390e-01 2.781748064443627100e-01 1.126737237081521792e-01 1.082538222149284496e-01 -2.884267966502941372e-01 -3.328393938364140880e-01 3.909163829059814771e-02 3.277612043682989751e-01 1.816679717080006695e-01 2.438099573977042245e-01 3.536679515807581997e-01 -6.014054866647976505e-01 9.566123277177622508e-02 2.245795936282224958e-01 4.459316907102506278e-01 -1.416829339431714962e-01 1.392035402917771947e+00 8.559292472690808173e-01 -6.772262294078704725e-01 1.428440171210913420e-02 -5.612288848938949970e-01
4.788897068133217139e-01 -2.254307324661985745e-01 4.118320876263666941e-01 -2.052613491450328842e-01 4.164510294590420547e-01 -4.456722986779373397e-01 1.293601200657720218e-01 5.438966944594835207e-01 -3.880775525185941044e-01 3.792437417267757183e-01 4.070662017806102040e-01 -4.622785755195143315e-02 3.055590663046791611e-01 -5.390292873324397521e-02 5.372052487700792467e-01 -3.565858641969015252e-01 -3.111374463481096364e-01 2.712611797868922925e-01 3.419985574895396674e-01 -2.136308870111755798e-01 -3.824035098371640906e-01 3.926166216817186250e-01 5.977212852009366334e-02 2.999739610820670310e-01 4.228145574172403331e-01 8.153526181420883701e-02 -1.335738619626444246e-01 2.087968371522328503e-01 4.197483913575921766e-01 3.216344060850623299e-01 2.987597108522919709e-01 -2.092726756423220202e-01 1.429279604176612595e-01 -1.853163376712181620e-01 3.641500814011252030e-01 -4.375675318044041084e-01 3.581007789992468049e-01 4.206702035627603586e-01 -1.341804494365729239e-01 -3.807422574222137091e-02 1.699301296179590026e-01 9.419791981287822802e-02 2.672728109587883538e-01 2.155416320378151229e-01 2.872143709901825992e-01 3.452805400167760497e-01 -2.759703695649595723e-02 -4.724626427518895389e-01 -5.179976919964155435e-01 1.953140171792860924e-01
-3.730207265759672985e-01 2.591719873218477077e-01 -1.322598052979473693e-01 -2.872592487372828685e-01 -1.901089433614364457e-02 3.022673829827280945e-01 -5.138358124227991874e-01 -1.446022255576118742e-01 -9.120399910617432715e-02 -6.485041259604851227e-02 3.622028452462158071e-02 -6.245274173129647388e-02 -4.750762513065723835e-01 -4.638485702475830808e-01 -3.823172035616153597e-01 5.345457275713402095e-02 3.302702528855155917e-01 -4.226334280334660409e-01 -3.402470663474634893e-01 7.001833917242572536e-02 -2.293925829110899928e-01 5.384858468528920528e-02 -1.122473190656244624e-01 3.669022639237589090e-01 3.342035931491125211e-01 -3.556707082334282233e-01 -2.211493369752299265e-01 -4.873472683746701145e-02 9.866214103621319745e-03 -5.118817239012800613e-01 3.393597010898036781e-01 6.308579953007471819e-02 1.249962976145157223e-01 -3.959711621157654959e-02 -7.383458900992735663e-02 4.587400119729852233e-02 -8.847859449681526323e-02 -5.786007449128018898e-01 -1.426057796019576662e-01 1.894159377377837017e-01 4.930172220469005578e-02 -6.712997287701433051e-03 -4.827722735319971981e-01 3.137235692136096099e-01 2.928998766160060829e-01 5.536672497008806454e-02 -1.488294152008397091e-02 6.213331057395211215e-02 2.889767917756743132e-01 -3.400848446204153830e-01
-2.569247757036625668e-01 1.353472900650776189e-02 1.589732348499955927e-01 -1.136108556147388260e-01 3.770999169334487977e-01 9.602629617223401581e-02 3.782362005892251355e-01 -5.938155672468536928e-02 -4.235689612551026828e-01 1.188915706966628960e-01 4.472799759641902240e-01 -3.443866454303208258e-01 -2.065076482750314302e-01 1.613531562091332638e-01 1.619516457194450920e-01 3.984616312014698236e-01 -3.261351809277511782e-01 3.409354576086959243e-01 2.313463875868680963e-01 1.340074685023902035e-01 -2.958310576288457616e-01 -2.370195504739168735e-01 -4.677123474063084041e-01 2.014422332899857837e-01 -2.363653127287013156e-01 6.510218544481671810e-02 3.342526928865439118e-01 -3.433562555661723303e-01 -3.970166739160730929e-01 2.960673845339709676e-01 4.034184859368818987e-01 -4.694503666467984004e-01 1.331978258546768767e-01 -3.394418502125791104e-01 3.073728411247690362e-01 -4.332178248721285652e-02 4.673234716673257960e-02 -3.866499140381114419e-01 -4.835576236120818772e-01 -3.027286959129308341e-01 4.716383038042917253e-01 2.463956553823429818e-01 -1.976483570153816371e-01 -3.940638656541696205e-01 5.698649073835326817e-04 2.314807533608881362e-01 2.388472171450168879e-01 6.562148412790391738e-02 1.445197011526180297e-01 -3.684866904033158308e-01
-5.456121672455875871e-01 -3.962438152850852879e-01 3.023584614223745470e-01 -3.934737918002144674e-01 4.389072251944855507e-01 -3.301996842254272813e-01 -3.459283275029351179e-01 1.902380858454349177e-01 4.691410059800572019e-01 2.505013336970867699e-01 8.853943212539215624e-02 -1.680064441422104982e-01 3.894642153199464468e-02 -2.275395967210472326e-02 -1.420611030131820607e-01 5.441680715659849912e-03 -1.541183135066491461e-01 -1.373309850516422626e-01 2.206992444475246451e-01 8.046281152331306863e-02 2.130073190592274290e-01 8.040272735694127537e-02 3.308171102745696441e-03 3.785968622365615266e-01 -1.591835760176913972e-01 1.898320569618243414e-01 -3.403780587628420506e-01 9.064570932778405477e-02 -5.144720042528924120e-01 -4.454958765982892088e-01 3.231626531795442903e-01 3.584115729725163013e-01 -5.443448317975232431e-01 -4.563478857649512221e-01 2.610089371221989696e-01 3.635457855337348443e-01 3.596554940717232914e-03 9.012182770997854628e-03 4.065182405035257240e-02 -2.553341148438664221e-01 3.014780188232442093e-01 3.845436113727644656e-02 4.149062373330926756e-01 5.501873462835405425e-03 3.325179234341957279e-01 3.710028355638859132e-01 1.751399945915826650e-01 -3.318073763265572129e-02 -3.232873604797621425e-01 -8.874413851979656709e-02
-3.053098031268475787e-01 -3.105415767043530617e-01 1.144534329038041920e-01 -1.653436953092903283e-01 -4.646761359812567882e-01 3.186933617284981035e-01 3.015096344086672375e-01 -2.410099634704012395e-01 -5.466266827320128696e-01 -1.397348231463731438e-01 -4.032943663016598235e-01 6.562866761758620049e-01 1.410106172046242112e-01 1.270873231176827545e-01 -4.711093330388630984e-01 2.623714744616122974e-01 -3.785615911887064144e-01 -5.106919777947717121e-01 -2.259800618061144628e-01 2.123169309606580402e-01 -2.344692436795554891e-01 3.833767837854796801e-01 -3.508820477090122264e-02 -3.079124730870340387e-02 2.722230378772403925e-01 -2.470752099169361282e-01 -4.826497644790470609e-01 -3.063937182317616470e-01 -8.773381159364566084e-01 -3.063092929759892932e-02 -3.745137738764012791e-01 -4.347963864533915812e-01 -1.950704796593239476e-01 -6.682727713741632991e-01 7.586728244359480788e-02 -2.489106810197397324e-01 -1.813170545069833217e-01 -2.797479490229562438e-01 -6.697453778415022319e-01 -2.224068056453262776e-02 -5.816760912096978486e-02 -1.932286393428261917e-01 -2.672650673641263075e-01 -9.704424828103061507e-02 1.614667553813818324e-01 2.457319281760832197e-01 -8.240607130242552647e-02 6.204014562425187451e-01 4.030584597773467781e-01 -4.364927069090476786e-01
-4.047445794347873660e-01 4.197265455038915460e-01 -5.479060952315066846e-01 -1.171323400973375839e-01 2.571083985969175312e-01 -4.594894209242175176e-01 2.423031664989825085e-01 4.874676552202350521e-02 -5.113555262816448232e-01 -2.419233011025895830e-01 -3.372268505649908543e-01 -3.094868221817509979e-01 1.794925157078232913e-01 2.840481307523595733e-01 -4.546584966231182606e-02 -3.285859816544094147e-02 2.501886292012663882e-01 2.661731342753408461e-02 -4.216941334184612922e-01 2.596939442330537529e-01 -3.997470378098087473e-01 -2.763393267636857775e-01 1.127745786731981503e-01 3.406234708669716449e-01 6.569252231633655736e-02 8.948895248575858274e-02 -4.471455210085921173e-01 -4.932676787072146074e-01 -2.275280556126032250e-01 2.837065009116486181e-01 -1.360421082756379518e-01 -2.847854445175693194e-02 -3.919578696057792744e-01 1.859838239235156454e-01 -3.829818011339078399e-02 -8.916685899399910686e-02 1.218782704743271023e-01 -2.010281125883548459e-01 -4.319930990895214373e-01 -5.432087406874805957e-01 -1.218799681182704819e-01 -2.047861302146780915e-01 -1.267115858288778985e-01 -3.638960273798249045e-01 -6.516509230128557373e-02 -2.684486893015767262e-01 -1.843267710540641979e-01 1.708860242202583368e-01 1.380121337604125753e-01 -2.797563963796376174e-01
-3.681470525674859773e-02 -1.844958261989064208e-01 1.662942692465494421e-01 -1.337834420365569266e-01 -3.506979651270711318e-01 3.631961254770345593e-01 -2.612311873058721368e-01 6.687758152101443143e-02 -2.067428604652039592e-01 9.765195967786430287e-02 1.170631350876008003e-01 2.091928013642353479e-01 1.201242885048582343e-01 1.728417428931515176e-01 -2.226881949497812319e-01 -3.281901997407257743e-02 1.731457091971626283e-01 1.395872625564489322e-01 -3.495783632966844579e-01 4.511465467607707058e-01 -2.473209173202559619e-01 4.522857722533847324e-01 -4.709320147603497375e-01 -1.021716112937096771e-01 1.395037431018108787e-01 5.744726359959802936e-02 3.673950567397086808e-01 -3.551349596242246442e-01 3.785397503902311889e-01 -4.575268208534669090e-02 -4.023757312416668119e-01 2.380034584462253633e-01 -4.074283862641523563e-02 -2.408055766882111759e-01 5.787037316961422817e-02 -4.838507662060632653e-01 -2.614673360388359846e-01 -3.191423114899867852e-01 1.657066699619333177e-03 -1.302176123497179594e-01 -1.636107647742749138e-01 4.652740421109352598e-01 -1.809206155756269419e-01 -3.664259888168705515e-01 -2.621494753793606747e-01 1.765537035407432065e-01 -2.882698031801881333e-01 2.437001851212167169e-01 2.898679409354645298e-01 -1.420471059783838808e-01
1.274441677767711445e-01 -4.935722064619683103e-01 -4.501654857090152673e-01 -4.241634413999214592e-01 3.472872731224639908e-01 -1.276961972691081915e-02 2.501109868856099538e-01 -4.279411210204742133e-02 9.356930728400281172e-02 4.899529996234338602e-01 2.037411248434057853e-01 -4.091277166303597390e-01 -4.172954788091378653e-01 3.126423949538975622e-01 -1.927563902245950089e-01 -1.253073294717116370e-01 -4.758330261726085864e-01 -5.593755604010175464e-02 -2.491205485519887297e-01 -9.748342189791803225e-02 2.695355858544156158e-01 4.976079995078196427e-01 -4.937426409083666146e-01 3.550687113195952760e-01 -2.931265759783426850e-01 -2.016265043837797144e-01 -2.562609970618137112e-01 -4.639769689278503417e-01 -3.470929743304888015e-01 -4.537486158328939423e-01 -3.273026632020284987e-01 -2.084199764773455588e-01 -1.560767082220937407e-01 2.429496910671792298e-01 -2.584037166705759336e-01 2.545413993519015650e-01 -4.599163163041620761e-01 -3.277293343025844408e-04 -1.879133469110892962e-01 2.809776190023116627e-02 -1.098566404466820856e-01 -4.924593731516491157e-01 4.654098943844114933e-01 3.626605857968417945e-01 1.274945390273402035e-01 -5.600233197275872321e-02 1.997196269384527989e-01 -2.273505076210994291e-01 3.365494164827231849e-03 1.455746105630525422e-01
4.081096355585552837e-01 1.421236585534801922e-02 -4.803510084138442604e-01 4.945872415584360304e-01 2.631120712347619905e-01 -4.015840129428249750e-01 1.257677114093854742e-01 -1.199153220135815712e-01 1.654544312845238618e-01 -1.665060370396248546e-01 2.183371306749427587e-01 -2.872680960852023180e-01 -4.452385028112293419e-02 -1.115621443740165697e-01 4.824769236312460574e-01 6.801775418989819411e-02 4.235219762663336995e-01 8.755941478121942456e-02 -2.761929129593959642e-01 -4.187099675396831477e-01 3.729431347648551887e-01 1.339801246792543532e-01 -2.349021961382043999e-01 -1.486632719668837810e-01 -7.363116137201108913e-02 1.895887300738403614e-01 1.467491503004736408e-02 1.922453793992933146e-01 2.728329203923115509e-01 -3.700834953667142546e-01 -3.974550819714508521e-01 -1.410187489258279969e-01 -3.952199355471797126e-02 3.362108261354614935e-01 -4.825117535151258741e-01 4.588618382888152158e-01 -1.432183404357828538e-01 2.899237173472577478e-01 1.081582766796163053e-02 2.198061241051001424e-01 1.291748746476396592e-01 -1.535883298293557742e-01 -3.886501236332385867e-01 -3.476499403066800609e-01 -3.230902967637678813e-01 -9.457123908879982999e-03 -4.751392808936111267e-01 6.023480212867948769e-02 -3.227202928242599578e-01 -4.175727724802051899e-01
-6.641327611654075369e-01 -1.471186834427803680e-01 -5.171923267846784134e-01 -1.900666931229386125e-01 -2.225694297143845368e-01 -1.614343519441943098e-01 -3.778329255151804400e-01 2.620705976144072080e-01 -4.104698686459753443e-01 1.044051492797334474e-01 3.512643202062012415e-01 3.609421596629537876e-01 3.885535461192977658e-01 3.796481410849406046e-02 -3.877142164405305569e-01 -4.284809381193314670e-01 -1.325557358024473387e-01 1.561662536302571846e-01 4.655381473750967447e-01 -1.696742738827134167e-01 -2.275160276360671530e-01 -2.005791948911937184e-01 -3.316171768080093951e-01 -4.542667305942000855e-01 2.645242161650784296e-01 1.990884735843966302e-01 -2.722729934028289556e-02 -1.819348105734942267e-01 -4.402217357344834769e-01 -1.086399510125228701e-01 9.870910752444943259e-02 4.352629978687808654e-01 2.599086190009202713e-01 1.767290282484808017e-01 -2.502662442809020504e-01 2.991290929142731980e-01 1.384185208471340640e-02 3.725309478398067253e-01 -2.701530332796558409e-01 -1.331643591273828919e-01 -2.903355956064289090e-01 4.251188868808595811e-01 2.999775656529874435e-01 1.460319423306277731e-01 2.673903176570583407e-01 1.610117561631019822e-01 2.171420355297281335e-01 3.818168666974207093e-01 -3.071628151872973223e-01 -3.429446667032872154e-01
3.367671595088396197e-01 3.467736545953170602e-01 -2.305817779849690385e-01 -1.173596939991847776e-01 1.659492020673313251e-01 1.763467440939211206e-01 9.769993939393784022e-02 -3.346136658298849986e-01 1.278357067670372604e-01 8.439171532632350203e-02 1.425199617383556827e-01 -3.380324100731432191e-01 -2.963024188977303464e-02 -4.145017365416903687e-01 -4.660225849433787260e-01 3.231575327051793844e-01 -2.686889823411916511e-01 -2.919107410467934871e-01 -2.562009549267817432e-01 -4.419385505028659011e-01 1.705167124422249381e-02 1.804729991221365459e-02 -4.170272099623197892e-01 -4.348404256894838893e-01 -4.404132233454749468e-02 4.630113257426687889e-01 3.736390083498227210e-01 4.382182377320285038e-01 2.670492542633571276e-01 -4.335987525831716538e-01 -4.867111777516651139e-01 8.450023677000377542e-02 2.184474248129674168e-01 -4.564335909202198449e-01 1.016933181023872423e-01 -1.122805740281415943e-01 -2.888417509053109455e-03 2.440002990825334839e-01 -3.033956539103621619e-01 -6.033153324285970426e-02 -3.354545278203687753e-01 -4.004377553453794536e-02 4.466469239703304561e-01 2.461484029462449041e-01 -2.801973602062078905e-01 1.274110215234921240e-01 -4.509649830744710819e-01 -2.869270620259505300e-01 -4.728380514276386837e-01 -4.772034496743171594e-01
3.884960042397137547e-01 2.789297859939392499e-01 4.768279903828573918e-01 1.311325529275737534e-01 2.756181849438714693e-01 2.811335869732024539e-01 1.874508465113057243e-01 3.888939263577829708e-01 3.282757986033453257e-01 -1.224503933020454349e-01 2.441160542968153768e-01 -2.215545216294830810e-01 4.129128661413818957e-01 2.942089595598617047e-01 3.085400466905448003e-01 1.011404128474779895e-02 -4.718583775417904969e-01 2.776855414458005988e-01 2.895734019888422939e-01 -2.651764814945335447e-01 4.464782607653187130e-01 6.009840815962541605e-02 -1.736909493936669158e-01 -2.378098059853316348e-01 1.761864535969983603e-01 -8.522807750527205961e-02 2.779218434688159878e-01 -7.250238032740097260e-02 -1.692669998962449407e-01 -4.343897983592543977e-01 4.989440396046268544e-01 2.818294221955235379e-01 -2.487927232644380204e-01 1.914435068705488963e-01 -7.447772928900386891e-02 -1.641583779205871840e-01 -2.348562709063992671e-01 -6.254187151909706976e-02 -9.050138413873287657e-02 3.955037575805172567e-01 2.939881294988364591e-01 -2.807912776153743684e-01 -1.030630049656501290e-01 2.296247850526379475e-01 -8.312152661255323149e-02 -4.078054168269626967e-01 -2.263455592658689675e-01 1.191267738418030353e-01 -1.901208009328103632e-01 -1.169656166575716583e-01
-2.580458829678800026e-01 1.681462857790266135e-02 -1.513085869797860528e-01 1.344080858254732280e-01 4.334766300460538013e-01 -3.003414017301600514e-01 -3.454554816571049625e-02 1.829879934234149297e-01 -5.159387387059097968e-02 -2.649949881020353670e-01 -1.169553089944179031e-01 -4.568394158719540910e-01 -5.209684133305895193e-01 -4.485963284761058656e-01 1.098451418926614659e-01 3.471924061012443552e-02 2.861024254099313671e-02 -2.597774155024902831e-01 -3.083535386905273401e-01 4.803779428017722342e-02 4.443013672809983383e-01 1.199407379052771228e-01 2.255400997320047493e-02 -1.040530619953456692e-01 -5.062036180999598400e-01 3.756950509560322282e-01 -3.572637857816562956e-01 -2.670775803613711363e-01 2.954865460928603471e-01 -2.432266447529388420e-01 -2.993253232299010747e-01 -4.191215259203517896e-01 2.408145565731000248e-01 2.042334491093985016e-01 -2.973544537533008847e-01 4.370427685398615703e-01 3.783649243366546955e-01 -2.530303779256216079e-01 -6.411696295763291698e-02 4.878067289920003623e-03 1.414487178378117938e-01 -2.297635826801007752e-01 -1.007962866905589699e-01 -3.467997291358960316e-02 -1.569944201765264835e-01 4.821937517604198975e-01 2.604786913061125642e-01 -2.108459964755491148e-02 2.180163924641103923e-01 -3.169803708175646939e-01
3.900169910788370276e-01 2.875071503383103827e-02 -7.124105261616936469e-02 -1.235243862485847499e-01 3.512093506378324848e-01 4.758404656448608216e-01 2.279722585434453275e-01 -1.662802957615390764e-01 2.231836610354743788e-01 -1.331993238338481655e-01 4.341980700674125671e-01 3.046902502373953769e-01 -1.787459186519247678e-01 -3.932284727452828310e-01 -3.318160146303615887e-01 3.270815739810683520e-01 3.489549526926445655e-02 -3.353575322170064196e-03 2.822653467698201801e-01 -4.216825351997439131e-01 -4.174009075842350924e-01 1.696516137307692018e-01 -7.421258568451283288e-02 -4.695433963110153680e-02 -7.110425509056694793e-02 -7.932820596232004196e-02 2.787387326982392333e-01 1.311588642863676935e-01 3.270784775204716999e-01 -1.898862026952859716e-01 -4.436761696336170568e-01 -4.848210355233616986e-01 -4.273100912171439725e-01 -2.129163318073273303e-01 -3.498409251360953820e-01 1.683520063302238745e-01 6.722429471223524688e-02 -6.730966280634277654e-02 4.906649583502013107e-03 -2.849100601883908235e-01 -8.504171669078830487e-02 4.592892762843611698e-01 2.330576686454654267e-01 8.602216484056103563e-03 -1.788171744743463631e-01 -2.709229914099072212e-01 2.064561274853660977e-01 -1.444053173043509108e-01 7.411986227237872538e-02 -4.956936719896867238e-01
4.624521067263663854e-01 -3.969072248918826262e-01 -6.878911660095525515e-02 -6.203991295611626516e-02 2.917895846202905874e-01 -1.961499475400381720e-01 1.168949794974601109e-01 9.715279414381057521e-02 2.508843913459225528e-01 -4.968290812690129982e-02 1.681753958798226645e-01 -1.948758298675935530e-01 -1.119461403992595000e-02 -4.078940440739095008e-01 -2.665787323356753613e-01 1.668597429132498700e-01 -1.433069636584969817e-02 -3.785246010284860629e-01 -4.027720327252795607e-01 1.057040617061152932e-01 3.489028543431843543e-01 2.525924767224815848e-01 -4.425347337179308949e-01 -1.361728452858215754e-01 3.572600267347403880e-01 -4.055698592420779458e-01 2.209142690432955858e-01 2.866483072072241178e-01 1.847953059424853328e-01 -2.549015604317853567e-01 -2.392977327017745126e-01 2.815690758217336831e-01 -3.233613108407576431e-01 2.274936565918048714e-01 6.370213950945718961e-02 -1.057993187531508367e-01 -2.079692642799541372e-02 -3.399300832623976774e-03 3.502880778512904025e-01 -1.154270530434498426e-01 5.047782410700910605e-01 5.659098745703512040e-02 -3.074159139865506041e-01 -1.228630807924115664e-01 -1.228457111250550772e-02 -1.190748219265446828e+00 -6.557230188993616871e-01 3.066174803996832288e-01 -1.139585689271637864e-01 -4.785832606086226626e-01
-5.528270753003716731e-02 3.022975675767094472e-01 -4.685011977070108191e-02 -3.896645832636480566e-01 -3.296106498480075864e-01 -8.086168857934483700e-02 -3.100096445609381579e-01 -3.663604171432299772e-03 -1.032422836014577072e-01 -3.930401403938214022e-01 2.475795743341610011e-01 7.273068332257004442e-02 -2.202108180298257833e-01 -1.877116069367900097e-01 -3.161150727731124599e-01 4.933905329310831478e-01 -3.650079420893973525e-01 -9.859542764126394410e-02 -2.986379997024358746e-01 -2.770963707324703984e-01 2.896065852045158762e-01 2.482910525187465023e-01 -4.048496530420475636e-01 -1.425453437943853263e-01 -3.922504876537415974e-01 -2.963623302367688339e-01 -3.949462816530080467e-03 -2.638619568615437894e-01 2.473069943685910488e-01 -4.618432607402788159e-01 -7.800187817766701670e-02 -3.851665100029163513e-01 3.162625465756980780e-01 -2.629717582958247535e-01 1.622530028761302034e-01 1.275449608568901549e-01 -1.476614050083965290e-01 -1.758789066690815694e-01 1.170455781956384333e-01 -4.014394407959686051e-01 1.281903047969090714e-01 -2.617534959440551701e-01 -4.135024229369392845e-01 7.825306571409618162e-02 -1.740559532372932816e-01 -1.699619529737942392e-01 -4.421524644390516512e-01 2.450568461540877374e-01 3.500148734227092051e-01 2.188043096853469205e-01
-1.238467921558110973e-01 4.802277090853152020e-01 -1.190823693678536993e-01 3.316685841670606871e-01 -2.511554036609866536e-01 -4.659647033193501930e-01 1.916068562330517089e-01 3.427166345408756976e-01 -1.186037748440366135e-01 -3.825858194929491196e-01 -3.599740769833065790e-01 2.113345576295670714e-01 2.340199934503179868e-01 -1.537316699747248716e-01 -2.393410475352109601e-01 -1.078954979774510159e-01 1.536275262864773561e-01 1.645253639389978872e-01 3.701552395546305885e-01 2.137966687258525608e-02 7.365226816367266560e-02 -3.672628110891273945e-01 9.543905417179043837e-02 3.132649295341674023e-01 -3.272539975348522784e-02 3.017319757951218984e-01 3.635488527398338943e-01 -8.416140519802906006e-02 1.512228731530096959e-01 -2.369865584271618197e-01 -4.401947031547303602e-01 6.941666330360078685e-02 2.699652338485417080e-01 -1.946342278814980065e-01 1.086504184722812162e-02 3.137837722508658445e-01 4.409883894853860453e-01 -1.311967835427916562e-01 -2.339417883119996044e-01 2.102239086648115610e-02 4.778373285135407156e-01 -2.134363608587491398e-02 -4.927881989115759365e-01 -5.832066549801304123e-02 -2.268023666519840831e-01 -1.908679793160611149e-01 2.969993650783459560e-01 4.168617497897654789e-01 4.096699149477541213e-01 -3.695884691529544019e-01
-1.442371587812073308e+00 -4.204603265992001293e-01 -2.370312197926273401e-01 -5.295436748383093584e-02 -3.282776061758241326e-01 -3.564790868836880539e-02 -1.235123978155714813e-01 -1.096528253264168473e-01 -7.658275399165657971e-02 4.026865265578187802e-01 -7.283408810864253624e-01 3.217447228165529194e-01 3.350649671604710722e-02 -5.398381026589298415e-01 -2.988802251701380697e-01 -7.829537572433937775e-01 2.022088421333507330e-02 1.286535370660868705e-01 -6.503828304432129892e-02 -1.914574659400203049e-01 -7.252979891736982543e-01 1.634408643675488160e-01 -3.238611684000710644e-01 -5.220224814373629618e-01 -4.365902869101704886e-01 -2.416172063004093651e-01 -3.927693514084374393e-01 -9.775660052727776217e-02 -9.627954129750748713e-01 -2.690538704164281980e-01 -3.183959581865004052e-01 -3.296709272178252603e-01 -1.711851725269650515e-01 -2.386290896644884807e-01 3.747343744090148032e-01 -2.771749905567105418e-02 -7.923242134721345531e-01 1.921878371088868165e-01 -7.504556540659178543e-01 3.184569962387758246e-01 -2.553526709801904881e-01 2.397664823511575782e-01 -1.356349880283526932e-01 5.239416077892593560e-01 4.523079631791726563e-01 7.861138366639353059e-01 4.942856239006916952e-01 3.267651103095755571e-01 1.349741492300238210e-01 -6.307662957918566127e-01
4.071407969756609679e-01 -2.077089578660477609e-01 -4.195974670940268991e-01 -2.041264577136221448e-01 1.970413335357494300e-01 -4.302727333349481986e-01 3.134370906446993787e-01 -1.201955677084228652e-01 -3.576334957586851937e-01 4.676300654641678545e-01 -2.583424100399107914e-02 4.362653477942035063e-01 -1.267481443724984003e-01 9.594488291891681286e-02 -2.133148854080906820e-01 3.135713887065936789e-01 2.577363275857571523e-01 4.849791172667905492e-01 3.834131310539734550e-01 -4.741369963741042248e-01 3.723710521247736716e-01 8.893140470852345381e-02 4.450363681262381466e-02 3.195093286776813923e-01 -4.480802162781648001e-01 -1.000559994318672707e-01 7.719036082353264439e-02 -1.926534567908985141e-01 3.527482734524257091e-01 1.125225660983413811e-01 1.694965396393557644e-01 -8.511656359356771506e-02 2.221099585067327076e-01 2.163260146045495602e-01 -1.334407102509073129e-01 7.675658179689225091e-02 2.127954473648805689e-01 -4.662539382022193313e-01 -1.167078472296394498e-01 -1.340701243590817215e-01 -6.335220348173301042e-02 -3.944621464719677562e-02 3.860276636665794792e-01 4.092545060026442361e-02 2.338455341383098296e-01 -4.442290038413670428e-01 4.245040455733640195e-01 1.426070809878676737e-01 4.811046661668382796e-01 4.119451152327235910e-01
1.290488111555203599e-01 -4.134677469642705216e-01 -4.293444445544988275e-01 -2.388619111993530997e-01 -2.303968278198318953e-01 1.354224839242545442e-01 -2.646981130057283194e-01 -3.167247970106832344e-01 1.445666245204804967e-01 3.059089688659731299e-01 -2.767897219613923640e-02 2.204139835471539688e-01 9.185391039976377459e-02 -5.507874717463475678e-01 -2.400950448277627824e-01 4.258349240116784395e-01 1.943287925294942264e-01 -2.565690283909922154e-01 -3.241270147560841863e-01 2.598430889839594138e-01 -4.904491034282885270e-02 -1.541648055933165229e-01 -4.312529206534083670e-01 2.758149395531849790e-01 4.906554919386465485e-01 -3.611387578380086116e-02 3.736864218122846193e-01 -1.935775568638422317e-01 -2.243213326930534879e-01 -3.958351095787239204e-01 -5.716453806049905106e-02 2.660052906542238471e-01 -2.493068892987141405e-01 -6.695049499116501046e-01 9.298440952419126382e-02 1.325904985879619580e-01 1.908126831843113269e-01 2.449612790976173626e-01 -6.192523945345312789e-04 1.123829023992977544e-01 -1.013276290326920459e-01 -1.984828691216696250e-01 3.153409926494188942e-01 -4.981279868654635984e-02 -6.806324767223167482e-01 -7.951348636056803088e-01 -4.245138385617769905e-01 4.094294157828823888e-01 3.557471498583178460e-01 1.944943974594578323e-02
