-2.062673013797942101e-01 -8.713628390597594198e-02 -4.801391795664589068e-02 -1.260475220084129044e-01 -4.500747080334389638e-01 -4.391868599507030568e-01 -4.290578961275606229e-01 3.031356304227568188e-01 -4.104319691909347201e-01 4.747778623591295544e-01 -3.623871023142068992e-01 -4.755748877487729898e-01 2.075984047927437182e-02 -5.979805712613949220e-01 -5.537814252734999387e-01 -2.284913192714261410e+00 -4.110641988722065765e-01 -4.551189486820168550e-01 1.529017606847493660e-01 4.348315586511509179e-01 1.007794120802972815e+00 7.935190966980251726e-02 4.596312383629667098e-01 -1.318360873192875593e-01 -2.584784233341212434e-01 8.228194670151227352e-02 -1.059923040241471520e-01 -7.965675041575423498e-02 1.923271083017105976e-01 8.258941772001823223e-01 -2.894691394274532259e-01 5.670276555333675361e-02 -3.171483558938834602e-01 -3.249348606736099931e-01 -2.956140448828576961e-01 6.326111861635275169e-01 1.854639765586368616e-01 -9.879964680234787355e-02 -1.897592115284558734e-01 -3.565327718439132543e+00 -1.320076990586141141e+00 4.593288022917285662e-01 6.611771933160208448e-02 2.361869993312509242e-01 2.076151184066718169e+00 6.429429903791905598e-01 4.613800520771527691e-01 -4.139553860859770396e-01 -6.093257699942797867e-01 2.043397919330626478e-01 1.690536470742077801e-01 1.016516791318367030e+00 1.168028747986152860e-01 -9.666707594835726169e-01 -3.018501629278367293e-01 -3.688508236644572058e-03 -1.501105182216995737e-01 5.771882173531934335e+00 1.120196350813332936e-01 -2.816890690310448475e-01 -1.602899542234684782e-01 2.572895209838633179e-01 -2.960288597683125578e-01 -9.672207195517813494e-01 4.518011868758078226e-02 -2.312902756522948744e-01 -4.844020570663961633e-01 3.866744930949762571e-01 2.315429924078604429e-01 -2.743432381562060929e-01 4.695997042909648145e-01 -4.725467890147462546e-02 -3.478811978764788648e+00 -3.258647350770129680e-01 1.899166705117843190e-01 3.817057436254501224e-01 -3.698791690576985064e-02 -2.400516582351951644e+00 3.216567053810975296e-01 2.097749881861035726e-02 -1.260236891449857621e+00 -2.357565874289445640e-01 -1.610849808723968657e-01 -1.922104242497606474e-01 -2.892905430977763093e+00 8.819377905173708676e-02 -4.961261801949050643e-01 -1.879836034241150755e-01 -8.721576840454897672e-01 2.238558447277957664e-01 -2.815369756303408577e-01 -5.678829359637523888e-01 -1.456896269619758488e+00 7.821968065433632100e-02 -1.633976612988599364e-01 1.016930349652965526e-01 5.776310245788768283e-02 -4.125427127381497971e-01 -3.028466296468526053e-01 -1.915534003808753161e-01
1.105748475201328018e-01 -4.248774207292662641e-01 -2.183232754511038598e-01 -2.793567526069500317e-01 -4.995464146120989213e-01 -4.723310210586600943e-01 -3.356082048026491904e-01 -1.956241039318531438e-01 1.160327209974023610e-01 -2.181402510390060279e+00 -3.945522007252956209e-01 -4.326971159952889279e-01 -3.859225464326705435e-01 2.418674374841475183e-01 1.725914060001005668e+00 6.976636131390414608e-01 1.521739201082782378e-01 -3.715201791473577986e-01 -2.700892956216241481e-01 -3.749799052226697182e-01 1.292615131480379986e+00 1.537930649395009564e+00 8.853373371114311441e-01 -1.006407665302802429e-01 -5.145429478474682128e+00 -2.495551383492620179e+00 -3.499464783547584501e-01 -2.458229464506346551e-02 -2.626342924409140966e+00 6.555598169882583814e-01 -4.180420650648415393e-01 -4.802669313424374753e-01 -4.840643831027110489e-01 -1.890515035874540395e-02 2.813941492802378708e-01 2.983829917579172264e+00 -1.810964417300445328e+00 1.775718483146869475e-01 2.369612249332226916e-01 -3.070305710902875296e-01 -4.984822309027127640e-01 -1.270065166614726460e+00 2.168441070498164647e-01 5.343993292212159130e-01 4.475769438729662597e-01 1.167721154479969270e+00 1.661273768191992461e+00 4.668182434142925663e-01 -2.784912172368144700e-01 -2.859069257663006680e-01 -4.869735205855357796e-01 -1.714701454685030879e-01 -3.571063007310467663e-01 1.674889593466684645e-01 -1.815117660899294716e-01 -3.987786511131142797e-01 -1.842501878300898399e-01 8.672705942578066152e-01 5.167958701695533064e-01 -1.593406039568328492e+00 -2.886474982539073419e-01 -2.216537644196054480e+00 -4.581975124475836658e+00 -2.264296072868970722e+00 -3.443204692960870061e-01 9.962636501781374498e-02 1.414571187177229294e-01 -1.105996911845275266e+00 -2.061087469212249668e-01 -3.219505939904870884e-01 -1.950267418868877334e-01 2.192205085005120846e-01 1.075261927463676326e+00 1.594605391557045726e-01 -1.834507111919845002e-01 -7.841025629790728146e+00 -2.041358135177031297e-01 -5.559715067876827010e-01 -2.713433223377318404e-01 5.839607527431392997e-01 4.879901349111345765e-01 -1.506411971151753459e-01 -3.368922845801184396e-01 -2.681912568117865714e-01 1.192358776309015322e+00 1.457114663437303337e-01 7.753321265592139078e-02 -4.718742388517215836e-01 -1.796606340910677391e+00 -2.353973437310279138e-01 -4.972690486421427192e-02 1.755713809939859760e-01 -2.650297536021380740e+00 -1.053231864834136000e-01 2.196396849773142868e-01 7.363278816417310191e-01 -1.372917606731055284e-01 3.006941683922936814e-01 3.170385574390036654e-01 -3.150113893688767375e-01
-1.555113691667987519e-01 -3.565999054587339900e-01 -3.739730205546134556e-01 3.419137808872886597e-02 -3.521490733803351869e-01 2.935367210410337879e-01 -7.386415686057201668e-02 -4.950691558989445684e-01 -3.047635416815525078e-01 1.719471273431448233e-01 -3.139036628504495718e-01 -2.292092222093378151e-02 -9.032026559597383653e-02 2.921887657120733617e-01 -1.447653966883974963e-01 1.648294008017590517e+00 1.313432839909682848e-01 -3.552459191236253533e-01 -2.747620367254085538e-01 -5.043347630120181835e-01 -2.134298121797798764e+00 -9.982448839359165937e-01 -9.655231897894670512e-01 -2.898909482474278099e-02 2.536414323360089540e+00 4.664810307624806529e-01 1.091379223106029306e-01 1.718269689959672775e-01 5.471943037511368679e-01 -1.510432676509273042e+00 -1.987919108242800492e-01 1.011685515641027600e-01 -2.140084609224649492e-01 -4.949454838554560032e-01 6.756891024331190820e-03 -2.552309891080725812e+00 2.470389350442686871e-01 -2.408234839258005799e-01 -2.515013936388134641e-01 3.615880557140868312e+00 1.507178217370690021e+00 -3.181793407747762203e-01 -2.527636355787585831e-01 -7.634558355399124752e-01 -1.315784779763518930e+00 -1.351216788589974405e+00 -1.382042638765799802e+00 -1.487626928974064011e-01 5.078492525273914371e-01 -4.179300977915904602e-01 -2.948951876835109731e-01 -8.085807313578654565e-01 -4.187250742814441207e-01 4.414617109579487275e-01 -2.796918822907745739e-02 -4.087396492921512303e-01 2.623947255378521470e-01 -6.115082083660459134e+00 -4.182813646062843449e-01 1.073802650937276448e+00 -2.039139841237221917e-01 3.913052362987021748e-01 2.115310128905846465e+00 1.766210330892440838e+00 -2.159240667771505084e-01 -1.173429445161219276e-01 3.391720941165132785e-01 -2.682172228000128666e-01 -2.424805888222364703e-01 9.290540003680625158e-02 -8.210797608399371672e-01 -2.856212674453076361e-01 3.566690443806402655e+00 -4.060497904380282463e-01 -3.897075146045215210e-01 2.906083516230475450e+00 1.727658005502041016e-01 3.030660442268733767e+00 -3.462074693810600623e-01 -2.417704966969706493e-01 7.410758340973386815e-01 2.401091408337062971e-01 2.265051493793608373e-01 -4.643893521513806633e-01 2.661127527567530571e+00 -2.416472651261398208e-01 3.613141284078741355e-01 2.570995811491602612e-01 1.649385489467019683e+00 -1.867282775979593468e-01 -4.588173660586004621e-01 3.083461743285819123e-01 2.647618038497670412e+00 -3.293349580037707638e-03 1.736048617012071471e-01 -4.402795674733532838e-01 -1.843002934441839158e-01 -4.487907989018247168e-01 -2.485432986960025570e-01 -3.155342476537854601e-01
1.377339444776189969e-01 -4.099764074768869060e-01 -2.432630502334709455e-02 3.373877746068526529e-01 1.261838420657737103e-01 -2.882211146750629505e-01 -2.875033017094913435e-01 -4.472136810860056766e-01 -1.844610813469110822e-01 8.879513103142672170e-01 3.587824506434679206e-01 -1.952531975560611865e-01 -1.327184735136518468e-01 4.043769288641699267e-01 -1.291282811723823976e+00 9.679539606796555562e-01 -1.906024931570952097e-01 -9.301380968232253466e-02 3.940635622922738363e-02 -1.419621863726857336e-01 -2.369063586666126486e+00 -1.433448271467589796e+00 -1.061187954250913723e+00 3.224272986880697967e-01 3.144013859969540192e+00 2.401982224399852317e+00 3.059424974391337648e-01 -3.757703646104923467e-01 2.196428616138819567e+00 -8.602951753528496059e-01 -9.737903132569891707e-02 -4.286423662737380846e-01 -2.907409328734095189e-01 2.116551538429173318e-01 -4.619481486549922300e-01 -2.823676028662381210e+00 9.106023825563769325e-01 4.107841053183005076e-01 3.673114736397267155e-01 3.487268337221715253e+00 1.499265488949746317e+00 4.977759892963350974e-01 -2.218775960410724057e-01 -1.211520025365951103e-01 -1.232646184779590648e+00 -1.406241710901268593e+00 -1.457897119370143990e+00 1.838685940862793897e-02 1.401527029260763335e+00 2.713461220947038233e-01 4.913071226554830417e-01 -1.371931580787921101e+00 -1.342167934887447123e-01 1.848611514963375280e+00 -2.601096834735840968e-01 -3.328991739406423900e-01 -3.248871017204601475e-01 -4.541168663959602725e+00 -7.751060725260384698e-01 1.377886785087653276e+00 2.224842243234189665e-01 1.312235114104483014e+00 2.328326834529653944e+00 1.463057408301331463e+00 6.402321196963398631e-01 -4.763819997905717196e-01 8.555992410163582029e-03 6.051492045011537257e-01 -4.920237406292932159e-01 2.952364981449274728e-01 -5.989918269233321935e-01 -1.312184057386259484e-01 3.277225694989710725e+00 3.935201256409368575e-01 -1.088356978913906509e-01 4.435465719174010779e+00 -4.938260670662503737e-01 1.548063880530929026e+00 -5.687941320953179281e-01 -9.465591147685092910e-01 1.363429717052967449e+00 1.159566106195232260e-01 -5.337445977789911922e-02 1.207593798133060892e-01 3.076699838600907899e+00 -2.948061107382260460e-01 -2.041579721037652950e-01 3.893577367052289961e-01 1.243747977313178543e+00 -7.670372441471471348e-01 3.664035766551813067e-01 3.145116888208977501e-01 1.865548437302265050e+00 -3.059573707279489296e-01 -5.371097110008709041e-01 -1.724782101783523536e-01 -1.105573976443502970e-01 1.720202585013484997e-01 -2.026020896929016102e-01 1.244294727738117778e-01
