-2.062673013797942101e-01 -8.713628390597594198e-02 -4.801391795664589068e-02 -1.260475220084129044e-01 -4.500747080334389638e-01 -4.391868599507030568e-01 -4.290578961275606229e-01 3.031356328780737686e-01 -4.104319691909347201e-01 4.747778845276009463e-01 -3.623871023142068992e-01 -4.755748877487729898e-01 2.075984047927437182e-02 -5.979805712613949220e-01 -5.537814374333185352e-01 -2.284913192714261410e+00 -4.110641988722065765e-01 -4.551189486820168550e-01 1.529017606847493660e-01 4.348315600387764324e-01 1.007794092081489179e+00 7.935188449658489573e-02 4.596312081945666539e-01 -1.318360873192875593e-01 -2.104785743411452248e-01 6.916192167769466548e-02 -1.059923040241471520e-01 -7.949441308004022433e-02 1.861695928256820454e-01 8.258941745810240986e-01 -2.894691394274532259e-01 5.670276555333675361e-02 -3.171483558938834602e-01 -3.249348606736099931e-01 -2.956140448828576961e-01 6.326111625359889246e-01 1.854639765586368616e-01 -9.879964772905222570e-02 -1.897592115284558734e-01 -3.563964084841345858e+00 -1.319821866109886388e+00 4.593288022917285662e-01 8.382205968124618878e-02 2.361869711874416966e-01 2.074441195549866723e+00 6.429429573675566889e-01 4.613800209277102993e-01 -4.139553860859770396e-01 -6.005162061483635405e-01 2.043397919330626478e-01 1.690536470742077801e-01 1.016516787098087349e+00 1.168028747986152860e-01 -9.715678482908831626e-01 -3.018501629278367293e-01 -3.688508236644572058e-03 -1.501105182216995737e-01 5.753306735643428205e+00 1.120196243225883154e-01 -2.760622485997540343e-01 -1.602899542234684782e-01 2.560439821989625164e-01 -2.917419328412845791e-01 -9.655157228098693034e-01 4.518011868758120553e-02 -2.312902756522948744e-01 -4.844020570663961633e-01 3.866744930949762571e-01 2.315429924078604429e-01 -2.743432381562060929e-01 4.695997208572341708e-01 -4.725467890147462546e-02 -3.488895536619690763e+00 -3.258647350770129680e-01 1.899166705117843190e-01 3.776231130353046583e-01 -3.698791690576985064e-02 -2.389964836727550335e+00 3.216567048908383630e-01 2.097750556682314790e-02 -1.259232363870440574e+00 -2.328544604603796087e-01 -1.610849808723968657e-01 -1.922104242497606474e-01 -2.893337735610423955e+00 8.819376121556368742e-02 -4.961261801949050643e-01 -1.879836034241150755e-01 -8.662669889070208074e-01 2.238558426660896550e-01 -2.815369756303408577e-01 -5.679489679974872862e-01 -1.448631351308857118e+00 7.821968065433632100e-02 -1.633976612988599364e-01 8.859474401889373685e-02 5.776310245788768283e-02 -4.125427127381497971e-01 -3.028466296468526053e-01 -1.915534003808753161e-01
1.105748475201328018e-01 -4.248774207292662641e-01 -2.183232754511038598e-01 -2.793567526069500317e-01 -4.995464146120989213e-01 -4.723310210586600943e-01 -3.356082048026491904e-01 -1.956241026769136859e-01 1.160327209974023610e-01 -2.181402502261649889e+00 -3.945522007252956209e-01 -4.326971159952889279e-01 -3.859225464326705435e-01 2.418674374841475183e-01 1.725914053797209080e+00 6.976636131390414608e-01 1.521739201082782378e-01 -3.715201791473577986e-01 -2.700892956216241481e-01 -3.749799045134396547e-01 1.292615116800509778e+00 1.537930636528698214e+00 8.853373216920270572e-01 -1.006407665302802429e-01 -5.121910238069380839e+00 -2.501905199225328502e+00 -3.499464783547584501e-01 -2.449619943177039696e-02 -2.629468431804738326e+00 6.555598156495779927e-01 -4.180420650648415393e-01 -4.802669313424374753e-01 -4.840643831027110489e-01 -1.890515035874540395e-02 2.813941492802378708e-01 2.983829905502880742e+00 -1.810964417300445328e+00 1.775718478410377721e-01 2.369612249332226916e-01 -3.065929954935972535e-01 -4.982775852652666648e-01 -1.270065166614726460e+00 2.252690387245468162e-01 5.343993148366024126e-01 4.468075275858963136e-01 1.167721137607354187e+00 1.661273752005713256e+00 4.668182434142925663e-01 -2.745586983967980288e-01 -2.859069257663006680e-01 -4.869735205855357796e-01 -1.714701476255357515e-01 -3.571063007310467663e-01 1.650240531774495589e-01 -1.815117660899294716e-01 -3.987786511131142797e-01 -1.842501878300898399e-01 8.588143520798966479e-01 5.167958646706397596e-01 -1.590692327367049463e+00 -2.886474982539073419e-01 -2.217084334396864254e+00 -4.579998034940600427e+00 -2.263437778604680872e+00 -3.443204692960870061e-01 9.962636501781374498e-02 1.414571187177229294e-01 -1.105996911845275266e+00 -2.061087469212249668e-01 -3.219505939904870884e-01 -1.950267334196832403e-01 2.192205085005120846e-01 1.070115669924657897e+00 1.594605391557045726e-01 -1.834507111919845002e-01 -7.842648166178028291e+00 -2.041358135177031297e-01 -5.507756449804704912e-01 -2.713433225883096211e-01 5.839607561922260937e-01 4.885737578140529891e-01 -1.491605200909462137e-01 -3.368922845801184396e-01 -2.681912568117865714e-01 1.191684437166866672e+00 1.457114572274640640e-01 7.753321265592139078e-02 -4.718742388517215836e-01 -1.793835815675990375e+00 -2.353973447847890754e-01 -4.972690486421427192e-02 1.755376911808495255e-01 -2.646489593886409697e+00 -1.053231864834136000e-01 2.196396849773142868e-01 7.299588856887861965e-01 -1.372917606731055284e-01 3.006941683922936814e-01 3.170385574390036654e-01 -3.150113893688767375e-01
-1.555113691667987519e-01 -3.565999054587339900e-01 -3.739730205546134556e-01 3.419137808872886597e-02 -3.521490733803351869e-01 2.935367210410337879e-01 -7.386415686057201668e-02 -4.950691551896312381e-01 -3.047635416815525078e-01 1.719471458168205791e-01 -3.139036628504495718e-01 -2.292092222093378151e-02 -9.032026559597383653e-02 2.921887657120733617e-01 -1.447654001080475039e-01 1.648294008017590517e+00 1.313432839909682848e-01 -3.552459191236253533e-01 -2.747620367254085538e-01 -5.043347626111478466e-01 -2.134298130095110935e+00 -9.982448912081782755e-01 -9.655231985047826315e-01 -2.898909482474278099e-02 2.575049042284798251e+00 4.549804352516622630e-01 1.091379223106029306e-01 1.718654543920092037e-01 5.416235772209331278e-01 -1.510432677265916679e+00 -1.987919108242800492e-01 1.011685515641027600e-01 -2.140084609224649492e-01 -4.949454838554560032e-01 6.756891024331190820e-03 -2.552309897906462677e+00 2.470389350442686871e-01 -2.408234841935155968e-01 -2.515013936388134641e-01 3.616956950759570688e+00 1.507234351486254065e+00 -3.181793407747762203e-01 -2.385781444578506383e-01 -7.634558436703446915e-01 -1.316904513692679579e+00 -1.351216798126667840e+00 -1.382042649967753611e+00 -1.487626928974064011e-01 5.141292946707537448e-01 -4.179300977915904602e-01 -2.948951876835109731e-01 -8.085807325770573151e-01 -4.187250742814441207e-01 4.370086722064162044e-01 -2.796918822907745739e-02 -4.087396492921512303e-01 2.623947255378521470e-01 -6.129184448913803429e+00 -4.182813677143665809e-01 1.078482079345437938e+00 -2.039139841237221917e-01 3.902770437164728157e-01 2.118946584467778393e+00 1.767765832889435673e+00 -2.159240667771503697e-01 -1.173429445161219276e-01 3.391720941165132785e-01 -2.682172228000128666e-01 -2.424805888222364703e-01 9.290540003680625158e-02 -8.210797560541256424e-01 -2.856212674453076361e-01 3.557944975685823685e+00 -4.060497904380282463e-01 -3.897075146045215210e-01 2.903013694914975407e+00 1.727658005502041016e-01 3.039774071147999468e+00 -3.462074695226903809e-01 -2.417704947474865473e-01 7.417843910234265259e-01 2.427743594781567038e-01 2.265051493793608373e-01 -4.643893521513806633e-01 2.659854764008890093e+00 -2.416472702788125537e-01 3.613141284078741355e-01 2.570995811491602612e-01 1.654406453213802086e+00 -1.867282781935631630e-01 -4.588173660586004621e-01 3.082855326649345251e-01 2.654590533469556313e+00 -3.293349580037707638e-03 1.736048617012071471e-01 -4.504213129471842936e-01 -1.843002934441839158e-01 -4.487907989018247168e-01 -2.485432986960025570e-01 -3.155342476537854601e-01
1.377339444776189969e-01 -4.099764074768869060e-01 -2.432630502334709455e-02 3.373877746068526529e-01 1.261838420657737103e-01 -2.882211146750629505e-01 -2.875033017094913435e-01 -4.472136809223171694e-01 -1.844610813469110822e-01 8.879513158564412700e-01 3.587824506434679206e-01 -1.952531975560611865e-01 -1.327184735136518468e-01 4.043769288641699267e-01 -1.291282812494062737e+00 9.679539606796555562e-01 -1.906024931570952097e-01 -9.301380968232253466e-02 3.940635622922738363e-02 -1.419621862801775380e-01 -2.369063588580888613e+00 -1.433448273145805807e+00 -1.061187956262141574e+00 3.224272986880697967e-01 3.155225998961038503e+00 2.397844470854677557e+00 3.059424974391337648e-01 -3.756921938637504121e-01 2.194091101482180672e+00 -8.602951755274610424e-01 -9.737903132569891707e-02 -4.286423662737380846e-01 -2.907409328734095189e-01 2.116551538429173318e-01 -4.619481486549922300e-01 -2.823676030237550538e+00 9.106023825563769325e-01 4.107841052565201490e-01 3.673114736397267155e-01 3.487525887009450543e+00 1.499238819788596633e+00 4.977759892963350974e-01 -2.179743817673869544e-01 -1.211520044128489570e-01 -1.232940144706273111e+00 -1.406241713102046598e+00 -1.457897122402388446e+00 1.838685940862793897e-02 1.403027559975695837e+00 2.713461220947038233e-01 4.913071226554830417e-01 -1.371931581069271378e+00 -1.342167934887447123e-01 1.846921641192300401e+00 -2.601096834735840968e-01 -3.328991739406423900e-01 -3.248871017204601475e-01 -4.545620688464292236e+00 -7.751060732432885070e-01 1.379235884489984132e+00 2.224842243234189665e-01 1.311862057301159457e+00 2.329429617049438850e+00 1.463644002609548078e+00 6.402321196963398631e-01 -4.763819997905717196e-01 8.555992410163582029e-03 6.051492045011537257e-01 -4.920237406292932159e-01 2.952364981449274728e-01 -5.989918258189150801e-01 -1.312184057386259484e-01 3.275071752040912720e+00 3.935201256409368575e-01 -1.088356978913906509e-01 4.434217867610339425e+00 -4.938260670662503737e-01 1.551455235140830391e+00 -5.687941321280014506e-01 -9.465591143186291578e-01 1.363651196302957169e+00 1.169634709967226766e-01 -5.337445977789911922e-02 1.207593798133060892e-01 3.076363396710545928e+00 -2.948061119273044928e-01 -2.041579721037652950e-01 3.893577367052289961e-01 1.245476244843898517e+00 -7.670372442845950767e-01 3.664035766551813067e-01 3.144887797479700153e-01 1.867927941297284011e+00 -3.059573707279489296e-01 -5.371097110008709041e-01 -1.752264608020579206e-01 -1.105573976443502970e-01 1.720202585013484997e-01 -2.026020896929016102e-01 1.244294727738117778e-01
