6.905089231899271818e-01 -1.031238229403844964e-01 -7.434582752373128378e-02 -5.852206260052592590e-01 1.917456828551726555e-01 -1.650651668628819180e-01 -5.330987230086676743e-01 2.972621251409665252e-02 3.621056465446213513e-01 -3.886632278383289618e-01 -3.533109010811774642e-01 2.004466629498596608e-01 -2.765121191049669802e-01 -5.995397828597830436e-01 -2.362506544616337426e-02 2.805885880602915772e-01 3.426148795131093716e-01 -1.277733971812457410e-02 3.436298262998975783e-01 1.119555902874306147e-01 -3.388756533576388064e-01 3.620504819296466725e-01 7.527038113774662254e-01 -8.244357034470589651e-02 -2.161262229945925262e-01
-2.482383829101064143e-01 -3.415225700729669911e-01 -1.682790621418575883e-01 5.005686118602041823e-01 1.398091782823987217e-01 -3.599341386325610181e-01 -3.653409673592049045e-01 2.567486912449590264e-01 5.113077226393123453e-01 4.612820477730784630e-01 3.904638080932987254e-01 2.661340856632348761e-01 -2.982768727160093822e-02 -3.902781833631577268e-02 4.461532508211254466e-01 -3.980518185633631911e-01 -4.309009229954591791e-01 -3.769623523642974816e-01 -3.879744407343711787e-02 4.321238035103748265e-01 -7.285987047855113641e-02 3.701389909093729114e-01 4.859823264860315684e-01 -2.715946874421482429e-02 3.194971900762593742e-01
-6.400526162431302568e-02 1.405288866519112945e-01 -2.317846819780292056e-01 4.723389810021721980e-02 -9.481254503500743946e-02 1.142651705733521983e-01 4.563568696715029072e-01 1.560292057314537906e-01 3.959943799952110322e-01 -9.139830838198959029e-02 -4.281702475295010024e-02 -1.006505742937315317e-01 -2.116582204442772619e-01 3.106356555602803882e-01 -5.298005756052922566e-01 2.443572519152431288e-01 2.190304265275186679e-01 -2.698575356499857136e-01 3.180484669359767702e-01 -1.508497937258419797e-01 -3.415822937772933221e-01 -8.197038532598112381e-02 6.494114179343042359e-01 -1.141861920940533820e-01 -3.927452763690086890e-01
-3.346591342639660960e-01 2.285236263313899230e-01 -1.309660929196875823e-01 -5.541838307249731532e-02 3.328738808889447620e-01 2.910862995047649449e-01 1.577304610529596252e-01 4.919052617218971357e-01 -1.077977696097136284e-01 3.521065326041695753e-01 8.223783804443973722e-02 3.407587974191333413e-01 7.810814242304968402e-02 -3.353462685935358900e-01 4.198303280093337309e-01 -8.603369308862436615e-02 -3.663120715192652033e-01 -4.735625619721786639e-02 -4.707446024322674560e-01 -1.122810690452223925e-01 -2.138731111275428698e-01 -3.720975267082312632e-01 5.095406997854113468e-02 -4.792473287629416823e-01 -4.434959207341135912e-01
-3.103766811446714291e-01 3.475672389791963773e-02 4.282924808819399409e-01 -3.566437994834606995e-01 3.386466500546442826e-01 -4.430591803569315368e-01 2.138200033489913443e-01 -3.842621927613275312e-02 3.834720740108965020e-01 -2.050364202013927328e-01 2.517497143577395735e-01 5.618725979110161806e-02 -2.284831892729254632e-01 2.527488449531651860e-01 -3.822464840695457000e-01 4.315845732077175922e-01 -1.175408113442124453e-01 1.845172395841695456e-01 4.383396046908511479e-01 -7.815286105141219797e-04 -4.561820618331289268e-01 -3.456075538203046138e-01 1.074913178676848019e-01 -1.032879619488670658e-01 -4.552559356118130451e-01
-3.691214290274218157e-02 -4.908042210387864590e-01 -1.511849530350089232e-01 4.367248896365951150e-01 -1.622860641660470726e-01 -2.548974840666011210e-01 -6.329397409782572259e-02 1.527462823421659177e-01 -6.401152893344295991e-02 4.677610574972912993e-01 1.573833366874337336e-01 3.178629525037507397e-01 -4.541521547038995799e-01 4.185447605180609432e-01 4.490463491652142425e-01 -1.294174698711943738e-01 -2.839080471708804732e-01 -1.366248714597649017e-01 -1.670379030955963240e-01 -4.057726231362208114e-01 1.379451630704814913e-01 3.719243734858783679e-01 6.506612573933277799e-02 -7.776191285490270666e-02 -4.469066282991294714e-01
3.228081483738268198e-01 2.326561440991012364e-01 1.054940427363443983e-01 2.402246570530512937e-01 -3.518641792091263820e-01 -2.698709691103456931e-01 -2.640247137757985030e-01 2.663645729834457354e-01 2.506326478885814169e-01 -3.107754516749899887e-01 -6.236804232703403728e-02 -3.072992775511872998e-01 -2.606031760471033132e-01 1.866624066302342011e-01 -3.512943211758311896e-02 2.334093794769852848e-01 -2.348365997456050014e-01 1.383942443119734744e-01 -2.767217525608735573e-01 -1.651954246713372709e-01 -7.470075873824985960e-03 -4.730487952156342546e-01 1.419706454431845510e-01 2.202566079311450709e-01 -3.732033941603469795e-01
-5.003798238491645733e-01 -1.018094478709684336e-01 -4.701567956893721867e-01 -4.290130893848764226e-01 -4.483658112145595953e-01 3.408305748966793947e-01 2.944477911640445700e-01 1.998429914967459475e-01 -4.018990883589294572e-01 2.582051753399646765e-01 -4.967397163173207786e-01 1.669577255314678432e-01 4.349970191155446697e-01 -2.793845343965209449e-01 -3.798078848247471440e-01 -1.363290200793052520e-01 -1.412643946568313269e-01 2.381755899956321532e-01 -4.483351928388695784e-01 -2.110337382170066056e-01 2.399076537981134072e-01 3.312821182452594937e-01 -1.917328586300419968e-01 8.016851428640729693e-02 5.172506667736966740e-02
3.744595884098536609e-01 3.706722659842454637e-01 5.390363340708925755e-01 2.030960496201089371e-01 -3.141723790373095460e-01 -4.813848770198479454e-01 -2.644525493810297445e-01 -3.001467435045245269e-01 3.028844917659731517e-01 -1.550736241284104422e-01 -4.564092653020815349e-01 2.273768565100352246e-01 -3.075328565638346112e-01 -3.339203424101422346e-01 3.118894585750398019e-01 -3.814432132703139966e-01 -7.242792188858071523e-02 1.069619141535690515e-01 4.967807731412262062e-01 -1.866767796855758055e-01 3.634859751464258881e-01 -4.462961847767970558e-01 8.631714016722302762e-02 1.785646382233196383e-01 -3.351458396848733257e-01
4.418243290074777008e-01 2.298648645576295557e-01 -4.723775930347781093e-01 1.764128610529278329e-01 -5.490019469326175017e-01 5.786743220057682935e-01 4.756120161871630891e-01 -1.634960197083273892e-01 -4.058775579674165357e-01 1.587942970975505033e-02 3.513667731468608085e-02 -5.723828503548631375e-01 2.986309470311729330e-01 -6.178616770536977595e-04 5.424781693147797540e-02 -5.367106037229401050e-01 4.081548868222247273e-01 -4.575880641689010209e-01 2.839894741863470129e-01 -1.428311475205413239e-01 -3.018554284073290961e-01 -3.241337644597953871e-02 -3.729532652352975930e-01 2.491633597314401039e-01 -2.349685247475676586e-01
3.634935760314236819e-01 2.558532929088416230e-01 3.812060150289102722e-01 -5.220960574498173523e-01 4.395175822466592663e-01 -2.972527827618076102e-01 -5.479076593087714442e-02 1.514290261259903514e-01 2.667884491236540145e-01 -3.406722416165797740e-01 4.133361715806968539e-01 -5.647870221245376160e-02 -1.087181898480968911e-01 1.139033258956274053e-01 -1.135247636164037933e-02 1.525884984494590979e-01 1.982127874194676564e-01 1.916230075701506608e-01 -3.618986061555434786e-02 3.831915854512495945e-01 -3.183256865458972684e-01 -3.025364722007689577e-01 5.496981274530895467e-01 -1.618196522215451516e-01 -4.117315794262195183e-01
8.656386223617780484e-02 2.471302499128352759e-01 7.870581659525965890e-02 -4.602036300911527267e-01 -5.970385716811152897e-03 1.675021538599504034e-01 7.630100613639305696e-01 8.374398843546120019e-02 -3.818340893179172219e-02 -2.355303075677411540e-01 -4.283842702429507265e-01 3.754315758390638913e-01 3.274987530931788293e-01 -8.988534142555171247e-02 -5.040635342427903787e-01 -4.626883484308298433e-01 -2.133412512836665442e-01 9.733541978961363084e-02 1.980678411734957678e-01 3.460145198679913658e-01 4.145105593384425524e-01 2.760526642420710330e-01 -5.477988951566861164e-01 -1.757733096774100334e-01 -3.455168041315889726e-02
4.761734734080750875e-01 3.529960679633888376e-01 -4.084638808102981078e-01 4.112535629508896062e-01 9.481591720165200021e-02 -2.234610143793335779e-01 -4.331314598113730208e-01 2.091222438034879560e-01 3.939984034169743410e-01 -2.140262031388526498e-01 4.503920777148840426e-01 3.061213092700907912e-01 -3.837832645105024865e-01 2.523590351143062960e-01 4.000457170769539106e-01 8.488846401513612527e-02 -4.430512804197579979e-01 2.191906225393681351e-01 4.088803945380247717e-01 -4.135395356541095579e-01 1.181717306097257586e-01 6.860610284818408067e-02 4.268644973963526268e-01 -4.416073960071834614e-01 -4.794137563396999036e-01
-2.539520135033755330e-02 1.649724613451591382e-01 -1.728114222878619488e-01 -4.265784186051556071e-01 2.870190679815986523e-01 -3.212721230988225263e-01 -2.599946903357251426e-01 -9.775596226342915529e-02 4.390100129763082060e-01 -1.298532493548350542e-01 1.779928072797271055e-01 4.701786222443590235e-01 -4.149608071999665859e-01 1.286708112349662647e-01 2.684533500895169289e-01 -5.430935994279927348e-01 -7.916591735986928946e-02 -4.668055347627582674e-01 -4.962488043314551289e-01 9.624977846974686058e-02 -6.302033448920549286e-02 2.423732795035948295e-01 -2.965299566669418740e-01 1.487172183497591782e-01 -6.445264431225786184e-02
-1.784188060100415085e-01 -2.308187312472541608e-01 -3.864224330191970980e-01 -2.641517528365162071e-01 9.372586807061392133e-03 -1.685477030924031339e-01 1.401191911417970226e-01 2.990576750698265562e-01 -3.907281609053343541e-01 1.905336194900692226e-01 -3.191664957295691774e-01 -1.603732578214856277e-02 4.247119365037796412e-01 8.409418795891827891e-02 -4.854118307390605791e-01 9.237004820518611437e-02 3.738731906401369653e-01 -2.047262469438425672e-02 -2.879136053926857897e-01 -4.857176168911077063e-01 1.705598440149606321e-01 7.182427066581789088e-01 4.056373790986649019e-02 3.282961286056346184e-01 9.880681958913742347e-02
-2.215549318030674564e-01 2.861986298437408927e-01 -3.517696146653827016e-01 -1.862872630420021602e-01 -3.537805117764701301e-01 -5.416549026285149004e-01 1.250440104807366004e-01 2.332418190496971522e-01 1.140306816134966095e-01 5.014712468053691419e-01 2.944654308273554344e-01 -2.160974180680530488e-01 2.926985017583327298e-01 3.499298517297864258e-02 -3.147594635636094540e-01 -1.005121478506315752e-01 4.652484262515222957e-01 1.967598443219199522e-01 -2.629728742649843354e-01 5.386819807495484280e-01 1.462185340638766373e-01 4.404803066330955155e-03 6.236294952557953630e-01 3.949844231664482730e-01 4.918226417199490497e-01
1.621909335178630396e-01 1.001260330585024977e-01 -3.691083867803856555e-01 -1.374104823675346976e-01 -2.690218714516242615e-01 -2.526090048895366369e-01 -8.261895539432972946e-02 9.169607057399924155e-02 -5.378753651799057511e-01 -1.864888469370320490e-01 -8.237774570623088155e-02 -4.388689501555945172e-02 -3.656870071617118190e-01 1.812933600029280612e-01 -3.887650276639904035e-01 -5.879198328827571762e-01 1.832602247485486946e-01 -1.102918548562823245e-02 -4.303836612472628498e-01 -1.079396271500261406e-01 1.841257850130433860e-01 1.888324694505470053e-02 -1.530162548969450920e-01 -3.310019463922072580e-01 -4.652810349654371569e-01
2.178588449968740792e-01 2.800597474718459767e-01 2.051539422619670650e-02 4.614661283480586684e-01 -3.891660741392626299e-01 -2.895221207741840996e-01 -2.577149351504423036e-01 4.876375361847644085e-01 2.091189689488046066e-02 1.286002458260204484e-01 2.038056971209597501e-01 -5.659748743308432722e-02 -9.776054955243476674e-02 2.234212924875877970e-01 3.812833064436130237e-01 2.125494830170120697e-01 3.113607387347909206e-01 -2.344099738255259469e-01 1.090218316511110119e-01 -3.270127658052314756e-01 -3.092486329175663795e-01 -3.820560037583950463e-01 -3.687437272439078595e-01 4.811086513700630340e-01 -1.478755124141958588e-01
-2.564657565427275743e-01 -4.583219785958687065e-01 1.039963961970199885e-01 -3.069933529917183712e-01 3.882639821262621194e-01 -4.084487848120661457e-01 4.548105831825483558e-01 -4.128243570038154786e-01 3.733378853375947659e-01 1.760926340775461896e-01 -3.122548877193173644e-01 -4.141610213066498347e-01 -3.192484533070943375e-01 -3.649161521898119931e-01 4.322616359741590086e-01 -2.595623506031852767e-01 -3.351961849927133086e-01 3.497703333689469174e-01 1.014941725646289483e-01 -2.342053059173536400e-02 1.630935485790936668e-01 -2.475763563643052778e-01 -2.549965624835556222e-01 4.384914432546594965e-01 -4.231798143867193107e-01
-3.340835518791361314e-01 -8.473537970825012478e-02 -4.865314718661165744e-02 2.498608752117146420e-02 -4.373580210815158908e-01 -2.260561879285186981e-01 2.228706179339123850e-01 -3.527964923482393989e-01 -5.356397608479871453e-01 -2.187738210442816966e-01 1.457178152324022646e-01 -5.451850547081842357e-01 -4.452900103877542870e-01 1.574303285934925134e-01 -6.140989872351595991e-02 -6.937170821235366658e-01 -3.401953462004624895e-01 -3.991798158000708363e-01 -5.854467444496067596e-01 1.866979412858053855e-01 1.257100921113899761e-01 -4.715107876223481598e-01 -2.205246832349611608e-01 -2.663047406487267788e-01 2.631787890407627506e-01
2.004310007494533238e-02 -7.925451384122596254e-02 3.468590877608600520e-01 -2.856862869692912144e-01 9.939798733049841351e-02 -1.480225452551663379e-01 9.209464080170350897e-01 -7.700135751435957521e-02 -8.794683868031991092e-03 2.021367655711187872e-01 4.948882168262561110e-01 -3.293368728920322286e-01 1.274925132276414907e-01 1.851052471822670076e-01 -4.622152196989277595e-01 4.292563427569253132e-01 -4.680473794475914495e-01 1.560533029089552770e-01 4.016907234326593801e-01 -1.629604561733239698e-01 -2.918131392192608309e-01 3.022094728156162202e-01 6.275972777634758470e-01 -1.900945332391482667e-01 3.614925980464889776e-01
2.259113981186327835e-01 -2.364176310686578464e-01 3.978225870974054779e-01 -4.021948168131052048e-01 3.345950977600836707e-01 -4.448547567763081467e-01 -3.207902245803621599e-01 -4.793092299881138718e-01 -3.352267583589471078e-01 -2.317003051857547957e-01 3.594669102465256616e-01 4.341406821782931580e-01 1.801613076466777874e-01 5.216429491907565996e-01 -4.244450111408065163e-01 -3.977198626288367955e-01 2.668100284621899299e-01 -3.504145331114221773e-01 -1.916082583097307446e-01 3.309517451843912439e-01 -3.994450535501447019e-01 3.779511402879609516e-01 -4.748092111034050294e-02 -4.349065346204342153e-01 3.683451325780587871e-01
-4.533731127713206965e-01 4.451978657671887274e-01 -1.045373460126512166e-01 3.044122347189096023e-01 -2.070004399887975105e-02 6.400549122099767618e-02 -4.447874113763493065e-01 4.687249710789941071e-02 -1.040992570734991518e-01 4.601418309349946667e-01 -2.177316666458817274e-02 -2.952217507859485335e-01 -1.554032052656931229e-01 3.063654820538319057e-01 1.661615166475124417e-01 1.777080755636921694e-01 -2.178678611503564455e-01 -2.898871897703472200e-01 -1.684999764228294894e-01 -4.174938772143602650e-01 -3.341738137681166121e-02 -2.806734578087254905e-01 4.253971010263160601e-02 -8.523080392093183855e-02 4.143065131522735006e-02
-3.452688831810001302e-01 -5.788624890938099538e-02 3.567136153678057697e-01 2.381521653526530724e-01 3.591556247329910079e-01 -8.440732675902412607e-02 -3.227751589065844251e-02 8.880276173632033199e-02 -6.410963048078673066e-02 -6.477804936123258972e-02 -3.045488198711068240e-01 -3.320543110100247497e-01 -1.423930838762557938e-01 3.107377909585550269e-01 3.676961254411748731e-02 2.682656558872145158e-01 2.514231861590114359e-01 3.314366390160649600e-01 4.287703496216883625e-01 3.039025420993973214e-01 -1.473010079239347736e-01 3.562770788611596129e-01 -3.041859357167050470e-01 -4.407138663097261155e-02 -8.236960932286400972e-02
-1.988248552522794976e-01 -4.612035049786758489e-01 -2.995410353748402810e-01 -2.851633804483799106e-01 6.316983893766435487e-02 5.038961763435647612e-01 -2.410750916651368814e-01 -3.167010658304234560e-01 -1.552719573216796156e-01 3.882628112205257498e-01 -4.194991519721370521e-01 -5.014555899626761404e-01 -3.131872521932430736e-02 1.092590465548205492e-01 -3.092011121941626306e-01 1.084183040432212530e-01 5.739769182934009173e-01 -4.667029049692960618e-01 -6.421236457912747608e-02 -2.684871618114318403e-01 -5.002115844634532627e-01 4.522494781713758405e-01 1.422513149470850669e-01 -4.498056537197208105e-01 1.017493126856887226e-01
4.428265182903011188e-01 -2.388395898636271886e-01 4.067949262104698649e-01 -8.160158549328307143e-02 -1.961942169554613258e-01 -5.350009506387213426e-02 1.342510020926860614e-01 1.084132019426407578e-01 4.265238285144717922e-01 -4.368870584642688404e-01 1.069103491426434127e-01 -2.108822083289503824e-01 2.104585511120539432e-01 2.318211418893340592e-01 -5.772928536905099633e-02 3.798855630530340033e-01 -4.503003922399327896e-01 3.404085440827341880e-01 -2.229933724943870266e-01 -2.947128553432674103e-01 3.369198805298291299e-01 -1.746570747358820452e-01 1.454354862400801529e-01 -3.904443567973155393e-01 -3.952142742042640267e-01
-4.749034573413382643e-01 -5.705924422098912485e-02 -3.499301009423795850e-01 2.552476410513010996e-01 -1.504470635128584213e-02 4.846837603364890223e-01 -2.129205153998961486e-01 1.931817972459581867e-01 2.991022651349312667e-01 4.434158254011544287e-01 3.784636203999673931e-01 5.550073582847217524e-02 -4.805581153813721640e-01 2.628612583546562353e-01 -5.035578037645761507e-01 -5.475759826273119968e-01 -4.692973867906673480e-01 1.520464495706906616e-01 -2.995255705663201762e-01 -1.511836540663735740e-01 -4.588466956878872183e-01 -2.027982109245649589e-01 3.656735012040041033e-02 -2.310537171924175182e-01 -3.701592121557519821e-01
-1.271023083083383694e-02 -2.009631477744017458e-01 -4.059423023694949673e-01 2.433833411808962455e-02 -1.275420376819579593e-01 -4.242934501100604772e-01 -2.611150789868055266e-01 1.873839217747274299e-01 -1.819614929811783632e-01 3.216638641671039633e-01 1.945500413202797679e-02 1.874811002872272397e-02 -4.968013796086184763e-01 -1.389149882201254904e-01 -7.970880592367401984e-02 2.768805151050252045e-02 -3.208813589448908377e-02 1.052582471650700124e-01 -9.530501222811984391e-03 -1.388090989910629458e-01 2.169720290658413153e-01 -1.952189455845788069e-01 1.256197554141976758e-01 3.033572942810791595e-01 -1.380164954395003973e-01
3.733147348965301648e-01 2.799787784491831674e-02 2.710127064432256705e-01 -7.128883710210449642e-01 -4.783830767467230349e-01 1.651611722942000204e-01 -2.580880167592130014e-01 -3.853784683806756317e-01 7.063053774955940778e-01 3.934331321090584477e-01 -4.230047128007688451e-01 1.863186138231746058e-01 -4.584655412785393347e-01 -7.009334204859886119e-01 3.156663140943187507e-02 -1.233535308608037923e-01 -2.155142857148463764e-01 -6.145817981523766793e-01 -1.468154152542549828e-01 -4.228140152211704028e-02 -3.321974802422855699e-02 3.840335579537821342e-01 5.154178882281665874e-01 5.695030082505093960e-02 1.820999962485742307e-01
8.337084980237280396e-02 2.059654987340102661e-01 -3.279071858592222388e-01 2.620716038698916450e-01 2.167158300218087752e-01 -1.468429846401206884e-01 1.694993890944290205e-01 -4.044382759752325751e-01 -3.689222311268164356e-01 4.210113924267727126e-01 -1.564198592826329670e-01 5.818750012394774407e-01 -4.011088068871703216e-01 -7.238570768724074400e-02 -1.516561358956067807e-01 -3.834600546319891778e-01 -1.118464185336468103e-01 -1.329166543764786768e-01 4.177544560383699562e-02 -3.311558109053607674e-02 -2.695019168882256677e-01 3.852903149402600036e-01 -1.543238807320635730e-01 -3.692831902579130771e-02 -8.673904592180720075e-02
4.920160875956496871e-01 -2.282418768581367385e-01 1.780585180197030992e-01 1.834613331738548236e-01 5.409068702911826176e-02 7.305679733255270036e-02 5.127673420243405999e-02 -4.376470098757655469e-01 4.277742325178074956e-01 -4.133134751172857224e-01 -2.252168459570292602e-01 -1.724506745246382200e-01 4.086592528875078283e-03 5.794350831766733601e-01 -4.587232122640539922e-01 -2.114612417088624907e-01 -4.639727360535865208e-01 -1.594668110372550185e-01 -4.355230856285057794e-01 5.229275035656736348e-01 2.446848342748163263e-02 -7.053726039730974229e-01 5.147815187615402133e-01 3.092258432757876707e-01 3.090699632683983067e-01
-3.072026272648212264e-01 2.730877061903936309e-01 4.802861635485592973e-01 -3.475939272250581635e-01 -5.097417798577692089e-02 4.014696694397207888e-01 -2.244873695016098014e-01 1.420726706066911538e-01 3.922311779135807530e-01 2.302392717718255294e-02 -1.536073637871326059e-01 -3.561920072056604103e-01 -2.307969544693392050e-01 -1.588263585769721931e-01 5.071439882739049443e-01 1.782526712691210324e-01 2.782359688054594771e-01 1.032542700491536763e-01 -1.162314546831658482e-02 2.093668464283338637e-01 -4.212425745647277453e-02 -1.816144663431218387e-01 2.578874692389153678e-01 -3.934893473143856180e-01 1.065755252619698112e-01
1.258412963447935740e-01 -3.306982783026211625e-01 -3.022608625889803835e-01 -1.435366332435290132e-02 2.590021509196813870e-02 -3.869723513929653747e-01 -2.180007871092455030e-01 -2.476858826679804310e-02 1.013913750152162230e-01 7.467047012116047322e-02 -3.135730183078175859e-01 4.716323335180151732e-02 -2.230987861386395099e-01 1.387555550907169644e-01 -2.816760892609558864e-01 -7.032137069599748991e-02 -3.339945117246527762e-01 6.083683040277062387e-02 -1.263093521365750149e-01 3.213315788384049632e-01 -4.801438707318990695e-01 3.840725585616744375e-01 -4.181445499607863159e-01 -1.588612858269844094e-02 -3.801236265315992569e-01
1.100577930772357743e-01 1.772467589239614394e-01 -4.190497070841121829e-02 2.588558290695292530e-01 2.049147339051005656e-01 -4.771977525894713912e-01 6.105944278212056542e-01 -1.444548281541979950e-01 3.755987005125746570e-01 2.377337747559403747e-01 -3.748520310558374757e-01 -8.554450710284951243e-02 -2.572315927711499861e-01 3.514312441315828872e-01 4.168970188185431303e-01 2.502055690471426952e-01 -3.623808211198409901e-01 2.997859434514463239e-01 4.021946366244487647e-01 8.346301196251815560e-03 1.160266813481175829e-01 -2.138659923591357537e-01 1.821087702153620369e-01 -3.051471320696848635e-02 7.872633265756621146e-01
3.246486164287740173e-01 4.601750511333839722e-01 -4.765045488761171164e-03 -4.274102126818741243e-01 -4.808191005642672433e-01 -3.578470021034597659e-01 4.845993423729501037e-01 -4.746111259788987069e-01 -5.726082781822632028e-02 1.039314059000953361e-01 -9.818658496779544831e-02 5.004942028590968206e-02 -6.206612109440978048e-02 3.585173563387884510e-01 9.856061759902971786e-02 1.588737957284451496e-01 -4.261037290196158511e-01 4.190584110223841835e-02 -3.209579434754948335e-01 4.358104214249750030e-01 4.380938219521495758e-01 -3.488551475038172422e-01 8.316665202008829971e-02 1.674094788447690052e-02 -1.692557154190038604e-01
-3.636510714706791547e-01 -2.294704805565028205e-01 -5.370477669242183782e-02 2.183569563756860565e-01 -3.768523461661904550e-01 -1.245373822594095514e-01 -2.924415209802865845e-01 -6.382815431550979690e-02 2.718953593772756583e-01 4.796783034193499162e-01 2.220086090856101535e-01 -3.351354542324588293e-01 -3.847865774925190441e-01 3.211884969414523505e-01 4.268331534662001547e-01 -4.695909777706667176e-01 2.134551439847566234e-01 -4.678405295685168497e-01 3.927756922753042335e-01 -3.328724106927136717e-01 2.487979893138080600e-01 2.864884762745232849e-01 -4.585520924015664135e-01 4.150776514596797306e-01 -8.771893193628194432e-03
2.948605539857943603e-01 1.819413163635170277e-02 -1.880517798098950144e-01 6.183033966191902459e-02 3.321531427161817929e-01 -6.491916212522799712e-02 6.444647577358101342e-01 4.004940318368043206e-01 3.496241076805305381e-01 3.741977478142191615e-01 -8.090179501780446480e-02 -3.541176202924001259e-01 -1.738356098775257208e-01 1.058117894881910187e-01 -6.730730069883927857e-02 1.505478494426995273e-01 4.112818313400975478e-01 -4.527847727840128567e-01 -2.176854084131516487e-01 3.964551395486711205e-01 -2.238662792942729685e-01 -3.138182807563287269e-01 4.557825955289001030e-01 3.983823961830495336e-02 -1.212958366541776363e-02
-2.987591421533490332e-01 -4.495645123107587238e-01 -4.379317229546710322e-01 -2.869306806876195104e-01 1.035453948904672128e-01 -2.363530652591367409e-01 2.168249117213954039e-02 2.649648796058005559e-02 -5.392346187144870795e-01 -8.721958376995042617e-02 -4.517044648376046800e-01 4.338404862605224066e-01 4.778672512935467909e-01 3.383964183781566493e-01 1.138286223578259815e-01 -3.158621864503359244e-01 3.836714506570387262e-01 -9.589457011171510781e-03 -1.826239199177635275e-01 -5.848802852140514430e-01 4.756956144137042819e-01 2.231651427463161863e-01 -4.021098115250764105e-01 1.618902398836272738e-01 3.472931215673417116e-01
2.396512565568938158e-01 -4.579282872514600644e-01 -1.586492693498361695e-01 -3.322869679544695337e-02 -3.107940881112220555e-01 -2.240104393143191319e-01 -5.043004097475843883e-01 -2.243901681350405075e-01 4.876317450858506652e-01 3.863146380074590214e-01 3.379771642985930358e-01 1.765258096369411445e-01 6.214376545153704051e-02 -3.934019357162100161e-01 -2.162284842980685684e-01 3.915288646145255180e-01 1.877977807665624221e-01 1.908313671187916727e-01 -5.089992408681248692e-01 4.688799845803600513e-02 1.235348487306365678e-01 -2.760335054772370955e-01 3.456283773800374326e-01 1.255384557240116217e-02 -4.414435672001801314e-01
-3.094909681310825667e-01 -5.593121066204158331e-02 1.985797032374903015e-01 -1.445611427614733047e-01 -1.281480346452379404e-01 -9.282605933038699797e-02 6.190892474376783611e-02 -1.133407740559620874e-01 2.529365420053512059e-01 -2.541095792016960231e-01 2.259094520666336814e-01 -4.443181723422173213e-01 -3.253677339220695797e-01 -1.366505383044045729e-01 3.631851368476413100e-01 5.547149057127914729e-01 6.299431811974487427e-02 -4.853682866846349975e-01 -1.144159530696048227e-01 -1.417405511529877815e-01 -3.762082762903024014e-01 2.092076708211363101e-01 1.540147549945005689e-01 1.240644959569672662e-01 3.940694682654593550e-01
-3.070998407303106026e-01 -3.556811069282529991e-01 -4.185233776092294744e-01 8.556166994859083774e-02 1.439808978304726594e-01 2.167041884859445544e-01 8.444221780255745102e-01 -3.998652945342432985e-01 -8.538411812688884162e-01 -1.652118386081215598e-02 1.326551716826722144e-03 -2.175052895193899383e-01 -1.920938215278857331e-01 5.256337863881944683e-01 -2.565816480069813554e-01 -1.064319125623121726e-01 -4.080226402200571312e-01 -1.132488945336138919e-01 -5.191683197192480392e-01 -1.959041894465646250e-01 -4.216025546941138402e-01 -2.499304066170685290e-01 -2.123709194566996972e-01 -5.085475776120881863e-02 3.608180513885027307e-02
7.222176515089379079e-02 4.271734936028594998e-01 2.019971977587323997e-01 4.955148141186881960e-01 5.222782138133318097e-02 -3.962749818834676585e-01 -3.593275225541980866e-02 -2.932844203547675388e-01 3.491437002311192916e-02 -1.193972164407046260e-01 -5.558482152357740146e-03 -2.267426819029939589e-01 1.867428572748679183e-01 1.211674779668766300e-01 -4.460076336164639499e-01 3.800361370558136276e-01 4.878247705715286348e-02 -1.987781263200444348e-02 4.151502600508171215e-01 1.208865373542544336e-01 4.675083617968737171e-01 -1.681786764247017729e-01 1.292297366676665171e-01 3.613393389838679970e-01 6.685930716940862162e-01
-6.323352874074600338e-01 -4.142180059399810377e-01 3.075251109862562893e-01 3.022628451845192354e-01 2.477782796769079643e-01 2.448353285040812469e-02 1.870365142694326022e-01 -4.494193189229396812e-01 -1.219775558618249739e-01 1.489517770887069381e-01 2.953208539151384593e-01 5.495947749412054550e-01 4.106965945770169601e-01 3.203619524591176937e-01 1.137724662656899033e-01 -1.219247447961780834e-01 -1.043078109903584211e-01 9.687909120728586954e-02 1.671210075989374155e-01 -3.647723028349390550e-01 9.693779019541591546e-02 6.318032603727107288e-01 3.060304758984239704e-01 -2.610393749655168238e-01 2.408628609624296757e-01
2.649222624449323327e-01 1.953398003051656506e-01 5.370732647244664815e-01 -5.253728593174643302e-02 2.795381114260087618e-01 -4.422285580200315258e-01 -2.486112359460978527e-01 -1.722515136910499067e-01 8.069847050824004164e-02 -3.867790611834083792e-01 5.565379974598317903e-01 5.713637442295774194e-02 -3.372618482492269476e-01 1.553291041108306736e-01 1.805293082663328441e-01 -1.843058169112773287e-02 1.897794688280848296e-01 -1.835815577642272434e-01 -8.725111652799052986e-02 -3.027309907962283386e-01 -3.498582064011632187e-01 9.766653585839864260e-02 7.806118641739820396e-02 2.576866198217706710e-03 -5.028586997798183411e-01
-4.877853013960443962e-02 3.647408875064039324e-01 4.243118184379313651e-01 3.702590287656899459e-01 3.471555686549930297e-01 -7.862994584895619671e-03 1.221528887405034514e+00 -1.133529447725973444e-01 2.853498029877919451e-01 -2.421121135843120054e-01 5.131538321414514936e-01 7.360589859873303831e-02 -3.839350528752858427e-01 1.952133986701345969e-01 1.210102895213684693e-01 2.893295900855668568e-01 1.297685567760843428e-01 3.357157644674640951e-01 -3.440121315124041734e-01 -3.818971853227686730e-01 -1.834029343640364018e-01 -1.222193719729592065e-01 2.156779672688721450e-01 -2.902486351472652326e-01 2.144256032618665764e-01
6.764645024075337520e-01 -3.978403219105943744e-01 3.729107333849772110e-01 -5.930755228085449193e-01 8.258770377059239387e-02 -3.960975342311267577e-01 -4.278039550436188443e-01 7.979144625900630450e-02 8.869248484236602614e-02 8.653590139195192765e-02 4.197366135215412353e-01 3.976332551211225752e-02 4.909311922516471638e-01 -1.101957827239570253e+00 2.706883661733553437e-01 7.299514996825156032e-01 -3.262993289678748909e-01 2.281231981771495165e-01 2.524516288673064324e-01 5.129637635826338471e-01 -1.644915576611590546e-01 3.086164207165512652e-01 -1.434447292875931819e-02 -4.050041077131770750e-01 -2.731903120244603134e-01
-2.468399799926551952e-01 -2.190496598838262421e-02 4.103034201381072221e-01 -7.882199740865886151e-02 -2.190566864988930662e-01 -2.820665367122408007e-01 -5.630165126119139885e-01 -1.930775470178139885e-01 4.346937367760207449e-01 4.096787056849674480e-01 2.771759160718149095e-01 3.471109077469715087e-01 6.932965295261261929e-02 -2.847947397491892851e-01 -3.845886840868013024e-01 3.990139037136450906e-01 3.863704483145911917e-02 1.842026365212706407e-01 -4.419725823631217021e-01 6.812129975487616340e-01 5.767455973104533562e-02 1.253048514103805022e-02 -2.760837062919817009e-01 -3.591805623729172892e-01 -8.993213600218147308e-02
-2.707415716892298541e-01 4.247449080749045036e-01 -5.463794375228350070e-02 -5.252307453895155298e-01 -2.537116428635757814e-01 2.931063107007114699e-01 -3.656124543451267361e-01 -1.708216784646739428e-01 -6.740499005126279197e-01 -5.928524147557675539e-01 -5.769363485955772974e-01 1.642963205199392818e-01 -1.731531313973899422e-01 3.362116757794341715e-01 1.546105087687180829e-02 -8.666932289365687769e-02 -1.488894582917857923e-01 -3.907070220381179126e-01 2.418805769056036337e-01 -2.419406586981777685e-01 -1.848146781828451934e-01 -1.618594142189581087e-01 -4.722349232121790252e-01 -2.602024105855267333e-01 -2.357578681254466346e-01
-1.482959840362877736e-02 -8.838162419948865367e-02 4.659481950598554079e-01 -4.831274180112548056e-01 1.417120110790358600e-01 1.649014155793138980e-01 -4.122918376584256972e-01 2.610590919701448187e-01 1.687837640345778156e-01 -6.173440049654209671e-01 -5.066967537926901632e-02 -5.872572442965277029e-01 -5.254452702095376848e-01 2.811057735004932612e-01 1.180857451384235840e-01 2.496839782673600794e-01 -1.926507275256217344e-02 5.545857007922309206e-02 -1.957494131074646038e-01 1.940367745228856744e-01 -1.401366663372661248e-01 -7.135736880664071968e-01 -3.374937829108391463e-01 -3.785509734190115605e-01 2.152254934820283516e-01
-5.174116930098431044e-02 -3.082515756126541495e-01 5.018883584250909413e-01 -1.138316983151346495e-01 3.041612504248661919e-01 2.375241080015057793e-01 -4.674280928868925766e-01 4.882437171597737297e-02 -1.531214162252567401e-01 -3.517601007604485852e-02 -1.463912858467861511e-01 8.094821164181625894e-02 -3.093564559670205494e-01 -3.417817487829157841e-01 2.378790782454335284e-01 -1.543295487798643055e-02 -4.453333728270540970e-01 -4.089444086508725040e-01 2.226579505905952050e-01 4.850287364620717301e-01 -4.835144640994265032e-03 1.352035531008301782e-02 3.924304374289619424e-01 -4.720415554068770336e-01 3.761090509575975571e-01
