6.898286465318125282e-01 -1.029411384581408878e-01 -7.446359421781596766e-02 -5.852206260052592590e-01 1.917778889890260074e-01 -1.649783767125493350e-01 -5.303554969959057841e-01 2.965419502042005231e-02 3.604590106885868228e-01 -3.891844047548625452e-01 -3.535145803671125297e-01 2.004466629498596608e-01 -2.765121191049669802e-01 -5.995553257088670485e-01 -2.362506544616337426e-02 2.797211746597945137e-01 3.421654430369798217e-01 -1.277754410726067436e-02 3.443331589752615107e-01 1.113969308417646492e-01 -3.388756533576388064e-01 3.620504819296466725e-01 7.513515450611373270e-01 -8.237404116576971247e-02 -2.149110460030248526e-01
-2.482383829101064143e-01 -3.415225700729669911e-01 -1.682790621418575883e-01 5.005686118602041823e-01 1.398091782823987217e-01 -3.599341386325610181e-01 -3.653409673592049045e-01 2.567486912449590264e-01 5.113077226393123453e-01 4.612820477730784630e-01 3.904638080932987254e-01 2.661340856632348761e-01 -2.982768727160093822e-02 -3.902781833631577268e-02 4.461532508211254466e-01 -3.980518185633631911e-01 -4.309009229954591791e-01 -3.769623523642974816e-01 -3.879744407343711787e-02 4.321238035103748265e-01 -7.285987047855113641e-02 3.701389909093729114e-01 4.859823264860315684e-01 -2.715946874421482429e-02 3.194971900762593742e-01
-6.508679241818238204e-02 1.416988256093885956e-01 -2.325436366020507128e-01 4.723389810021721980e-02 -9.458886481669430413e-02 1.143410080691532604e-01 4.607747292717767063e-01 1.554682522489197749e-01 3.934621647260139743e-01 -9.211692988126385373e-02 -4.356322819936474938e-02 -1.006505744203521624e-01 -2.116582204075173890e-01 3.106832775343084663e-01 -5.298019511015429339e-01 2.429370210412925557e-01 2.188432673742377321e-01 -2.699316258886984565e-01 3.191210479603385775e-01 -1.517019318777223513e-01 -3.415822937772933221e-01 -8.197038549866231261e-02 6.474546661275308868e-01 -1.136965567130046872e-01 -3.906966489044408908e-01
-3.346591342639660960e-01 2.285236263313899230e-01 -1.309660929196875823e-01 -5.541838307249731532e-02 3.328738808889447620e-01 2.910862995047649449e-01 1.577304610529596252e-01 4.919052617218971357e-01 -1.077977696097136284e-01 3.521065326041695753e-01 8.223783804443973722e-02 3.407587974191333413e-01 7.810814242304968402e-02 -3.353462685935358900e-01 4.198303280093337309e-01 -8.603369308862436615e-02 -3.663120715192652033e-01 -4.735625619721786639e-02 -4.707446024322674560e-01 -1.122810690452223925e-01 -2.138731111275428698e-01 -3.720975267082312632e-01 5.095406997854113468e-02 -4.792473287629416823e-01 -4.434959207341135912e-01
-3.112128177336422885e-01 3.549220944968064367e-02 4.277988763842331954e-01 -3.566437994834606995e-01 3.387837798436797998e-01 -4.429772158925004422e-01 2.173569162868898008e-01 -3.877040553004302420e-02 3.814605515231251354e-01 -2.056167550303255043e-01 2.512915467712389939e-01 5.618725979110161806e-02 -2.284831892729254632e-01 2.527729234855236040e-01 -3.822464840695457000e-01 4.304575797995079944e-01 -1.177890624875315151e-01 1.845168774544163615e-01 4.391909947355348565e-01 -1.458866490594471366e-03 -4.561820618331289268e-01 -3.456075538203046138e-01 1.056645428565742700e-01 -1.029875894343767473e-01 -4.536675715474206005e-01
-3.691214167828048287e-02 -4.908042210387864590e-01 -1.511849516024628692e-01 4.367248896365951150e-01 -1.622860641660470726e-01 -2.548974840666011210e-01 -6.329397409782572259e-02 1.527462823421659177e-01 -6.401152595914222365e-02 4.677610579831739113e-01 1.573833378555698492e-01 3.178629499284032489e-01 -4.541521539562428655e-01 4.185447605180609432e-01 4.490463491652142425e-01 -1.294174678405529411e-01 -2.839080471708804732e-01 -1.366248715349907550e-01 -1.670379030955963240e-01 -4.057726221548475509e-01 1.379451630704814913e-01 3.719243699737059261e-01 6.506612896982250094e-02 -7.776191285490270666e-02 -4.469066282991294714e-01
3.228081483738268198e-01 2.326561440991012364e-01 1.054940427363443983e-01 2.402246570530512937e-01 -3.518641792091263820e-01 -2.698709691103456931e-01 -2.640247137757985030e-01 2.663645729834457354e-01 2.506326478885814169e-01 -3.107754516749899887e-01 -6.236804232703403728e-02 -3.072992775511872998e-01 -2.606031760471033132e-01 1.866624066302342011e-01 -3.512943211758311896e-02 2.334093794769852848e-01 -2.348365997456050014e-01 1.383942443119734744e-01 -2.767217525608735573e-01 -1.651954246713372709e-01 -7.470075873824985960e-03 -4.730487952156342546e-01 1.419706454431845510e-01 2.202566079311450709e-01 -3.732033941603469795e-01
-5.003798204488123513e-01 -1.018094478709684336e-01 -4.701567917111641459e-01 -4.290130893848764226e-01 -4.483658112145595953e-01 3.408305748966793947e-01 2.944477911640445700e-01 1.998429914967459475e-01 -4.018990800992379153e-01 2.582051766892670130e-01 -4.967397130733849364e-01 1.669577183796761566e-01 4.349970211918018359e-01 -2.793845343965209449e-01 -3.798078848247471440e-01 -1.363290144401745341e-01 -1.412643946568313269e-01 2.381755897867277316e-01 -4.483351928388695784e-01 -2.110337354917161401e-01 2.399076537981134072e-01 3.312821084918858294e-01 -1.917328496589107145e-01 8.016851428640729693e-02 5.172506667736966740e-02
3.743392230910909668e-01 3.706722659842454637e-01 5.390363340708925755e-01 2.030960496201089371e-01 -3.141723790373095460e-01 -4.813794365232267336e-01 -2.639345689900294278e-01 -3.001467435045245269e-01 3.025921422465553956e-01 -1.551703269710860977e-01 -4.564346198716809355e-01 2.273768565100352246e-01 -3.075328565638346112e-01 -3.339246540919919015e-01 3.118894585750398019e-01 -3.815930733569651290e-01 -7.253954427916355086e-02 1.069619141535690515e-01 4.969061572005919469e-01 -1.867762667858254566e-01 3.634859751464258881e-01 -4.462961847767970558e-01 8.606240245728918881e-02 1.785646382233196383e-01 -3.349171014952169179e-01
4.409718624414654120e-01 2.293984543963890066e-01 -4.726615096603797306e-01 1.764128610529278329e-01 -5.488944524141228243e-01 5.808493723786675167e-01 4.707269427412270058e-01 -1.637735705726098279e-01 -4.076814776858316280e-01 1.533843454795789409e-02 3.451022143497620848e-02 -5.723828503548631375e-01 2.986309470311729330e-01 -6.196922765776657471e-04 5.423937325805013726e-02 -5.375868405957373586e-01 4.096794595442962983e-01 -4.578642394947549654e-01 2.847726153928312742e-01 -1.434470482332757535e-01 -3.018554284073290961e-01 -3.241337644597953871e-02 -3.726718878148184144e-01 2.493997022575878131e-01 -2.350075810304256552e-01
3.632076666018984601e-01 2.560874600800583933e-01 3.810564779804449520e-01 -5.220960574498173523e-01 4.395578206205861815e-01 -2.972408928149479213e-01 -5.352265052222102137e-02 1.513295498238197978e-01 2.660965628349047374e-01 -3.408722326674956116e-01 4.131959440022717200e-01 -5.647870221245376160e-02 -1.087181898480968911e-01 1.139095272855569496e-01 -1.135247636164037933e-02 1.522052277693485833e-01 1.980927812423163292e-01 1.916228805519542833e-01 -3.589655483482810661e-02 3.829582506505523898e-01 -3.183256865458972684e-01 -3.025364722007689577e-01 5.490644416741653489e-01 -1.617316691459164124e-01 -4.111633665730337062e-01
8.656387448138119778e-02 2.470791431073636746e-01 7.870582733102850226e-02 -4.602036300911527267e-01 -5.970385716811152897e-03 1.677962771222388794e-01 7.619898886155462847e-01 8.374398843546120019e-02 -3.818340893179172219e-02 -2.355303075677411540e-01 -4.283842702429507265e-01 3.754315758390638913e-01 3.274987530931788293e-01 -8.988206279395692666e-02 -5.040635342427903787e-01 -4.626883484308298433e-01 -2.131022076762106865e-01 9.733541978961363084e-02 1.980678411734957678e-01 3.460145198679913658e-01 4.145105593384425524e-01 2.760526642420710330e-01 -5.477988951566861164e-01 -1.757733096774100334e-01 -3.455172310672129099e-02
4.761734734080750875e-01 3.529960679633888376e-01 -4.084638808102981078e-01 4.112535629508896062e-01 9.481591720165200021e-02 -2.234610143793335779e-01 -4.331314598113730208e-01 2.091222438034879560e-01 3.939984034169743410e-01 -2.140262031388526498e-01 4.503920777148840426e-01 3.061213092700907912e-01 -3.837832645105024865e-01 2.523590351143062960e-01 4.000457170769539106e-01 8.488846401513612527e-02 -4.430512804197579979e-01 2.191906225393681351e-01 4.088803945380247717e-01 -4.135395356541095579e-01 1.181717306097257586e-01 6.860610284818408067e-02 4.268644973963526268e-01 -4.416073960071834614e-01 -4.794137563396999036e-01
-2.539522916965226626e-02 1.649725122070231365e-01 -1.728114529709566805e-01 -4.265784186051556071e-01 2.870190794857227501e-01 -3.212721230988225263e-01 -2.599945346034699400e-01 -9.775596226342915529e-02 4.390099453940864982e-01 -1.298532628628376595e-01 1.779927828184775240e-01 4.701786134626166902e-01 -4.149608046505140480e-01 1.286708161773442716e-01 2.684533500895169289e-01 -5.430936430660239234e-01 -7.916591735986928946e-02 -4.668055354541327806e-01 -4.962487727149491601e-01 9.624975601401017378e-02 -6.302033448920549286e-02 2.423732675273471970e-01 -2.965300274339473519e-01 1.487172193641123075e-01 -6.445257272415097494e-02
-1.784188015321851728e-01 -2.308187312472541608e-01 -3.864224277803746666e-01 -2.641517528365162071e-01 9.372586807061392133e-03 -1.685477030924031339e-01 1.401191911417970226e-01 2.990576750698265562e-01 -3.907281500283097952e-01 1.905336212669383467e-01 -3.191664914576939349e-01 -1.603733520020093548e-02 4.247119392379608005e-01 8.409418795891827891e-02 -4.854118307390605791e-01 9.237005563124574270e-02 3.738731906401369653e-01 -2.047262496948572610e-02 -2.879136053926857897e-01 -4.857176133022255149e-01 1.705598440149606321e-01 7.182426938141543982e-01 4.056374972377073396e-02 3.282961286056346184e-01 9.880681958913742347e-02
-2.233988753473767908e-01 2.880292519097112369e-01 -3.530411634310512414e-01 -1.862872630420021602e-01 -3.533510038057139369e-01 -5.413864335645629522e-01 1.321547794736601944e-01 2.321614251954948471e-01 1.097607560218823997e-01 5.001049498401162197e-01 2.931427694050919297e-01 -2.160974293528665213e-01 2.926985050344578787e-01 3.508036662533618039e-02 -3.147610506124526863e-01 -1.029485209972675758e-01 4.650257197976557233e-01 1.966957356616592933e-01 -2.611689749735578436e-01 5.372483199083007976e-01 1.462185340638766373e-01 4.404787676478915705e-03 6.200821264065871086e-01 3.959251977292411739e-01 4.950896156152017613e-01
1.621906237263573691e-01 9.975138517962374440e-02 -3.691086294582053284e-01 -1.374104823675346976e-01 -2.690218714516242615e-01 -2.515357605261053786e-01 -8.636102708612691803e-02 9.169607057399924155e-02 -5.378761559448611562e-01 -1.864888469369592183e-01 -8.237791692276623390e-02 -4.388689501555945172e-02 -3.656870071617118190e-01 1.812956496988432364e-01 -3.887652624088090425e-01 -5.879202048799911928e-01 1.841705783425146015e-01 -1.102918548562823245e-02 -4.303833161963543374e-01 -1.079398975280641410e-01 1.841257850130433860e-01 1.888324694505470053e-02 -1.528853754234913431e-01 -3.310019463922072580e-01 -4.657668160992548545e-01
2.178588449968740792e-01 2.800597474718459767e-01 2.051539422619670650e-02 4.614661283480586684e-01 -3.891660741392626299e-01 -2.895221207741840996e-01 -2.577149351504423036e-01 4.876375361847644085e-01 2.091189689488046066e-02 1.286002458260204484e-01 2.038056971209597501e-01 -5.659748743308432722e-02 -9.776054955243476674e-02 2.234212924875877970e-01 3.812833064436130237e-01 2.125494830170120697e-01 3.113607387347909206e-01 -2.344099738255259469e-01 1.090218316511110119e-01 -3.270127658052314756e-01 -3.092486329175663795e-01 -3.820560037583950463e-01 -3.687437272439078595e-01 4.811086513700630340e-01 -1.478755124141958588e-01
-2.564657565427275743e-01 -4.583219785958687065e-01 1.039963961970199885e-01 -3.069933529917183712e-01 3.882639821262621194e-01 -4.084487848120661457e-01 4.548105831825483558e-01 -4.128243570038154786e-01 3.733378853375947659e-01 1.760926340775461896e-01 -3.122548877193173644e-01 -4.141610213066498347e-01 -3.192484533070943375e-01 -3.649161521898119931e-01 4.322616359741590086e-01 -2.595623506031852767e-01 -3.351961849927133086e-01 3.497703333689469174e-01 1.014941725646289483e-01 -2.342053059173536400e-02 1.630935485790936668e-01 -2.475763563643052778e-01 -2.549965624835556222e-01 4.384914432546594965e-01 -4.231798143867193107e-01
-3.343400416680748499e-01 -8.511952754066334781e-02 -4.866218505245575171e-02 2.498608752117146420e-02 -4.373553359065787127e-01 -2.249858247720730176e-01 2.202580875956560713e-01 -3.528037459907274465e-01 -5.362544894415600671e-01 -2.189756757805391418e-01 1.456603458751365154e-01 -5.451850547081842357e-01 -4.452900103877542870e-01 1.574185963935321730e-01 -6.140989872351595991e-02 -6.940335933263929169e-01 -3.395005013591448351e-01 -3.991798158000708363e-01 -5.851832214554960609e-01 1.864888914839198941e-01 1.257100921113899761e-01 -4.715107876223481598e-01 -2.208278022938431062e-01 -2.662987973530611119e-01 2.630199321667008316e-01
1.775401689726218910e-02 -7.714046295592894009e-02 3.453698795403515320e-01 -2.856862869692912144e-01 9.991579147198408062e-02 -1.476877537558330677e-01 9.298279629217792719e-01 -7.830419277493190500e-02 -1.410360352618785472e-02 2.003933663903721407e-01 4.932913393389675161e-01 -3.293368781821044422e-01 1.274925147634170530e-01 1.852067276953970887e-01 -4.622163225342806880e-01 4.262330707552482445e-01 -4.684246695295123386e-01 1.559948452668709074e-01 4.039341633844609203e-01 -1.647434209662896887e-01 -2.918131392192608309e-01 3.022094656011924951e-01 6.230685544998663117e-01 -1.889603277731352338e-01 3.655482159886874749e-01
2.259113981186327835e-01 -2.364176310686578464e-01 3.978225870974054779e-01 -4.021948168131052048e-01 3.345950977600836707e-01 -4.448547567763081467e-01 -3.207902245803621599e-01 -4.793092299881138718e-01 -3.352267583589471078e-01 -2.317003051857547957e-01 3.594669102465256616e-01 4.341406821782931580e-01 1.801613076466777874e-01 5.216429491907565996e-01 -4.244450111408065163e-01 -3.977198626288367955e-01 2.668100284621899299e-01 -3.504145331114221773e-01 -1.916082583097307446e-01 3.309517451843912439e-01 -3.994450535501447019e-01 3.779511402879609516e-01 -4.748092111034050294e-02 -4.349065346204342153e-01 3.683451325780587871e-01
-4.533731127713206965e-01 4.451978657671887274e-01 -1.045373460126512166e-01 3.044122347189096023e-01 -2.070004399887975105e-02 6.400549122099767618e-02 -4.447874113763493065e-01 4.687249710789941071e-02 -1.040992570734991518e-01 4.601418309349946667e-01 -2.177316666458817274e-02 -2.952217507859485335e-01 -1.554032052656931229e-01 3.063654820538319057e-01 1.661615166475124417e-01 1.777080755636921694e-01 -2.178678611503564455e-01 -2.898871897703472200e-01 -1.684999764228294894e-01 -4.174938772143602650e-01 -3.341738137681166121e-02 -2.806734578087254905e-01 4.253971010263160601e-02 -8.523080392093183855e-02 4.143065131522735006e-02
-3.452688831810001302e-01 -5.788624890938099538e-02 3.567136153678057697e-01 2.381521653526530724e-01 3.591556247329910079e-01 -8.440732675902412607e-02 -3.227751589065844251e-02 8.880276173632033199e-02 -6.410963048078673066e-02 -6.477804936123258972e-02 -3.045488198711068240e-01 -3.320543110100247497e-01 -1.423930838762557938e-01 3.107377909585550269e-01 3.676961254411748731e-02 2.682656558872145158e-01 2.514231861590114359e-01 3.314366390160649600e-01 4.287703496216883625e-01 3.039025420993973214e-01 -1.473010079239347736e-01 3.562770788611596129e-01 -3.041859357167050470e-01 -4.407138663097261155e-02 -8.236960932286400972e-02
-1.998499233356139659e-01 -4.614618572163859400e-01 -2.999541389408041936e-01 -2.851633804483799106e-01 6.335664108649956272e-02 5.062195438901703204e-01 -2.449320538611185760e-01 -3.171770796555479777e-01 -1.575840778131960551e-01 3.874011178794721233e-01 -4.201271961987891324e-01 -5.014555899626761404e-01 -3.131872521932430736e-02 1.092770448522606824e-01 -3.092034912395544288e-01 1.071472157014796422e-01 5.754663622811906354e-01 -4.667458002620842317e-01 -6.322921752424981445e-02 -2.692667217617643605e-01 -5.002115844634532627e-01 4.522494781713758405e-01 1.408461554546446282e-01 -4.493956029985338163e-01 1.022268295135108918e-01
4.428265192629268210e-01 -2.388395898636271886e-01 4.067949273483839057e-01 -8.160158549328307143e-02 -1.961942169554613258e-01 -5.350009506387213426e-02 1.342510020926860614e-01 1.084132019426407578e-01 4.265238308770497588e-01 -4.368870580783190127e-01 1.069103500705289450e-01 -2.108822103746278709e-01 2.104585517059397726e-01 2.318211418893340592e-01 -5.772928536905099633e-02 3.798855646660332930e-01 -4.503003922399327896e-01 3.404085440229802084e-01 -2.229933724943870266e-01 -2.947128545637336394e-01 3.369198805298291299e-01 -1.746570775257089148e-01 1.454354888061552553e-01 -3.904443567973155393e-01 -3.952142742042640267e-01
-4.759231939867827887e-01 -5.592585659074025134e-02 -3.506871120137104447e-01 2.552476410513010996e-01 -1.479749526985232877e-02 4.847999159564336247e-01 -2.090413068101515393e-01 1.925584154600955833e-01 2.967699506302606260e-01 4.427063177377425496e-01 3.776680350010118703e-01 5.550072155480896552e-02 -4.805581112375450492e-01 2.629147333802201447e-01 -5.035601036769337124e-01 -5.488964015124336848e-01 -4.693702667826686881e-01 1.519598598585920890e-01 -2.985384680282118786e-01 -1.519673122100835272e-01 -4.588466956878872183e-01 -2.027982303905101480e-01 3.488079662397765984e-02 -2.305120840871294208e-01 -3.683331760054132098e-01
-1.325368339777972110e-02 -2.005688581678787830e-01 -4.062107512824499889e-01 2.433833411808962455e-02 -1.274695105165315479e-01 -4.242257666531728533e-01 -2.588783290748882249e-01 1.872047197083167303e-01 -1.832717885786266654e-01 3.212825882279634060e-01 1.919292450015317938e-02 1.874811002872272397e-02 -4.968013796086184763e-01 -1.389065717392724830e-01 -7.970880592367401984e-02 2.696476215632303067e-02 -3.228436023719018222e-02 1.052580174391161277e-01 -8.974702861202641518e-03 -1.392511557378311726e-01 2.169720290658413153e-01 -1.952189455845788069e-01 1.244647872598695915e-01 3.035158510372746310e-01 -1.370153517336445970e-01
3.727419017250779287e-01 2.839653160798366952e-02 2.707569568949601546e-01 -7.128883710210449642e-01 -4.783136917348568828e-01 1.651611722942000204e-01 -2.554659904786498736e-01 -3.855417018952096986e-01 7.049169151159424551e-01 3.930245512398449770e-01 -4.232637752148069588e-01 1.863185976532478472e-01 -4.584655365842014163e-01 -7.009231419311855449e-01 3.156663140943187507e-02 -1.241155779291890360e-01 -2.158273814422851933e-01 -6.145821304705508803e-01 -1.462260597317302790e-01 -4.275022275053361187e-02 -3.321974802422855699e-02 3.840335359017765238e-01 5.141080877013576300e-01 5.710101537087217821e-02 1.832734361382588606e-01
8.337085541511457532e-02 2.059654987340102661e-01 -3.279071792926523399e-01 2.620716038698916450e-01 2.167158300218087752e-01 -1.468429846401206884e-01 1.694993890944290205e-01 -4.044382759752325751e-01 -3.689222174930774090e-01 4.210113946539782437e-01 -1.564198539280778899e-01 5.818749894344766860e-01 -4.011088034600286956e-01 -7.238570768724074400e-02 -1.516561358956067807e-01 -3.834600453238410367e-01 -1.118464185336468103e-01 -1.329166547213028182e-01 4.177544560383699562e-02 -3.311557659207507720e-02 -2.695019168882256677e-01 3.852902988409961371e-01 -1.543238659239982435e-01 -3.692831902579130771e-02 -8.673904592180720075e-02
4.909814708717969434e-01 -2.269976978441252402e-01 1.772634753576404487e-01 1.834613331738548236e-01 5.434085564948124003e-02 7.305920881225745622e-02 5.590310988152493582e-02 -4.382728258776347752e-01 4.253451632877598976e-01 -4.140456144427641649e-01 -2.259726391603882889e-01 -1.724506790228863273e-01 4.086593834771526552e-03 5.794964943345854991e-01 -4.587232122640539922e-01 -2.128608703856710027e-01 -4.641816698337747349e-01 -1.594940600141125653e-01 -4.344988715835012005e-01 5.221127630131717767e-01 2.446848342748163263e-02 -7.053726101076580601e-01 5.125639190929256461e-01 3.097733219131892923e-01 3.111812536797355366e-01
-3.072026272648212264e-01 2.730877061903936309e-01 4.802861635485592973e-01 -3.475939272250581635e-01 -5.097417798577692089e-02 4.014696694397207888e-01 -2.244873695016098014e-01 1.420726706066911538e-01 3.922311779135807530e-01 2.302392717718255294e-02 -1.536073637871326059e-01 -3.561920072056604103e-01 -2.307969544693392050e-01 -1.588263585769721931e-01 5.071439882739049443e-01 1.782526712691210324e-01 2.782359688054594771e-01 1.032542700491536763e-01 -1.162314546831658482e-02 2.093668464283338637e-01 -4.212425745647277453e-02 -1.816144663431218387e-01 2.578874692389153678e-01 -3.934893473143856180e-01 1.065755252619698112e-01
1.256563935980830882e-01 -3.304063044554297890e-01 -3.024476473349586025e-01 -1.435366332435290132e-02 2.595065093621228350e-02 -3.869723513929653747e-01 -2.171278990380775820e-01 -2.489073842574046277e-02 1.009435690562740101e-01 7.455899468556716203e-02 -3.137156267417380850e-01 4.716321717046708523e-02 -2.230987814409911563e-01 1.387703506413223431e-01 -2.816760892609558864e-01 -7.058724952312880885e-02 -3.339945117246527762e-01 6.083663584374823102e-02 -1.261216684751219064e-01 3.211818668830612178e-01 -4.801438707318990695e-01 3.840725364941107167e-01 -4.185873021353678225e-01 -1.577625992750921954e-02 -3.797273900029503602e-01
1.087233687160125972e-01 1.785378064199992509e-01 -4.281165125459922977e-02 2.588558290695292530e-01 2.052425575080172038e-01 -4.770167474561746723e-01 6.151992707125880644e-01 -1.452843172565844165e-01 3.726425808020977781e-01 2.367763763746954797e-01 -3.759686992972952613e-01 -8.554450748276960781e-02 -2.572315926608533809e-01 3.514990659409668039e-01 4.168914742877338209e-01 2.485661495424262291e-01 -3.624847653650166146e-01 2.995938092373434114e-01 4.034512000336753501e-01 7.351117586771870570e-03 1.160266813481175829e-01 -2.138659928772576879e-01 1.803693594960967816e-01 -2.979613658089522166e-02 7.895030737146444544e-01
3.245086304878123662e-01 4.602531568189218714e-01 -4.818842742673298124e-03 -4.274102126818741243e-01 -4.808191005642672433e-01 -3.578033703254967501e-01 4.845876075950187878e-01 -4.746111259788987069e-01 -5.752089152342561990e-02 1.039321564770029765e-01 -9.833220298690201200e-02 5.004942028590968206e-02 -6.206612109440978048e-02 3.585128858330095536e-01 9.855667962437210383e-02 1.587919646603388746e-01 -4.260658814149451135e-01 4.176562209989627406e-02 -3.208389196895455875e-01 4.357186139094640920e-01 4.380938219521495758e-01 -3.488551475038172422e-01 8.370857127541481146e-02 1.674094788447690052e-02 -1.691496627092657079e-01
-3.636510714706791547e-01 -2.294704805565028205e-01 -5.370477669242877672e-02 2.183569563756860565e-01 -3.768523461661904550e-01 -1.245373822594095514e-01 -2.924415209802673221e-01 -6.382815431550979690e-02 2.718953593772756583e-01 4.796783034193499162e-01 2.220086090856101535e-01 -3.351354542324588293e-01 -3.847865774925190441e-01 3.211884969414523505e-01 4.268331534662001547e-01 -4.695909777706667176e-01 2.134551439847566234e-01 -4.678405295685168497e-01 3.927756922753042335e-01 -3.328724106927136717e-01 2.487979893138080600e-01 2.864884762745232849e-01 -4.585520924015664135e-01 4.150776514596797306e-01 -8.771893193616191881e-03
2.935642551329984418e-01 1.961860484712623851e-02 -1.889876869063225329e-01 6.183033966191902459e-02 3.324048315292338907e-01 -6.470841272956570633e-02 6.497169232412910445e-01 3.998627407076058571e-01 3.464938155335194891e-01 3.733430186395765293e-01 -8.168871480892557491e-02 -3.541176235604719946e-01 -1.738356089287628192e-01 1.058657731189567436e-01 -6.730730069883927857e-02 1.487643642712560832e-01 4.111329786315006118e-01 -4.527854435068367489e-01 -2.163641686284981935e-01 3.954032158045955869e-01 -2.238662792942729685e-01 -3.138182852132159195e-01 4.529392784782112491e-01 4.038933479745953486e-02 -9.639032010394500000e-03
-2.987591364960693330e-01 -4.495645123107587238e-01 -4.379317163359944809e-01 -2.869306806876195104e-01 1.035453948904672128e-01 -2.363530652591367409e-01 2.168249117213954039e-02 2.649648796058005559e-02 -5.392346049725654789e-01 -8.721958152507132411e-02 -4.517044594405621449e-01 4.338404743618501924e-01 4.778672547478832744e-01 3.383964183781566493e-01 1.138286223578259815e-01 -3.158621770683269769e-01 3.836714506570387262e-01 -9.589457358731871481e-03 -1.826239199177635275e-01 -5.848802806798952814e-01 4.756956144137042819e-01 2.231651265193049516e-01 -4.021097965995084067e-01 1.618902398836272738e-01 3.472931215673417116e-01
2.388862077006979057e-01 -4.573293189168861073e-01 -1.590331927058613870e-01 -3.322869679544695337e-02 -3.106900963610004784e-01 -2.239806044578107336e-01 -5.009010711247708914e-01 -2.246371995892949558e-01 4.857796243778483292e-01 3.857777215687142047e-01 3.376065299808008180e-01 1.765258090338577557e-01 6.214376562661997477e-02 -3.933860526922011713e-01 -2.162284842980685684e-01 3.905043243693233634e-01 1.874565157118344427e-01 1.908309019704658993e-01 -5.082140320986527904e-01 4.626322036158404816e-02 1.235348487306365678e-01 -2.760335062997021915e-01 3.439295805829354347e-01 1.277996264178811112e-02 -4.399208614163931386e-01
-3.095686604032865663e-01 -5.585352183625300754e-02 1.985435588613093938e-01 -1.445611427614733047e-01 -1.281480344472682720e-01 -9.282605748485212027e-02 6.201811686091447673e-02 -1.133407740559620874e-01 2.527879182964590798e-01 -2.541095793264935288e-01 2.258431504371586629e-01 -4.443181730995115486e-01 -3.253677337022169991e-01 -1.366522497289168192e-01 3.631829970116600692e-01 5.546609081381168593e-01 6.299431811974487427e-02 -4.854315340102701715e-01 -1.143489911904878864e-01 -1.417925674035027950e-01 -3.762082762903024014e-01 2.092076697883649694e-01 1.542305947689381895e-01 1.240644959569672662e-01 3.941725419115031381e-01
-3.075189071414659026e-01 -3.562334439366426353e-01 -4.185233714134483640e-01 8.556166994859083774e-02 1.439808978304726594e-01 2.185511952397413971e-01 8.398240119279527516e-01 -3.998652945342432985e-01 -8.548513374842919843e-01 -1.685629778169589824e-02 1.247379388096196088e-03 -2.175052895193899383e-01 -1.920938215278857331e-01 5.256163517010071784e-01 -2.565816480069813554e-01 -1.069487237811624913e-01 -4.068339242893344587e-01 -1.132488945336138919e-01 -5.187349559109604158e-01 -1.962480024211756269e-01 -4.216025546941138402e-01 -2.499304066170685290e-01 -2.128951759758183904e-01 -5.085475776120881863e-02 3.600023095152773273e-02
7.100253074147297450e-02 4.281008210740191999e-01 2.012776736557481960e-01 4.955148141186881960e-01 5.248201432440788294e-02 -3.959733079118892829e-01 -3.227924538308674790e-02 -2.939197108319774876e-01 3.220527548459090755e-02 -1.202474863357644724e-01 -6.498770691826184949e-03 -2.267426841419375172e-01 1.867428579248619491e-01 1.212094557501426223e-01 -4.460124523678266617e-01 3.785677276547068648e-01 4.872449217124931453e-02 -2.007393467480950502e-02 4.163057232313518430e-01 1.199718956435784911e-01 4.675083617968737171e-01 -1.681786794780987804e-01 1.278735045199695941e-01 3.618955036567530481e-01 6.704035362824625199e-01
-6.323487588040345164e-01 -4.141968928587554943e-01 3.075110471283645786e-01 3.022628451845192354e-01 2.477823457472038970e-01 2.448353285040812469e-02 1.871007952486637982e-01 -4.494252516846276579e-01 -1.220102160704470001e-01 1.489442331722452273e-01 2.953099357976647910e-01 5.495947628601709489e-01 4.106965980842971486e-01 3.203633625413646602e-01 1.137724662656899033e-01 -1.219447547206387594e-01 -1.043078109908910783e-01 9.687902186368646529e-02 1.671345805908893978e-01 -3.647831962977336473e-01 9.693779019541591546e-02 6.318032438970003772e-01 3.059974930337070465e-01 -2.610309707349758312e-01 2.408921656972725367e-01
2.646824215564637095e-01 1.956813129930590756e-01 5.368823136632450144e-01 -5.253728593174643302e-02 2.795381114260087618e-01 -4.422285496899303059e-01 -2.477572124049916835e-01 -1.722515136910499067e-01 8.011585545361339655e-02 -3.867790603650569925e-01 5.564089911363859775e-01 5.713637008542640783e-02 -3.372618469899852367e-01 1.553291041948617057e-01 1.805267216582464584e-01 -1.870826305857613281e-02 1.897794756266036331e-01 -1.836797836690872987e-01 -8.699840433267960749e-02 -3.029307655243790309e-01 -3.498582064011632187e-01 9.766652994301808222e-02 7.806119185836141172e-02 2.576866198217706710e-03 -5.024024257604224886e-01
-4.921047064266478172e-02 3.650980117882340337e-01 4.239679375710384557e-01 3.702590287656899459e-01 3.471555686549930297e-01 -7.339268978497722438e-03 1.221246778234678976e+00 -1.133529447725973444e-01 2.843004970486300853e-01 -2.421121135843120054e-01 5.129215030334838277e-01 7.360589859873303831e-02 -3.839350528752858427e-01 1.952169229706416376e-01 1.210052271920721428e-01 2.888295155133890901e-01 1.302033181787704552e-01 3.355390853576921129e-01 -3.435570015148378120e-01 -3.822569702748260245e-01 -1.834029343640364018e-01 -1.222193719729592065e-01 2.156779973249704496e-01 -2.902486351472652326e-01 2.150110437686862941e-01
6.756554158776972852e-01 -3.967316152060632595e-01 3.723011986610917368e-01 -5.930755228085449193e-01 8.258789251088860528e-02 -3.960975327105661359e-01 -4.251492200068783811e-01 7.979144625900630450e-02 8.677829499558213644e-02 8.653565797244500146e-02 4.192634243463082000e-01 3.976329077902244352e-02 4.909312023351085075e-01 -1.101960219211956193e+00 2.706784253506202553e-01 7.290630917243542397e-01 -3.262993289678748909e-01 2.277455093778724959e-01 2.532854665523003868e-01 5.123059123091274758e-01 -1.644915576611590546e-01 3.086163733487230498e-01 -1.403626380667771616e-02 -4.050041076124561990e-01 -2.717101154557419185e-01
-2.472747248900951100e-01 -2.136544489253720119e-02 4.100162666400855027e-01 -7.882199740865886151e-02 -2.190424117294877682e-01 -2.820665341152768790e-01 -5.618480043227671583e-01 -1.931054530133667624e-01 4.337387165104787945e-01 4.096496091744242229e-01 2.768481247826156677e-01 3.471108805427735589e-01 6.932966085033966108e-02 -2.847953445133420414e-01 -3.845946351107211170e-01 3.985936314073168507e-01 3.863704483145911917e-02 1.839466083563612298e-01 -4.415528932982207277e-01 6.808834604493033682e-01 5.767455973104533562e-02 1.253044804086134341e-02 -2.755599255525100766e-01 -3.591505988940119076e-01 -8.921093623670182937e-02
-2.710079739255608078e-01 4.239413917645484808e-01 -5.459141326369646580e-02 -5.252307453895155298e-01 -2.537116428635757814e-01 2.948372950740864029e-01 -3.711495920282190109e-01 -1.708216784646739428e-01 -6.745483112292305350e-01 -5.930113094053510725e-01 -5.771174577886798440e-01 1.642963205199392818e-01 -1.731531313973899422e-01 3.361950357617588536e-01 1.545587989933426727e-02 -8.685579010002499045e-02 -1.475901911697163893e-01 -3.908641237371820454e-01 2.421045284083931382e-01 -2.421145654261185609e-01 -1.848146781828451934e-01 -1.618594142189581087e-01 -4.714996957332974747e-01 -2.602024105855267333e-01 -2.365041779118345622e-01
-1.616202127972257013e-02 -8.792730133875065190e-02 4.651770151570572831e-01 -4.831274180112548056e-01 1.419544896096782971e-01 1.666189926609614735e-01 -4.139593956482942039e-01 2.604438374451942817e-01 1.659521708193691658e-01 -6.180957906008937019e-01 -5.179745478609017878e-02 -5.872572442965277029e-01 -5.254452702095376848e-01 2.811402684795825113e-01 1.180728419016704028e-01 2.482487289205465297e-01 -1.802183953863338572e-02 5.502780517627320345e-02 -1.945275955325694861e-01 1.930742475468162356e-01 -1.401366663372661248e-01 -7.135736880664071968e-01 -3.374607963463500671e-01 -3.780192979441792667e-01 2.162353340083319475e-01
-5.174116930098431044e-02 -3.082515756126541495e-01 5.018883584250909413e-01 -1.138316983151346495e-01 3.041612504248661919e-01 2.375241080015057793e-01 -4.674280928868925766e-01 4.882437171597737297e-02 -1.531214162252567401e-01 -3.517601007604485852e-02 -1.463912858467861511e-01 8.094821164181625894e-02 -3.093564559670205494e-01 -3.417817487829157841e-01 2.378790782454335284e-01 -1.543295487798643055e-02 -4.453333728270540970e-01 -4.089444086508725040e-01 2.226579505905952050e-01 4.850287364620717301e-01 -4.835144640994265032e-03 1.352035531008301782e-02 3.924304374289619424e-01 -4.720415554068770336e-01 3.761090509575975571e-01
