-9.746165657005754213e-01 2.968317423950951883e-01 -3.627613996239177907e-01
-3.431040937679241676e-01 -5.057839894259468227e-01 4.939543481273001024e-01
-5.840314402788885362e-01 3.470718228280876283e-01 -2.609585354022256332e-01
-6.981572467165682028e-01 -3.907461617483803940e-01 3.842148720842145648e-01
1.887662124380136697e-01 -1.215717546884959033e-01 6.986639045916839992e-03
9.445015462541256346e-02 3.860033600606737614e-01 -4.667286931762897328e-01
-8.250962584248724419e-01 -1.471981705588365941e+00 1.531484765157532291e+00
1.271556435084821024e-01 2.402178705041103091e-01 -2.016491220735250334e-01
-1.253432175758662226e-01 7.205866688979297718e-01 -8.796514579386365273e-01
7.111127954930630546e-01 1.178882107507542715e-01 -3.601908603770278550e-01
-2.150661712810557624e-01 2.831386500443001664e-01 -1.640118174856002309e-01
5.131031488584643085e-01 -6.237308575333175842e-01 -4.677748657199004567e-01
2.307742794688747434e-01 1.810770553054106280e-01 -3.611526369323360408e-02
-1.352448128133212801e+00 -6.023169166822064241e-02 -4.876045862758432436e-02
3.960577270868878008e-01 -1.178488044334654178e-01 -3.332692164971166604e-01
-6.447107676408968535e-01 4.919857832312162227e-01 -3.825253078656010164e-01
1.251886227694453402e-01 5.545784403656147665e-01 -2.030071931889740888e-01
-1.837228568832726394e-01 -1.819001537468228208e-02 -1.866380836401188292e-01
4.262497443612402459e-01 -2.907478141619146417e-01 3.869922762015254869e-01
-1.283649112195504038e+00 2.377157676641481476e-01 -3.045613759715860569e-01
2.911907149019808336e-02 4.340157206475143969e-02 4.149604991959742091e-03
7.598835282022533555e-01 -8.506233207374972460e-01 -3.544082204904998590e-01
-6.978366011177959960e-01 7.828634686120576891e-01 -7.253355126001355124e-01
1.910394539250494517e-01 -2.171698441368660470e-01 1.236672453813506128e-01
-6.768118347688623082e-01 -6.825557719041237537e-01 6.586208704184935980e-01
