-9.746165657002294758e-01 2.958556403582629502e-01 -3.606030143770359575e-01
-3.431040937531508739e-01 -5.055039225856913232e-01 4.942528832449480936e-01
-5.840314402782911252e-01 3.468356236556192074e-01 -2.588237968672732481e-01
-6.981572467165682028e-01 -3.907461617483803940e-01 3.842148720842145648e-01
1.887662124380136697e-01 -1.221098909250499243e-01 7.243942916779655405e-03
9.445015471873452473e-02 3.888725988548819013e-01 -4.700690409951984727e-01
-8.250962583468555156e-01 -1.475422027850038953e+00 1.532451539453659750e+00
1.271556435084821024e-01 2.402025705736273997e-01 -2.016415876926404005e-01
-1.253432175756241385e-01 7.151650238061776355e-01 -8.757873531672095702e-01
7.111127954930630546e-01 1.142575892731435699e-01 -3.579523788752577707e-01
-2.150661712807171444e-01 2.808976282589532580e-01 -1.616459965722973346e-01
5.131031488584643085e-01 -6.237308042353559845e-01 -4.677748657199004567e-01
2.307742794688747434e-01 1.810770746162349842e-01 -3.611526369323358326e-02
-1.352448128008047812e+00 -6.021207855765793593e-02 -5.099967742656794090e-02
3.960577270868880784e-01 -1.178488958940553666e-01 -3.332688044609368183e-01
-6.447107676402509258e-01 4.887612648958525319e-01 -3.782339499620430145e-01
1.251886228046105998e-01 5.554492219274007603e-01 -2.037802877258664269e-01
-1.837228568832174613e-01 -1.825204613467297857e-02 -1.864006145932589620e-01
4.262497443612457970e-01 -2.910831448681457934e-01 3.870867737359746652e-01
-1.283649112195033082e+00 2.349455772101209927e-01 -3.016024762568536022e-01
2.911907149019808336e-02 4.340157206475143969e-02 4.149604991959742091e-03
7.598835282022533555e-01 -8.506232495105601199e-01 -3.544082204904998590e-01
-6.978366011169848671e-01 7.729238508169304911e-01 -7.184554878371548492e-01
1.910394539250494517e-01 -2.172532772346719709e-01 1.237034472130823654e-01
-6.768118347255034362e-01 -6.859552173791723106e-01 6.605562690311890250e-01
